<?xml version="1.0"?>
<opencv_storage>
<cascade>
  <stageType>BOOST</stageType>
  <featureType>LBP</featureType>
  <height>30</height>
  <width>20</width>
  <stageParams>
    <boostType>GAB</boostType>
    <minHitRate>9.9500000476837158e-001</minHitRate>
    <maxFalseAlarm>5.0000000000000000e-001</maxFalseAlarm>
    <weightTrimRate>9.4999999999999996e-001</weightTrimRate>
    <maxDepth>1</maxDepth>
    <maxWeakCount>100</maxWeakCount></stageParams>
  <featureParams>
    <maxCatCount>256</maxCatCount>
    <featSize>1</featSize></featureParams>
  <stageNum>20</stageNum>
  <stages>
    <!-- stage 0 -->
    <_>
      <maxWeakCount>2</maxWeakCount>
      <stageThreshold>-6.0762695968151093e-002</stageThreshold>
      <weakClassifiers>
        <_>
          <internalNodes>
            0 -1 14 -1012416213 33619992 16384 226623489 -1073741301
            17301515 -2147483510 -561259045</internalNodes>
          <leafValues>
            -9.6954315900802612e-001 9.0697675943374634e-001</leafValues></_>
        <_>
          <internalNodes>
            0 -1 5 -2113411955 33636368 132103 -514260989 -2004713469
            -2012708856 -2147401589 -74464817</internalNodes>
          <leafValues>
            -9.5401591062545776e-001 9.0878045558929443e-001</leafValues></_></weakClassifiers></_>
    <!-- stage 1 -->
    <_>
      <maxWeakCount>2</maxWeakCount>
      <stageThreshold>-4.9073278903961182e-002</stageThreshold>
      <weakClassifiers>
        <_>
          <internalNodes>
            0 -1 32 419893847 -788316126 268469649 -788279273
            -1744596850 -536837704 -2113928789 -105919521</internalNodes>
          <leafValues>
            -9.7969543933868408e-001 9.2248064279556274e-001</leafValues></_>
        <_>
          <internalNodes>
            0 -1 1 671817815 -653688832 77915 -653197301 1099440779
            -1727922048 -2138971941 -18103909</internalNodes>
          <leafValues>
            -9.4471919536590576e-001 9.3062216043472290e-001</leafValues></_></weakClassifiers></_>
    <!-- stage 2 -->
    <_>
      <maxWeakCount>2</maxWeakCount>
      <stageThreshold>-1.7234927415847778e-001</stageThreshold>
      <weakClassifiers>
        <_>
          <internalNodes>
            0 -1 0 1162863567 -1023344624 -2013220863 -721190832
            1208189071 -527953920 940067977 -78528381</internalNodes>
          <leafValues>
            -9.6842104196548462e-001 8.0882352590560913e-001</leafValues></_>
        <_>
          <internalNodes>
            0 -1 18 -784073850 -788430720 83886400 -1073495936
            -2147311454 -1877999471 -1870294837 -203433589</internalNodes>
          <leafValues>
            -9.8117280006408691e-001 8.1084638833999634e-001</leafValues></_></weakClassifiers></_>
    <!-- stage 3 -->
    <_>
      <maxWeakCount>2</maxWeakCount>
      <stageThreshold>-1.7515076696872711e-001</stageThreshold>
      <weakClassifiers>
        <_>
          <internalNodes>
            0 -1 12 1351315679 -1858011135 164096 -553631486 1077971083
            -1576337278 1090554047 -7355814</internalNodes>
          <leafValues>
            -9.3814432621002197e-001 8.1818181276321411e-001</leafValues></_>
        <_>
          <internalNodes>
            0 -1 26 318847255 -1794571888 -2080108395 521605120
            -1877939554 -1434353280 16967849 -628539255</internalNodes>
          <leafValues>
            -9.7156196832656860e-001 7.6299357414245605e-001</leafValues></_></weakClassifiers></_>
    <!-- stage 4 -->
    <_>
      <maxWeakCount>2</maxWeakCount>
      <stageThreshold>-4.3507735244929790e-003</stageThreshold>
      <weakClassifiers>
        <_>
          <internalNodes>
            0 -1 11 -203427373 -2147373049 67212352 -532574199 41975947
            -2147319808 -1056456637 -343686397</internalNodes>
          <leafValues>
            -9.3969851732254028e-001 8.8976377248764038e-001</leafValues></_>
        <_>
          <internalNodes>
            0 -1 35 -1060926909 1661145091 285212674 -1073741823 198658
            -2147287040 536905728 -472391677</internalNodes>
          <leafValues>
            -8.7252062559127808e-001 9.3534773588180542e-001</leafValues></_></weakClassifiers></_>
    <!-- stage 5 -->
    <_>
      <maxWeakCount>2</maxWeakCount>
      <stageThreshold>-1.4279863238334656e-001</stageThreshold>
      <weakClassifiers>
        <_>
          <internalNodes>
            0 -1 20 -644623397 -686219251 67112961 1501888771
            -1702125430 536936448 555274251 1271646459</internalNodes>
          <leafValues>
            -9.1878169775009155e-001 8.2945734262466431e-001</leafValues></_>
        <_>
          <internalNodes>
            0 -1 6 -1056595313 -712788862 -1073586155 -455409407
            -536834024 -1584398336 -1878457957 -75378530</internalNodes>
          <leafValues>
            -9.7225600481033325e-001 8.0512297153472900e-001</leafValues></_></weakClassifiers></_>
    <!-- stage 6 -->
    <_>
      <maxWeakCount>2</maxWeakCount>
      <stageThreshold>2.3236958310008049e-002</stageThreshold>
      <weakClassifiers>
        <_>
          <internalNodes>
            0 -1 39 -750518273 -327928 -1 -4 2147483647 -2147483647
            -2147351896 -3956215</internalNodes>
          <leafValues>
            -8.5849058628082275e-001 9.4736844301223755e-001</leafValues></_>
        <_>
          <internalNodes>
            0 -1 27 -721035025 -796852213 16859233 1095303233 1075841155
            -2138800126 98375 -242490229</internalNodes>
          <leafValues>
            -9.0607947111129761e-001 8.8172751665115356e-001</leafValues></_></weakClassifiers></_>
    <!-- stage 7 -->
    <_>
      <maxWeakCount>2</maxWeakCount>
      <stageThreshold>-6.4583778381347656e-002</stageThreshold>
      <weakClassifiers>
        <_>
          <internalNodes>
            0 -1 28 -2130210407 -787840743 1073807635 285315216
            -771749748 161005697 -2013228849 -343029553</internalNodes>
          <leafValues>
            -8.7439614534378052e-001 8.9915966987609863e-001</leafValues></_>
        <_>
          <internalNodes>
            0 -1 10 -671033697 1393123475 1073748179 -738197350
            -2147450677 -1473576829 -2147483511 -720805145</internalNodes>
          <leafValues>
            -9.6374344825744629e-001 8.1914407014846802e-001</leafValues></_></weakClassifiers></_>
    <!-- stage 8 -->
    <_>
      <maxWeakCount>2</maxWeakCount>
      <stageThreshold>-9.4944670796394348e-002</stageThreshold>
      <weakClassifiers>
        <_>
          <internalNodes>
            0 -1 37 1477664095 -1744601051 -2147479229 -1827667899
            -2147235441 -1971290014 -402554237 -71050615</internalNodes>
          <leafValues>
            -9.4764399528503418e-001 7.9259258508682251e-001</leafValues></_>
        <_>
          <internalNodes>
            0 -1 3 -48926025 -511049728 285278236 -587181103 276859019
            679479714 -2147406661 -74216753</internalNodes>
          <leafValues>
            -8.8753724098205566e-001 8.7088131904602051e-001</leafValues></_></weakClassifiers></_>
    <!-- stage 9 -->
    <_>
      <maxWeakCount>2</maxWeakCount>
      <stageThreshold>-1.3196566700935364e-001</stageThreshold>
      <weakClassifiers>
        <_>
          <internalNodes>
            0 -1 4 -401607729 1074500226 -2147483647 -213839868
            269457475 202080769 -519933725 -201523011</internalNodes>
          <leafValues>
            -9.1959798336029053e-001 8.5826772451400757e-001</leafValues></_>
        <_>
          <internalNodes>
            0 -1 40 1344528517 17006850 193 25503874 -2139062079
            -2147483640 -2146348925 -238554725</internalNodes>
          <leafValues>
            -9.3575465679168701e-001 7.8763228654861450e-001</leafValues></_></weakClassifiers></_>
    <!-- stage 10 -->
    <_>
      <maxWeakCount>2</maxWeakCount>
      <stageThreshold>-8.3578541874885559e-002</stageThreshold>
      <weakClassifiers>
        <_>
          <internalNodes>
            0 -1 7 294765047 805904410 553652358 -306018077 -1606385503
            -1869577855 -930971061 -69353309</internalNodes>
          <leafValues>
            -9.1000002622604370e-001 8.5714286565780640e-001</leafValues></_>
        <_>
          <internalNodes>
            0 -1 29 1362754769 1107329024 1107443717 1426145792 262306
            -626491376 1619100079 -341857558</internalNodes>
          <leafValues>
            -9.1149055957794189e-001 8.2642143964767456e-001</leafValues></_></weakClassifiers></_>
    <!-- stage 11 -->
    <_>
      <maxWeakCount>2</maxWeakCount>
      <stageThreshold>-1.3601765036582947e-001</stageThreshold>
      <weakClassifiers>
        <_>
          <internalNodes>
            0 -1 2 -2008460801 -753856447 -2147446687 1090719745
            1076363775 -1719662559 -519307256 -67251480</internalNodes>
          <leafValues>
            -8.7999999523162842e-001 8.0952382087707520e-001</leafValues></_>
        <_>
          <internalNodes>
            0 -1 17 696452607 -259943935 150999105 -780074679
            -2147118677 -2139084800 -536772389 -640046879</internalNodes>
          <leafValues>
            -9.4554144144058228e-001 7.7951955795288086e-001</leafValues></_></weakClassifiers></_>
    <!-- stage 12 -->
    <_>
      <maxWeakCount>2</maxWeakCount>
      <stageThreshold>-1.4662289619445801e-001</stageThreshold>
      <weakClassifiers>
        <_>
          <internalNodes>
            0 -1 36 -825244661 268484737 1073762561 1367466625
            -805191676 -2147155968 1208058060 -758923037</internalNodes>
          <leafValues>
            -8.7064677476882935e-001 8.0800002813339233e-001</leafValues></_>
        <_>
          <internalNodes>
            0 -1 24 -782921349 -1068036064 1342312577 -242024167
            -1740390003 -1736243135 671121792 723370219</internalNodes>
          <leafValues>
            -9.5462286472320557e-001 7.8316575288772583e-001</leafValues></_></weakClassifiers></_>
    <!-- stage 13 -->
    <_>
      <maxWeakCount>2</maxWeakCount>
      <stageThreshold>-2.0680582523345947e-001</stageThreshold>
      <weakClassifiers>
        <_>
          <internalNodes>
            0 -1 9 -1849044713 1895994259 1375735810 -637005495 229835
            -2080372727 554238082 -70398745</internalNodes>
          <leafValues>
            -9.2592591047286987e-001 7.3722624778747559e-001</leafValues></_>
        <_>
          <internalNodes>
            0 -1 8 1101090975 -241876992 86026 1544618201 -1606385525
            -939523704 -1937717095 -1686077270</internalNodes>
          <leafValues>
            -9.4403213262557983e-001 7.5501281023025513e-001</leafValues></_></weakClassifiers></_>
    <!-- stage 14 -->
    <_>
      <maxWeakCount>3</maxWeakCount>
      <stageThreshold>-9.8753899335861206e-001</stageThreshold>
      <weakClassifiers>
        <_>
          <internalNodes>
            0 -1 38 -514341453 -528281087 1114380 -1819750399
            -2147344367 -1979187136 -2122284148 -205667711</internalNodes>
          <leafValues>
            -8.9743590354919434e-001 7.7099233865737915e-001</leafValues></_>
        <_>
          <internalNodes>
            0 -1 31 -760004385 -620395637 -2130608047 -733407664
            -905281534 -872349566 -536870869 -372530496</internalNodes>
          <leafValues>
            -8.7693375349044800e-001 8.2345950603485107e-001</leafValues></_>
        <_>
          <internalNodes>
            0 -1 21 -1055926880 1233717320 65797 1962971216 -2130673278
            -2147483640 554271170 -7610237</internalNodes>
          <leafValues>
            -9.3254089355468750e-001 7.8683066368103027e-001</leafValues></_></weakClassifiers></_>
    <!-- stage 15 -->
    <_>
      <maxWeakCount>2</maxWeakCount>
      <stageThreshold>-2.1716831624507904e-001</stageThreshold>
      <weakClassifiers>
        <_>
          <internalNodes>
            0 -1 13 -2130587569 -1325334521 67649690 -1323853695
            -2126405573 -402587645 -452286334 -99952510</internalNodes>
          <leafValues>
            -9.2746114730834961e-001 7.8947371244430542e-001</leafValues></_>
        <_>
          <internalNodes>
            0 -1 33 335641437 -186974051 -1073214568 -594509548
            405289000 -886570880 -354366818 -40068359</internalNodes>
          <leafValues>
            -9.7096872329711914e-001 7.1029281616210938e-001</leafValues></_></weakClassifiers></_>
    <!-- stage 16 -->
    <_>
      <maxWeakCount>2</maxWeakCount>
      <stageThreshold>-1.3911341130733490e-001</stageThreshold>
      <weakClassifiers>
        <_>
          <internalNodes>
            0 -1 34 -653012513 -33289968 16777829 -787687395 -2013231994
            -1056931701 -922439204 -355630632</internalNodes>
          <leafValues>
            -9.5675677061080933e-001 7.3049646615982056e-001</leafValues></_>
        <_>
          <internalNodes>
            0 -1 25 808961723 1610678281 37809413 -117321211 -1593800696
            -767557504 -1073667840 -309990731</internalNodes>
          <leafValues>
            -8.6960989236831665e-001 8.4025096893310547e-001</leafValues></_></weakClassifiers></_>
    <!-- stage 17 -->
    <_>
      <maxWeakCount>2</maxWeakCount>
      <stageThreshold>1.4417360071092844e-003</stageThreshold>
      <weakClassifiers>
        <_>
          <internalNodes>
            0 -1 30 -552252517 293799189 1140969491 -1802903287
            -1744731925 1997013042 -2147450741 -645750390</internalNodes>
          <leafValues>
            -8.8999998569488525e-001 8.2539683580398560e-001</leafValues></_>
        <_>
          <internalNodes>
            0 -1 23 1173473915 -611202543 1606795 454033538 1099043442
            -2147448696 -661240917 -1177975862</internalNodes>
          <leafValues>
            -8.2395511865615845e-001 9.1833633184432983e-001</leafValues></_></weakClassifiers></_>
    <!-- stage 18 -->
    <_>
      <maxWeakCount>2</maxWeakCount>
      <stageThreshold>-2.0382739603519440e-001</stageThreshold>
      <weakClassifiers>
        <_>
          <internalNodes>
            0 -1 15 -213825065 -1000533743 16777473 -506744551
            1380664832 1073741824 -725426172 -133451176</internalNodes>
          <leafValues>
            -8.6734694242477417e-001 7.3846155405044556e-001</leafValues></_>
        <_>
          <internalNodes>
            0 -1 19 -721299038 -770113536 -2147483568 -788332541
            -1601598834 -1870594048 -2004375544 -1049247538</internalNodes>
          <leafValues>
            -9.4228893518447876e-001 6.7449808120727539e-001</leafValues></_></weakClassifiers></_>
    <!-- stage 19 -->
    <_>
      <maxWeakCount>2</maxWeakCount>
      <stageThreshold>-2.7333655953407288e-001</stageThreshold>
      <weakClassifiers>
        <_>
          <internalNodes>
            0 -1 16 126878467 -712815615 155997 -787266431 -1031749557
            145359114 -2146918265 -1170693471</internalNodes>
          <leafValues>
            -9.7752809524536133e-001 6.7567569017410278e-001</leafValues></_>
        <_>
          <internalNodes>
            0 -1 22 -107899405 -788201472 268452949 -1279178203
            -1610372978 -981302780 -1064269686 807780961</internalNodes>
          <leafValues>
            -9.1431480646133423e-001 7.0419150590896606e-001</leafValues></_></weakClassifiers></_></stages>
  <features>
    <_>
      <rect>
        0 1 4 4</rect></_>
    <_>
      <rect>
        0 1 5 3</rect></_>
    <_>
      <rect>
        0 9 4 4</rect></_>
    <_>
      <rect>
        0 14 4 2</rect></_>
    <_>
      <rect>
        1 3 3 7</rect></_>
    <_>
      <rect>
        1 6 6 4</rect></_>
    <_>
      <rect>
        1 11 4 2</rect></_>
    <_>
      <rect>
        1 13 6 5</rect></_>
    <_>
      <rect>
        1 16 6 1</rect></_>
    <_>
      <rect>
        1 18 3 4</rect></_>
    <_>
      <rect>
        1 22 4 2</rect></_>
    <_>
      <rect>
        2 7 2 5</rect></_>
    <_>
      <rect>
        2 13 6 5</rect></_>
    <_>
      <rect>
        3 1 2 4</rect></_>
    <_>
      <rect>
        3 7 2 5</rect></_>
    <_>
      <rect>
        3 8 2 5</rect></_>
    <_>
      <rect>
        4 0 5 3</rect></_>
    <_>
      <rect>
        4 2 3 2</rect></_>
    <_>
      <rect>
        4 9 2 4</rect></_>
    <_>
      <rect>
        6 4 2 3</rect></_>
    <_>
      <rect>
        6 7 3 3</rect></_>
    <_>
      <rect>
        6 16 1 1</rect></_>
    <_>
      <rect>
        7 6 2 2</rect></_>
    <_>
      <rect>
        7 8 2 5</rect></_>
    <_>
      <rect>
        7 14 3 4</rect></_>
    <_>
      <rect>
        8 0 2 7</rect></_>
    <_>
      <rect>
        8 2 4 2</rect></_>
    <_>
      <rect>
        8 8 2 5</rect></_>
    <_>
      <rect>
        8 14 4 2</rect></_>
    <_>
      <rect>
        8 18 2 4</rect></_>
    <_>
      <rect>
        9 10 2 2</rect></_>
    <_>
      <rect>
        10 0 2 4</rect></_>
    <_>
      <rect>
        10 1 3 3</rect></_>
    <_>
      <rect>
        10 3 3 2</rect></_>
    <_>
      <rect>
        10 21 2 3</rect></_>
    <_>
      <rect>
        11 0 1 8</rect></_>
    <_>
      <rect>
        11 2 1 7</rect></_>
    <_>
      <rect>
        11 2 3 3</rect></_>
    <_>
      <rect>
        11 18 3 4</rect></_>
    <_>
      <rect>
        12 22 1 2</rect></_>
    <_>
      <rect>
        14 1 2 6</rect></_></features></cascade>
</opencv_storage>
