<?xml version="1.0"?>
<opencv_storage>
<cascade>
  <stageType>BOOST</stageType>
  <featureType>LBP</featureType>
  <height>30</height>
  <width>20</width>
  <stageParams>
    <boostType>GAB</boostType>
    <minHitRate>9.9500000476837158e-001</minHitRate>
    <maxFalseAlarm>5.0000000000000000e-001</maxFalseAlarm>
    <weightTrimRate>9.4999999999999996e-001</weightTrimRate>
    <maxDepth>1</maxDepth>
    <maxWeakCount>100</maxWeakCount></stageParams>
  <featureParams>
    <maxCatCount>256</maxCatCount>
    <featSize>1</featSize></featureParams>
  <stageNum>20</stageNum>
  <stages>
    <!-- stage 0 -->
    <_>
      <maxWeakCount>2</maxWeakCount>
      <stageThreshold>-8.2653619349002838e-002</stageThreshold>
      <weakClassifiers>
        <_>
          <internalNodes>
            0 -1 11 -542116882 1208025248 74 -286262269 2013001722
            2012739583 -2146909185 -3684117</internalNodes>
          <leafValues>
            -9.1000002622604370e-001 9.1928249597549438e-001</leafValues></_>
        <_>
          <internalNodes>
            0 -1 5 -928263550 131084 16901 -1040154601 67141633 50462723
            -2013100013 -784645965</internalNodes>
          <leafValues>
            -9.7358405590057373e-001 8.2734638452529907e-001</leafValues></_></weakClassifiers></_>
    <!-- stage 1 -->
    <_>
      <maxWeakCount>2</maxWeakCount>
      <stageThreshold>7.3175035417079926e-002</stageThreshold>
      <weakClassifiers>
        <_>
          <internalNodes>
            0 -1 9 -269486109 -2031022017 -269484049 -269484033
            -134220297 -1040189441 -917929821 -1</internalNodes>
          <leafValues>
            -8.4541064500808716e-001 9.1666668653488159e-001</leafValues></_>
        <_>
          <internalNodes>
            0 -1 19 817090695 -771538687 540673 -738115567 -1039441911
            587415681 1610629643 -97785393</internalNodes>
          <leafValues>
            -8.3917725086212158e-001 9.1858565807342529e-001</leafValues></_></weakClassifiers></_>
    <!-- stage 2 -->
    <_>
      <maxWeakCount>2</maxWeakCount>
      <stageThreshold>-6.4069367945194244e-002</stageThreshold>
      <weakClassifiers>
        <_>
          <internalNodes>
            0 -1 26 -671088679 1610350591 2012741587 1946157055
            -805318964 1338888174 -33556343 -2097153</internalNodes>
          <leafValues>
            -8.2439023256301880e-001 8.8073396682739258e-001</leafValues></_>
        <_>
          <internalNodes>
            0 -1 2 1963139294 -586084331 25166172 1375764482 207096
            -1971158847 -905871189 -544501301</internalNodes>
          <leafValues>
            -9.9142551422119141e-001 7.6032090187072754e-001</leafValues></_></weakClassifiers></_>
    <!-- stage 3 -->
    <_>
      <maxWeakCount>2</maxWeakCount>
      <stageThreshold>6.0791820287704468e-003</stageThreshold>
      <weakClassifiers>
        <_>
          <internalNodes>
            0 -1 24 -168428295 1342407745 -16975 -751489089 -1065230110
            -1610350584 2134884139 -1107296257</internalNodes>
          <leafValues>
            -8.4236454963684082e-001 8.8181817531585693e-001</leafValues></_>
        <_>
          <internalNodes>
            0 -1 27 809505117 -754122751 285212755 -712932959
            -1876256631 402661376 536905947 -1433759345</internalNodes>
          <leafValues>
            -8.6715245246887207e-001 8.4844368696212769e-001</leafValues></_></weakClassifiers></_>
    <!-- stage 4 -->
    <_>
      <maxWeakCount>2</maxWeakCount>
      <stageThreshold>-4.4781461358070374e-002</stageThreshold>
      <weakClassifiers>
        <_>
          <internalNodes>
            0 -1 16 -213661533 1375797761 -1610022400 -2079817573
            1241513987 33689601 -1073528695 -290743346</internalNodes>
          <leafValues>
            -8.9743590354919434e-001 8.6842107772827148e-001</leafValues></_>
        <_>
          <internalNodes>
            0 -1 37 1074250371 1342504992 -2147483647 86065217 16875650
            -939458560 1073856643 -242224365</internalNodes>
          <leafValues>
            -8.7115240097045898e-001 8.5265445709228516e-001</leafValues></_></weakClassifiers></_>
    <!-- stage 5 -->
    <_>
      <maxWeakCount>2</maxWeakCount>
      <stageThreshold>-1.1321182548999786e-001</stageThreshold>
      <weakClassifiers>
        <_>
          <internalNodes>
            0 -1 12 -686075694 -750043120 10513 1434517521 8956669
            478314560 -2109695860 693706867</internalNodes>
          <leafValues>
            -9.1061455011367798e-001 7.6229506731033325e-001</leafValues></_>
        <_>
          <internalNodes>
            0 -1 6 -2096934094 -654082048 1033 -720957424 753856
            402653184 -2147442674 -7380862</internalNodes>
          <leafValues>
            -8.6746376752853394e-001 7.9740267992019653e-001</leafValues></_></weakClassifiers></_>
    <!-- stage 6 -->
    <_>
      <maxWeakCount>2</maxWeakCount>
      <stageThreshold>4.6344209462404251e-002</stageThreshold>
      <weakClassifiers>
        <_>
          <internalNodes>
            0 -1 0 2146431743 -3943 -286327057 -273678337 -538116097
            -536872961 -2004875125 -8</internalNodes>
          <leafValues>
            -7.6525819301605225e-001 8.8571429252624512e-001</leafValues></_>
        <_>
          <internalNodes>
            0 -1 23 -1056847634 1346474264 1090519065 -645234431
            -1878949655 -1341620216 -402087765 -549093349</internalNodes>
          <leafValues>
            -8.3937007188796997e-001 8.1782907247543335e-001</leafValues></_></weakClassifiers></_>
    <!-- stage 7 -->
    <_>
      <maxWeakCount>2</maxWeakCount>
      <stageThreshold>-1.1768113821744919e-001</stageThreshold>
      <weakClassifiers>
        <_>
          <internalNodes>
            0 -1 28 -753823540 826376209 65537 285475607 -1744797492
            168329217 -401885044 -895842149</internalNodes>
          <leafValues>
            -8.7845301628112793e-001 7.5206613540649414e-001</leafValues></_>
        <_>
          <internalNodes>
            0 -1 8 -552996573 -1073545216 1073823904 1157660928
            1610842771 -1576927232 1761677596 -351035369</internalNodes>
          <leafValues>
            -8.6974728107452393e-001 8.0884122848510742e-001</leafValues></_></weakClassifiers></_>
    <!-- stage 8 -->
    <_>
      <maxWeakCount>2</maxWeakCount>
      <stageThreshold>-3.7947829812765121e-002</stageThreshold>
      <weakClassifiers>
        <_>
          <internalNodes>
            0 -1 31 1430467298 -788085628 8716289 17416323 1074376846
            -1862270974 -934952822 -70414133</internalNodes>
          <leafValues>
            -8.6956518888473511e-001 7.6569038629531860e-001</leafValues></_>
        <_>
          <internalNodes>
            0 -1 18 -629027913 323227649 1 -1056767997 -2146196894
            -2139095039 -368516885 -620314501</internalNodes>
          <leafValues>
            -8.0363821983337402e-001 8.6133992671966553e-001</leafValues></_></weakClassifiers></_>
    <!-- stage 9 -->
    <_>
      <maxWeakCount>2</maxWeakCount>
      <stageThreshold>-2.2474364936351776e-001</stageThreshold>
      <weakClassifiers>
        <_>
          <internalNodes>
            0 -1 35 -1034947890 -805271549 -2147254007 -788332413
            1350795289 402653184 1082220555 2031083631</internalNodes>
          <leafValues>
            -9.6363633871078491e-001 7.0542633533477783e-001</leafValues></_>
        <_>
          <internalNodes>
            0 -1 32 -804793354 -1874787326 -2147474430 121733120
            -1056600056 33636352 -1526020727 2014048971</internalNodes>
          <leafValues>
            -9.3016999959945679e-001 7.5184440612792969e-001</leafValues></_></weakClassifiers></_>
    <!-- stage 10 -->
    <_>
      <maxWeakCount>2</maxWeakCount>
      <stageThreshold>-1.0585742443799973e-001</stageThreshold>
      <weakClassifiers>
        <_>
          <internalNodes>
            0 -1 3 -1560031175 1107298371 151049664 1228935443
            -863498086 -1047984102 -1180007739 -1518288493</internalNodes>
          <leafValues>
            -8.8235294818878174e-001 7.9661017656326294e-001</leafValues></_>
        <_>
          <internalNodes>
            0 -1 30 -1023020257 -1067417600 537083920 1896415496
            318943770 671227904 671098901 2072752777</internalNodes>
          <leafValues>
            -9.0246760845184326e-001 8.1668579578399658e-001</leafValues></_></weakClassifiers></_>
    <!-- stage 11 -->
    <_>
      <maxWeakCount>2</maxWeakCount>
      <stageThreshold>-7.7452763915061951e-002</stageThreshold>
      <weakClassifiers>
        <_>
          <internalNodes>
            0 -1 17 -716475646 -552497053 1073754432 1669402624
            -1043602797 16941056 -230387061 -605189606</internalNodes>
          <leafValues>
            -8.8888889551162720e-001 7.5308644771575928e-001</leafValues></_>
        <_>
          <internalNodes>
            0 -1 13 -2146765997 428278179 268468243 285310977
            -2113894258 -536870912 318996865 -404946015</internalNodes>
          <leafValues>
            -8.3053916692733765e-001 8.1558203697204590e-001</leafValues></_></weakClassifiers></_>
    <!-- stage 12 -->
    <_>
      <maxWeakCount>2</maxWeakCount>
      <stageThreshold>-1.9984108209609985e-001</stageThreshold>
      <weakClassifiers>
        <_>
          <internalNodes>
            0 -1 14 169877810 1460342787 67191057 -711978908 -1172061542
            -1843392512 -1442283329 -1415302105</internalNodes>
          <leafValues>
            -9.3023258447647095e-001 7.2908365726470947e-001</leafValues></_>
        <_>
          <internalNodes>
            0 -1 7 403751766 -1258155599 -1035828718 -750137275
            1078182082 1073938496 -1071181749 -272125439</internalNodes>
          <leafValues>
            -9.1402155160903931e-001 7.3039144277572632e-001</leafValues></_></weakClassifiers></_>
    <!-- stage 13 -->
    <_>
      <maxWeakCount>2</maxWeakCount>
      <stageThreshold>-9.4346404075622559e-002</stageThreshold>
      <weakClassifiers>
        <_>
          <internalNodes>
            0 -1 26 822543761 421004289 18579 1359808529 -1071019892
            142606344 -2012700600 -309641079</internalNodes>
          <leafValues>
            -8.8700562715530396e-001 7.3170733451843262e-001</leafValues></_>
        <_>
          <internalNodes>
            0 -1 24 -247336233 -191266679 542 -847052791 -1795128429
            -1073704832 570458646 -660635516</internalNodes>
          <leafValues>
            -8.2605373859405518e-001 8.2325774431228638e-001</leafValues></_></weakClassifiers></_>
    <!-- stage 14 -->
    <_>
      <maxWeakCount>2</maxWeakCount>
      <stageThreshold>7.5044907629489899e-002</stageThreshold>
      <weakClassifiers>
        <_>
          <internalNodes>
            0 -1 1 -1048577 -286261266 270530303 -586088126 -32581
            -3211273 2013263871 -74854213</internalNodes>
          <leafValues>
            -7.3515981435775757e-001 9.0196079015731812e-001</leafValues></_>
        <_>
          <internalNodes>
            0 -1 36 -1018703205 167903240 266752 -780107776 770187
            150995074 1077952905 -73149815</internalNodes>
          <leafValues>
            -8.2691586017608643e-001 8.1821286678314209e-001</leafValues></_></weakClassifiers></_>
    <!-- stage 15 -->
    <_>
      <maxWeakCount>2</maxWeakCount>
      <stageThreshold>-1.7686943709850311e-001</stageThreshold>
      <weakClassifiers>
        <_>
          <internalNodes>
            0 -1 20 -213419838 -653031267 32967 1140932625 -938352472
            -939491200 8487563 2093580307</internalNodes>
          <leafValues>
            -8.6666667461395264e-001 7.3662549257278442e-001</leafValues></_>
        <_>
          <internalNodes>
            0 -1 29 -154410802 1610829842 33563136 -1342109047 537105113
            16388 671378475 -402136302</internalNodes>
          <leafValues>
            -9.1349494457244873e-001 7.1117746829986572e-001</leafValues></_></weakClassifiers></_>
    <!-- stage 16 -->
    <_>
      <maxWeakCount>2</maxWeakCount>
      <stageThreshold>-6.3724093139171600e-002</stageThreshold>
      <weakClassifiers>
        <_>
          <internalNodes>
            0 -1 10 1279521543 -467853286 575146112 1208173249
            -515468413 805437952 -1022525312 -221687413</internalNodes>
          <leafValues>
            -8.9830505847930908e-001 7.3983740806579590e-001</leafValues></_>
        <_>
          <internalNodes>
            0 -1 33 -1223616989 -1828519421 369 327166998 -2146795457
            1091257002 -2012162685 -798644057</internalNodes>
          <leafValues>
            -7.7647441625595093e-001 8.3458101749420166e-001</leafValues></_></weakClassifiers></_>
    <!-- stage 17 -->
    <_>
      <maxWeakCount>2</maxWeakCount>
      <stageThreshold>3.0931942164897919e-002</stageThreshold>
      <weakClassifiers>
        <_>
          <internalNodes>
            0 -1 4 543523075 -771333613 1073779201 -754593263 570654855
            1207992332 -1971289752 -604785137</internalNodes>
          <leafValues>
            -8.5263156890869141e-001 7.9399138689041138e-001</leafValues></_>
        <_>
          <internalNodes>
            0 -1 22 1610416127 1039990782 2147483647 2147483646 -131074
            -655362 -2 -512260</internalNodes>
          <leafValues>
            -7.6305949687957764e-001 8.9102280139923096e-001</leafValues></_></weakClassifiers></_>
    <!-- stage 18 -->
    <_>
      <maxWeakCount>2</maxWeakCount>
      <stageThreshold>-4.2850524187088013e-002</stageThreshold>
      <weakClassifiers>
        <_>
          <internalNodes>
            0 -1 34 1351245647 -45005 -1 -17 -32785 -1 2147481743
            -353636369</internalNodes>
          <leafValues>
            -8.0295568704605103e-001 8.4545457363128662e-001</leafValues></_>
        <_>
          <internalNodes>
            0 -1 15 -259795116 -534633470 1073811842 -1039794174 196611
            1476403202 -1694244861 -385381621</internalNodes>
          <leafValues>
            -8.3343362808227539e-001 7.6010513305664063e-001</leafValues></_></weakClassifiers></_>
    <!-- stage 19 -->
    <_>
      <maxWeakCount>2</maxWeakCount>
      <stageThreshold>8.3986409008502960e-002</stageThreshold>
      <weakClassifiers>
        <_>
          <internalNodes>
            0 -1 25 -132325 -1086324737 -201376973 872120314 -25165873
            -891290657 -7985 -536870921</internalNodes>
          <leafValues>
            -6.6371679306030273e-001 8.7817257642745972e-001</leafValues></_>
        <_>
          <internalNodes>
            0 -1 21 -875462173 -2054040828 1397825792 -1047445361
            -2095922670 1074397216 -1600478773 -240332666</internalNodes>
          <leafValues>
            -7.9418617486953735e-001 8.2288008928298950e-001</leafValues></_></weakClassifiers></_></stages>
  <features>
    <_>
      <rect>
        0 9 4 4</rect></_>
    <_>
      <rect>
        0 14 4 2</rect></_>
    <_>
      <rect>
        1 12 6 6</rect></_>
    <_>
      <rect>
        1 13 6 5</rect></_>
    <_>
      <rect>
        2 0 2 5</rect></_>
    <_>
      <rect>
        2 3 2 7</rect></_>
    <_>
      <rect>
        3 0 2 4</rect></_>
    <_>
      <rect>
        3 5 3 8</rect></_>
    <_>
      <rect>
        3 6 2 6</rect></_>
    <_>
      <rect>
        3 7 2 5</rect></_>
    <_>
      <rect>
        3 7 2 6</rect></_>
    <_>
      <rect>
        3 7 3 5</rect></_>
    <_>
      <rect>
        3 11 5 3</rect></_>
    <_>
      <rect>
        4 2 2 3</rect></_>
    <_>
      <rect>
        4 2 3 2</rect></_>
    <_>
      <rect>
        4 6 1 7</rect></_>
    <_>
      <rect>
        4 9 2 3</rect></_>
    <_>
      <rect>
        4 9 2 4</rect></_>
    <_>
      <rect>
        4 10 2 3</rect></_>
    <_>
      <rect>
        6 3 3 7</rect></_>
    <_>
      <rect>
        6 6 3 3</rect></_>
    <_>
      <rect>
        6 8 2 5</rect></_>
    <_>
      <rect>
        6 24 3 2</rect></_>
    <_>
      <rect>
        7 9 2 4</rect></_>
    <_>
      <rect>
        8 9 2 4</rect></_>
    <_>
      <rect>
        8 10 4 2</rect></_>
    <_>
      <rect>
        8 14 4 2</rect></_>
    <_>
      <rect>
        9 1 3 3</rect></_>
    <_>
      <rect>
        9 14 3 2</rect></_>
    <_>
      <rect>
        10 6 2 6</rect></_>
    <_>
      <rect>
        10 18 2 4</rect></_>
    <_>
      <rect>
        11 2 3 5</rect></_>
    <_>
      <rect>
        11 14 2 5</rect></_>
    <_>
      <rect>
        11 20 3 2</rect></_>
    <_>
      <rect>
        12 0 2 4</rect></_>
    <_>
      <rect>
        12 9 2 4</rect></_>
    <_>
      <rect>
        12 18 1 4</rect></_>
    <_>
      <rect>
        14 1 2 6</rect></_></features></cascade>
</opencv_storage>
