<?xml version="1.0"?>
<opencv_storage>
<cascade>
  <stageType>BOOST</stageType>
  <featureType>LBP</featureType>
  <height>30</height>
  <width>20</width>
  <stageParams>
    <boostType>GAB</boostType>
    <minHitRate>9.9500000476837158e-001</minHitRate>
    <maxFalseAlarm>5.0000000000000000e-001</maxFalseAlarm>
    <weightTrimRate>9.4999999999999996e-001</weightTrimRate>
    <maxDepth>1</maxDepth>
    <maxWeakCount>100</maxWeakCount></stageParams>
  <featureParams>
    <maxCatCount>256</maxCatCount>
    <featSize>1</featSize></featureParams>
  <stageNum>20</stageNum>
  <stages>
    <!-- stage 0 -->
    <_>
      <maxWeakCount>2</maxWeakCount>
      <stageThreshold>-5.7308558374643326e-002</stageThreshold>
      <weakClassifiers>
        <_>
          <internalNodes>
            0 -1 14 -1012416221 33619992 16384 226623489 -1073741309
            17301515 -2147483510 -561259045</internalNodes>
          <leafValues>
            -9.4871795177459717e-001 8.9130437374114990e-001</leafValues></_>
        <_>
          <internalNodes>
            0 -1 15 -618925878 164352 36 -1073545213 -1073741822 131200
            -1073184549 -741621041</internalNodes>
          <leafValues>
            -9.4861292839050293e-001 8.9250761270523071e-001</leafValues></_></weakClassifiers></_>
    <!-- stage 1 -->
    <_>
      <maxWeakCount>2</maxWeakCount>
      <stageThreshold>-1.2814581394195557e-001</stageThreshold>
      <weakClassifiers>
        <_>
          <internalNodes>
            0 -1 37 1125610498 -922386431 16777495 -1056882559
            -1073561597 135331968 -2113617781 -309593457</internalNodes>
          <leafValues>
            -9.5698922872543335e-001 8.1347149610519409e-001</leafValues></_>
        <_>
          <internalNodes>
            0 -1 8 -787821602 -1056636782 -2080356093 -263192560
            -2146958648 -1132445567 -2146795317 -1148627457</internalNodes>
          <leafValues>
            -9.4161731004714966e-001 8.4169769287109375e-001</leafValues></_></weakClassifiers></_>
    <!-- stage 2 -->
    <_>
      <maxWeakCount>2</maxWeakCount>
      <stageThreshold>-7.7609546482563019e-002</stageThreshold>
      <weakClassifiers>
        <_>
          <internalNodes>
            0 -1 6 -779235114 -721186799 2388 1376289170 1107296472
            -1912569791 167887049 -119813493</internalNodes>
          <leafValues>
            -9.4652408361434937e-001 8.1250000000000000e-001</leafValues></_>
        <_>
          <internalNodes>
            0 -1 27 -799939857 1208549523 2187 -1052704757 -1862221662
            -2147450878 -2013228917 -208674257</internalNodes>
          <leafValues>
            -8.7374961376190186e-001 8.6891454458236694e-001</leafValues></_></weakClassifiers></_>
    <!-- stage 3 -->
    <_>
      <maxWeakCount>2</maxWeakCount>
      <stageThreshold>-1.4850303530693054e-001</stageThreshold>
      <weakClassifiers>
        <_>
          <internalNodes>
            0 -1 4 -274214206 -1609564032 268632194 -1063059199
            -2146320238 1073741824 -661749591 -594816377</internalNodes>
          <leafValues>
            -9.4444441795349121e-001 7.4874371290206909e-001</leafValues></_>
        <_>
          <internalNodes>
            0 -1 12 -2146709494 -1056604157 65601 -787410336 -335494973
            -1593687936 -268201829 -643071998</internalNodes>
          <leafValues>
            -8.9724677801132202e-001 8.4668910503387451e-001</leafValues></_></weakClassifiers></_>
    <!-- stage 4 -->
    <_>
      <maxWeakCount>2</maxWeakCount>
      <stageThreshold>-4.5644674450159073e-002</stageThreshold>
      <weakClassifiers>
        <_>
          <internalNodes>
            0 -1 0 1124122863 1460732033 268436051 1360070263 134320825
            -1602224127 57486 -645332833</internalNodes>
          <leafValues>
            -8.9847713708877563e-001 8.5714286565780640e-001</leafValues></_>
        <_>
          <internalNodes>
            0 -1 25 1062171 -712965887 1090535509 -1794043903 1744830475
            -2013265776 -1068924758 -2004147555</internalNodes>
          <leafValues>
            -9.0265524387359619e-001 8.5283249616622925e-001</leafValues></_></weakClassifiers></_>
    <!-- stage 5 -->
    <_>
      <maxWeakCount>2</maxWeakCount>
      <stageThreshold>-2.6856865733861923e-002</stageThreshold>
      <weakClassifiers>
        <_>
          <internalNodes>
            0 -1 16 -179308093 153124869 1610613377 -2109488768
            1363902469 805306496 961053579 -397808953</internalNodes>
          <leafValues>
            -9.2857140302658081e-001 8.7978142499923706e-001</leafValues></_>
        <_>
          <internalNodes>
            0 -1 29 1073996803 -1056964069 1207984144 -1996389886
            1090584713 -1874837504 -1073591808 -740300277</internalNodes>
          <leafValues>
            -9.0221351385116577e-001 9.0171456336975098e-001</leafValues></_></weakClassifiers></_>
    <!-- stage 6 -->
    <_>
      <maxWeakCount>2</maxWeakCount>
      <stageThreshold>-1.2606742978096008e-001</stageThreshold>
      <weakClassifiers>
        <_>
          <internalNodes>
            0 -1 31 -242880295 1343296512 8707 -1861779445 -805289853
            536969217 270570668 -106184021</internalNodes>
          <leafValues>
            -9.0526318550109863e-001 7.9894179105758667e-001</leafValues></_>
        <_>
          <internalNodes>
            0 -1 5 633921662 -1223573499 83886419 -381681279 344290
            -1819934711 -2139094855 -385669493</internalNodes>
          <leafValues>
            -9.2500925064086914e-001 7.8294676542282104e-001</leafValues></_></weakClassifiers></_>
    <!-- stage 7 -->
    <_>
      <maxWeakCount>2</maxWeakCount>
      <stageThreshold>-6.1726920306682587e-002</stageThreshold>
      <weakClassifiers>
        <_>
          <internalNodes>
            0 -1 32 -16777255 -537133057 2013265875 -201326593
            -536883506 1339936750 -818 -2097153</internalNodes>
          <leafValues>
            -8.0281692743301392e-001 9.0361446142196655e-001</leafValues></_>
        <_>
          <internalNodes>
            0 -1 24 -921970978 -754769855 1073791513 88178690
            -2145152358 1484816514 239759 454672395</internalNodes>
          <leafValues>
            -9.6534138917922974e-001 7.7441024780273438e-001</leafValues></_></weakClassifiers></_>
    <!-- stage 8 -->
    <_>
      <maxWeakCount>2</maxWeakCount>
      <stageThreshold>-1.4682424068450928e-001</stageThreshold>
      <weakClassifiers>
        <_>
          <internalNodes>
            0 -1 18 -1784547110 -736779232 840008117 2063665409
            -1073732933 1216446464 -1577025381 1761849345</internalNodes>
          <leafValues>
            -9.6590906381607056e-001 7.3399013280868530e-001</leafValues></_>
        <_>
          <internalNodes>
            0 -1 10 1929631431 -134082544 10 1342360115 536928271
            1224738952 41001 -552090745</internalNodes>
          <leafValues>
            -8.6610853672027588e-001 8.1908482313156128e-001</leafValues></_></weakClassifiers></_>
    <!-- stage 9 -->
    <_>
      <maxWeakCount>2</maxWeakCount>
      <stageThreshold>-6.6532388329505920e-002</stageThreshold>
      <weakClassifiers>
        <_>
          <internalNodes>
            0 -1 9 -1448414761 -218037877 -36591 -16642 -538968065
            -1693974529 -32533 -1085361537</internalNodes>
          <leafValues>
            -7.6851850748062134e-001 8.8957053422927856e-001</leafValues></_>
        <_>
          <internalNodes>
            0 -1 35 -788343726 1426382856 -1073733376 1627521040
            -1874802518 705822728 1107410954 1928300591</internalNodes>
          <leafValues>
            -1. 7.0198613405227661e-001</leafValues></_></weakClassifiers></_>
    <!-- stage 10 -->
    <_>
      <maxWeakCount>2</maxWeakCount>
      <stageThreshold>-5.3998127579689026e-002</stageThreshold>
      <weakClassifiers>
        <_>
          <internalNodes>
            0 -1 1 1408201471 -7667711 -286327057 -290455553 -538050561
            -650119169 -1073741825 -1</internalNodes>
          <leafValues>
            -8.3653843402862549e-001 8.9473682641983032e-001</leafValues></_>
        <_>
          <internalNodes>
            0 -1 3 1094969255 -1962176511 16843049 -917404658
            -2109730565 -1879015358 1483378765 -102203189</internalNodes>
          <leafValues>
            -9.4873499870300293e-001 7.9843777418136597e-001</leafValues></_></weakClassifiers></_>
    <!-- stage 11 -->
    <_>
      <maxWeakCount>2</maxWeakCount>
      <stageThreshold>-1.0725104063749313e-001</stageThreshold>
      <weakClassifiers>
        <_>
          <internalNodes>
            0 -1 20 17027939 -804225022 285229073 -788462303 134283319
            -939359648 -1606313749 -221580669</internalNodes>
          <leafValues>
            -8.8297873735427856e-001 7.5916230678558350e-001</leafValues></_>
        <_>
          <internalNodes>
            0 -1 33 285333719 -788479416 1075856657 -251461632 131482
            -1207959552 671318683 -1148974520</internalNodes>
          <leafValues>
            -8.6641335487365723e-001 7.9406750202178955e-001</leafValues></_></weakClassifiers></_>
    <!-- stage 12 -->
    <_>
      <maxWeakCount>2</maxWeakCount>
      <stageThreshold>-9.1625794768333435e-002</stageThreshold>
      <weakClassifiers>
        <_>
          <internalNodes>
            0 -1 40 1073995907 -1056718839 1101971 -1811873726 134250639
            268959875 1207998497 -339230581</internalNodes>
          <leafValues>
            -8.4848487377166748e-001 8.1215471029281616e-001</leafValues></_>
        <_>
          <internalNodes>
            0 -1 23 -259804781 1224933639 16846848 -2147430396
            1073955024 1140916288 -788529006 -1291599473</internalNodes>
          <leafValues>
            -8.9340847730636597e-001 7.5685906410217285e-001</leafValues></_></weakClassifiers></_>
    <!-- stage 13 -->
    <_>
      <maxWeakCount>2</maxWeakCount>
      <stageThreshold>-5.4126415401697159e-002</stageThreshold>
      <weakClassifiers>
        <_>
          <internalNodes>
            0 -1 2 17834683 328368130 269041749 -720305903 8921339
            -1467901950 -2004844405 -1400762225</internalNodes>
          <leafValues>
            -8.5567009449005127e-001 7.8378379344940186e-001</leafValues></_>
        <_>
          <internalNodes>
            0 -1 7 -783981745 454098946 1074921557 -544997308 41943211
            -536805248 545817098 -74735344</internalNodes>
          <leafValues>
            -8.3791017532348633e-001 8.7813174724578857e-001</leafValues></_></weakClassifiers></_>
    <!-- stage 14 -->
    <_>
      <maxWeakCount>2</maxWeakCount>
      <stageThreshold>-1.9192899763584137e-001</stageThreshold>
      <weakClassifiers>
        <_>
          <internalNodes>
            0 -1 26 1150529155 -771620606 -2147479535 -800520960
            -2143125374 -2147483648 273287811 -796419197</internalNodes>
          <leafValues>
            -8.9071035385131836e-001 7.2448980808258057e-001</leafValues></_>
        <_>
          <internalNodes>
            0 -1 36 -753413176 -753922032 268451968 -771685352
            -1811889443 -1837006719 -2075131710 -410025856</internalNodes>
          <leafValues>
            -9.1641879081726074e-001 7.3328435420989990e-001</leafValues></_></weakClassifiers></_>
    <!-- stage 15 -->
    <_>
      <maxWeakCount>3</maxWeakCount>
      <stageThreshold>-8.1145077943801880e-001</stageThreshold>
      <weakClassifiers>
        <_>
          <internalNodes>
            0 -1 11 -2130447453 -1794928319 319832081 -1003884030
            -2147446519 1077936672 -1610513792 -204998125</internalNodes>
          <leafValues>
            -8.3505153656005859e-001 7.6216214895248413e-001</leafValues></_>
        <_>
          <internalNodes>
            0 -1 21 -182455353 -2147153918 69638 9519401 -2147414015
            1115717632 9535617 -78707957</internalNodes>
          <leafValues>
            -8.1698024272918701e-001 8.3501493930816650e-001</leafValues></_>
        <_>
          <internalNodes>
            0 -1 39 -131089 -302645249 -4182 2113925119 1979152308
            -143261697 -134218433 -33554433</internalNodes>
          <leafValues>
            -7.5663268566131592e-001 9.1527175903320313e-001</leafValues></_></weakClassifiers></_>
    <!-- stage 16 -->
    <_>
      <maxWeakCount>2</maxWeakCount>
      <stageThreshold>-1.1219531297683716e-001</stageThreshold>
      <weakClassifiers>
        <_>
          <internalNodes>
            0 -1 13 1108333027 -577666765 1099006021 25252881
            -1593835471 -1432354813 1208537625 1991615277</internalNodes>
          <leafValues>
            -9.4219654798507690e-001 6.8932038545608521e-001</leafValues></_>
        <_>
          <internalNodes>
            0 -1 30 -787755005 1434456081 -2146922493 906035200
            -796884830 -1434157056 -1971289413 -2066247541</internalNodes>
          <leafValues>
            -8.0151569843292236e-001 8.6566317081451416e-001</leafValues></_></weakClassifiers></_>
    <!-- stage 17 -->
    <_>
      <maxWeakCount>2</maxWeakCount>
      <stageThreshold>-2.0993825793266296e-001</stageThreshold>
      <weakClassifiers>
        <_>
          <internalNodes>
            0 -1 34 404234069 -712031985 -2134883327 -523566716 21000658
            -1433894780 -2113285694 -1434318165</internalNodes>
          <leafValues>
            -9.6511626243591309e-001 7.0048308372497559e-001</leafValues></_>
        <_>
          <internalNodes>
            0 -1 19 1477951743 1468369985 1073877780 541115661 553718793
            269090816 -1977574966 -1682390677</internalNodes>
          <leafValues>
            -9.1042137145996094e-001 7.9244035482406616e-001</leafValues></_></weakClassifiers></_>
    <!-- stage 18 -->
    <_>
      <maxWeakCount>3</maxWeakCount>
      <stageThreshold>-9.7469395399093628e-001</stageThreshold>
      <weakClassifiers>
        <_>
          <internalNodes>
            0 -1 17 -640720141 -749371007 557990475 -935100153
            -1324711931 1744830464 -1342140000 -223379455</internalNodes>
          <leafValues>
            -8.3673471212387085e-001 7.8142076730728149e-001</leafValues></_>
        <_>
          <internalNodes>
            0 -1 28 -920202981 -918020080 32899 1414594626 822640665
            -903872504 268476929 -117211069</internalNodes>
          <leafValues>
            -8.8657653331756592e-001 7.5426226854324341e-001</leafValues></_>
        <_>
          <internalNodes>
            0 -1 38 -1711037389 322994208 196739 -767098868 134856843
            -2147475456 1075847625 -611362687</internalNodes>
          <leafValues>
            -8.9222151041030884e-001 7.9034447669982910e-001</leafValues></_></weakClassifiers></_>
    <!-- stage 19 -->
    <_>
      <maxWeakCount>2</maxWeakCount>
      <stageThreshold>-1.2378562986850739e-001</stageThreshold>
      <weakClassifiers>
        <_>
          <internalNodes>
            0 -1 16 2034336323 -1064871026 1095319627 -521338816
            -1164868969 1749131461 -2067504485 -73857525</internalNodes>
          <leafValues>
            -8.8481676578521729e-001 7.8723406791687012e-001</leafValues></_>
        <_>
          <internalNodes>
            0 -1 22 1381372135 -829405184 58818855 -465532647
            -1908881717 -1707065215 -1593778010 -291397367</internalNodes>
          <leafValues>
            -9.1101968288421631e-001 8.0276781320571899e-001</leafValues></_></weakClassifiers></_></stages>
  <features>
    <_>
      <rect>
        0 1 4 4</rect></_>
    <_>
      <rect>
        0 9 4 4</rect></_>
    <_>
      <rect>
        1 1 5 2</rect></_>
    <_>
      <rect>
        1 6 6 4</rect></_>
    <_>
      <rect>
        1 8 2 5</rect></_>
    <_>
      <rect>
        1 10 4 3</rect></_>
    <_>
      <rect>
        1 12 6 6</rect></_>
    <_>
      <rect>
        1 14 4 3</rect></_>
    <_>
      <rect>
        1 21 4 3</rect></_>
    <_>
      <rect>
        2 0 3 4</rect></_>
    <_>
      <rect>
        2 18 2 3</rect></_>
    <_>
      <rect>
        3 1 2 4</rect></_>
    <_>
      <rect>
        3 2 2 4</rect></_>
    <_>
      <rect>
        3 5 5 4</rect></_>
    <_>
      <rect>
        3 7 2 5</rect></_>
    <_>
      <rect>
        3 8 3 6</rect></_>
    <_>
      <rect>
        3 9 2 4</rect></_>
    <_>
      <rect>
        3 10 2 3</rect></_>
    <_>
      <rect>
        3 11 5 3</rect></_>
    <_>
      <rect>
        3 20 2 3</rect></_>
    <_>
      <rect>
        4 2 2 3</rect></_>
    <_>
      <rect>
        4 7 1 6</rect></_>
    <_>
      <rect>
        6 1 3 7</rect></_>
    <_>
      <rect>
        6 8 1 5</rect></_>
    <_>
      <rect>
        6 14 3 4</rect></_>
    <_>
      <rect>
        7 2 4 2</rect></_>
    <_>
      <rect>
        7 3 2 7</rect></_>
    <_>
      <rect>
        7 8 2 5</rect></_>
    <_>
      <rect>
        7 17 1 1</rect></_>
    <_>
      <rect>
        8 0 2 8</rect></_>
    <_>
      <rect>
        8 8 2 1</rect></_>
    <_>
      <rect>
        8 9 2 4</rect></_>
    <_>
      <rect>
        8 14 4 2</rect></_>
    <_>
      <rect>
        8 23 2 2</rect></_>
    <_>
      <rect>
        9 0 3 3</rect></_>
    <_>
      <rect>
        9 14 3 4</rect></_>
    <_>
      <rect>
        11 9 3 2</rect></_>
    <_>
      <rect>
        12 0 2 6</rect></_>
    <_>
      <rect>
        12 20 1 3</rect></_>
    <_>
      <rect>
        13 12 2 5</rect></_>
    <_>
      <rect>
        14 1 2 6</rect></_></features></cascade>
</opencv_storage>
