<?xml version="1.0"?>
<opencv_storage>
<cascade>
  <stageType>BOOST</stageType>
  <featureType>LBP</featureType>
  <height>30</height>
  <width>20</width>
  <stageParams>
    <boostType>GAB</boostType>
    <minHitRate>9.9500000476837158e-001</minHitRate>
    <maxFalseAlarm>5.0000000000000000e-001</maxFalseAlarm>
    <weightTrimRate>9.4999999999999996e-001</weightTrimRate>
    <maxDepth>1</maxDepth>
    <maxWeakCount>100</maxWeakCount></stageParams>
  <featureParams>
    <maxCatCount>256</maxCatCount>
    <featSize>1</featSize></featureParams>
  <stageNum>20</stageNum>
  <stages>
    <!-- stage 0 -->
    <_>
      <maxWeakCount>1</maxWeakCount>
      <stageThreshold>9.7222220897674561e-001</stageThreshold>
      <weakClassifiers>
        <_>
          <internalNodes>
            0 -1 1 -1022639853 196626 13 1073807366 74 -2130690046
            -2147483517 -527703861</internalNodes>
          <leafValues>
            -1. 9.7222220897674561e-001</leafValues></_></weakClassifiers></_>
    <!-- stage 1 -->
    <_>
      <maxWeakCount>1</maxWeakCount>
      <stageThreshold>8.9333331584930420e-001</stageThreshold>
      <weakClassifiers>
        <_>
          <internalNodes>
            0 -1 9 262815 285298691 4177 1560346641 -2146758463
            -1124073344 537165952 -934854223</internalNodes>
          <leafValues>
            -1. 8.9333331584930420e-001</leafValues></_></weakClassifiers></_>
    <!-- stage 2 -->
    <_>
      <maxWeakCount>1</maxWeakCount>
      <stageThreshold>9.1891890764236450e-001</stageThreshold>
      <weakClassifiers>
        <_>
          <internalNodes>
            0 -1 0 34001250 -1065312126 98307 1375752257 -2147385214
            1073872897 557210 -620502869</internalNodes>
          <leafValues>
            -1. 9.1891890764236450e-001</leafValues></_></weakClassifiers></_>
    <!-- stage 3 -->
    <_>
      <maxWeakCount>1</maxWeakCount>
      <stageThreshold>8.9333331584930420e-001</stageThreshold>
      <weakClassifiers>
        <_>
          <internalNodes>
            0 -1 8 1879265299 -1039986685 98304 4296976 -1879048048
            -2146713472 -2139062142 -368590454</internalNodes>
          <leafValues>
            -1. 8.9333331584930420e-001</leafValues></_></weakClassifiers></_>
    <!-- stage 4 -->
    <_>
      <maxWeakCount>2</maxWeakCount>
      <stageThreshold>-7.4276417493820190e-002</stageThreshold>
      <weakClassifiers>
        <_>
          <internalNodes>
            0 -1 17 1074118855 -267386368 268500993 268501315
            -2146827640 -2147352576 -2147483486 -876363633</internalNodes>
          <leafValues>
            -9.7959184646606445e-001 9.1780823469161987e-001</leafValues></_>
        <_>
          <internalNodes>
            0 -1 12 -243011445 0 16777216 196609 1476755464 0 137
            -318537717</internalNodes>
          <leafValues>
            -9.8134934902191162e-001 9.0531539916992188e-001</leafValues></_></weakClassifiers></_>
    <!-- stage 5 -->
    <_>
      <maxWeakCount>1</maxWeakCount>
      <stageThreshold>8.9333331584930420e-001</stageThreshold>
      <weakClassifiers>
        <_>
          <internalNodes>
            0 -1 23 1879265607 1099268096 1073774592 1078050849 5
            -1073741824 -1073706998 -398077181</internalNodes>
          <leafValues>
            -1. 8.9333331584930420e-001</leafValues></_></weakClassifiers></_>
    <!-- stage 6 -->
    <_>
      <maxWeakCount>2</maxWeakCount>
      <stageThreshold>-1.1510531604290009e-001</stageThreshold>
      <weakClassifiers>
        <_>
          <internalNodes>
            0 -1 2 1342488660 1360085041 536875137 1358970882 -938999678
            -1476394752 164042 -880549301</internalNodes>
          <leafValues>
            -9.7916668653488159e-001 8.6666667461395264e-001</leafValues></_>
        <_>
          <internalNodes>
            0 -1 14 -787766845 69634 0 -2147385344 -2147417984
            -2147483648 16875528 -1844800761</internalNodes>
          <leafValues>
            -9.8177200555801392e-001 8.8802230358123779e-001</leafValues></_></weakClassifiers></_>
    <!-- stage 7 -->
    <_>
      <maxWeakCount>1</maxWeakCount>
      <stageThreshold>8.9333331584930420e-001</stageThreshold>
      <weakClassifiers>
        <_>
          <internalNodes>
            0 -1 15 -1743597352 1375731713 19 1400897664 268812466
            -2113896448 -2147467126 -1147561855</internalNodes>
          <leafValues>
            -1. 8.9333331584930420e-001</leafValues></_></weakClassifiers></_>
    <!-- stage 8 -->
    <_>
      <maxWeakCount>1</maxWeakCount>
      <stageThreshold>8.4415584802627563e-001</stageThreshold>
      <weakClassifiers>
        <_>
          <internalNodes>
            0 -1 11 -2113793609 -2130706431 -2147483311 1342373889
            1342212233 402653312 813957258 -72646261</internalNodes>
          <leafValues>
            -1. 8.4415584802627563e-001</leafValues></_></weakClassifiers></_>
    <!-- stage 9 -->
    <_>
      <maxWeakCount>2</maxWeakCount>
      <stageThreshold>-8.9776702225208282e-002</stageThreshold>
      <weakClassifiers>
        <_>
          <internalNodes>
            0 -1 26 -1056918232 1074331648 65680 -2130640887 -2139094877
            1610612864 1342226569 -36995014</internalNodes>
          <leafValues>
            -9.7938144207000732e-001 8.9189189672470093e-001</leafValues></_>
        <_>
          <internalNodes>
            0 -1 28 -804044649 -1073610622 4292608 16875776 1073840283
            -2147483648 -1073700728 -238206831</internalNodes>
          <leafValues>
            -9.8166859149932861e-001 9.0740662813186646e-001</leafValues></_></weakClassifiers></_>
    <!-- stage 10 -->
    <_>
      <maxWeakCount>2</maxWeakCount>
      <stageThreshold>-1.1371932178735733e-001</stageThreshold>
      <weakClassifiers>
        <_>
          <internalNodes>
            0 -1 19 1208586705 285216776 98308 -1857847296 1098940548
            33554560 -2147473270 -1425043321</internalNodes>
          <leafValues>
            -9.7916668653488159e-001 8.6666667461395264e-001</leafValues></_>
        <_>
          <internalNodes>
            0 -1 24 -1072208821 -2147401728 9 65537 4194304 0 1073741954
            -131346301</internalNodes>
          <leafValues>
            -9.6357929706573486e-001 8.6544734239578247e-001</leafValues></_></weakClassifiers></_>
    <!-- stage 11 -->
    <_>
      <maxWeakCount>2</maxWeakCount>
      <stageThreshold>-1.1270666122436523e-001</stageThreshold>
      <weakClassifiers>
        <_>
          <internalNodes>
            0 -1 6 1090588813 -1862138880 16842816 -988708860
            -2147480933 -1878908926 268439576 -576618360</internalNodes>
          <leafValues>
            -9.7872340679168701e-001 8.1818181276321411e-001</leafValues></_>
        <_>
          <internalNodes>
            0 -1 22 17093105 33619984 16793601 285278208 -2147450743
            -1979678574 32908 -364337016</internalNodes>
          <leafValues>
            -9.3088847398757935e-001 9.0968096256256104e-001</leafValues></_></weakClassifiers></_>
    <!-- stage 12 -->
    <_>
      <maxWeakCount>2</maxWeakCount>
      <stageThreshold>-5.0805360078811646e-002</stageThreshold>
      <weakClassifiers>
        <_>
          <internalNodes>
            0 -1 13 -1325165869 1359548929 16842752 335577089 33154 8
            32969 -905804899</internalNodes>
          <leafValues>
            -9.3999999761581421e-001 9.1549295186996460e-001</leafValues></_>
        <_>
          <internalNodes>
            0 -1 21 -805224377 -1861942272 163905 1342177281 -2080210792
            -2130182144 537428104 -1694177068</internalNodes>
          <leafValues>
            -9.2888438701629639e-001 8.8919466733932495e-001</leafValues></_></weakClassifiers></_>
    <!-- stage 13 -->
    <_>
      <maxWeakCount>2</maxWeakCount>
      <stageThreshold>-9.2026330530643463e-002</stageThreshold>
      <weakClassifiers>
        <_>
          <internalNodes>
            0 -1 10 -1861910079 17367299 69 -2045472732 536977482
            268500992 277403144 -108294137</internalNodes>
          <leafValues>
            -9.5959597826004028e-001 9.1666668653488159e-001</leafValues></_>
        <_>
          <internalNodes>
            0 -1 29 1348644891 16810048 0 -1879047680 49282 0 1073750178
            -502275415</internalNodes>
          <leafValues>
            -9.8129796981811523e-001 8.6756962537765503e-001</leafValues></_></weakClassifiers></_>
    <!-- stage 14 -->
    <_>
      <maxWeakCount>2</maxWeakCount>
      <stageThreshold>-4.8344753682613373e-002</stageThreshold>
      <weakClassifiers>
        <_>
          <internalNodes>
            0 -1 24 -1034969085 1107329540 553811968 -2147385344
            1073823754 -2143158272 276857347 -628112872</internalNodes>
          <leafValues>
            -9.3999999761581421e-001 9.1549295186996460e-001</leafValues></_>
        <_>
          <internalNodes>
            0 -1 27 1895952607 -788525056 33024 268697664 -2138955765
            -1879048192 -2146266103 -1140223863</internalNodes>
          <leafValues>
            -9.6379858255386353e-001 8.9165526628494263e-001</leafValues></_></weakClassifiers></_>
    <!-- stage 15 -->
    <_>
      <maxWeakCount>1</maxWeakCount>
      <stageThreshold>8.6842107772827148e-001</stageThreshold>
      <weakClassifiers>
        <_>
          <internalNodes>
            0 -1 3 1091277241 -779026412 16409 336596994 32897
            -2013102080 98888 -1727680376</internalNodes>
          <leafValues>
            -1. 8.6842107772827148e-001</leafValues></_></weakClassifiers></_>
    <!-- stage 16 -->
    <_>
      <maxWeakCount>1</maxWeakCount>
      <stageThreshold>7.9746836423873901e-001</stageThreshold>
      <weakClassifiers>
        <_>
          <internalNodes>
            0 -1 4 1627624847 1125122049 17842192 956465153 -2146434874
            -1996488576 -1610559350 -922189791</internalNodes>
          <leafValues>
            -1. 7.9746836423873901e-001</leafValues></_></weakClassifiers></_>
    <!-- stage 17 -->
    <_>
      <maxWeakCount>2</maxWeakCount>
      <stageThreshold>-7.7992998063564301e-002</stageThreshold>
      <weakClassifiers>
        <_>
          <internalNodes>
            0 -1 7 -1878949329 398458949 37748824 540675 515 33817664
            -2140436455 -1033666549</internalNodes>
          <leafValues>
            -9.7959184646606445e-001 9.1780823469161987e-001</leafValues></_>
        <_>
          <internalNodes>
            0 -1 20 1476436371 1092689985 33570960 -788447231 302137474
            -2012741630 134258729 -5471584</internalNodes>
          <leafValues>
            -9.2742776870727539e-001 9.0159887075424194e-001</leafValues></_></weakClassifiers></_>
    <!-- stage 18 -->
    <_>
      <maxWeakCount>2</maxWeakCount>
      <stageThreshold>-1.0748860985040665e-001</stageThreshold>
      <weakClassifiers>
        <_>
          <internalNodes>
            0 -1 16 285442435 293699588 1342210049 1090814464 -805273344
            1073741824 8200 -12387453</internalNodes>
          <leafValues>
            -9.5833331346511841e-001 8.3999997377395630e-001</leafValues></_>
        <_>
          <internalNodes>
            0 -1 25 1090699411 419463296 32 268533890 1073938562 32800
            1073775105 -1735466839</internalNodes>
          <leafValues>
            -9.4748860597610474e-001 8.9234274625778198e-001</leafValues></_></weakClassifiers></_>
    <!-- stage 19 -->
    <_>
      <maxWeakCount>2</maxWeakCount>
      <stageThreshold>-1.2101501226425171e-001</stageThreshold>
      <weakClassifiers>
        <_>
          <internalNodes>
            0 -1 18 1493385291 -654278616 273 272678920 -1476388198
            -1978564606 142640281 -400357309</internalNodes>
          <leafValues>
            -9.3939393758773804e-001 8.8888889551162720e-001</leafValues></_>
        <_>
          <internalNodes>
            0 -1 5 268484759 1409372162 541180937 -1585414140
            -1568620405 -1476263933 -2147450799 -1190362944</internalNodes>
          <leafValues>
            -9.8137491941452026e-001 8.1837892532348633e-001</leafValues></_></weakClassifiers></_></stages>
  <features>
    <_>
      <rect>
        0 2 3 8</rect></_>
    <_>
      <rect>
        0 7 3 5</rect></_>
    <_>
      <rect>
        0 21 5 3</rect></_>
    <_>
      <rect>
        0 23 4 2</rect></_>
    <_>
      <rect>
        1 3 3 3</rect></_>
    <_>
      <rect>
        1 8 4 3</rect></_>
    <_>
      <rect>
        1 15 4 3</rect></_>
    <_>
      <rect>
        1 18 3 4</rect></_>
    <_>
      <rect>
        2 10 2 3</rect></_>
    <_>
      <rect>
        3 1 4 2</rect></_>
    <_>
      <rect>
        3 9 2 4</rect></_>
    <_>
      <rect>
        4 2 2 2</rect></_>
    <_>
      <rect>
        4 7 1 6</rect></_>
    <_>
      <rect>
        5 0 3 4</rect></_>
    <_>
      <rect>
        5 8 1 5</rect></_>
    <_>
      <rect>
        5 10 4 4</rect></_>
    <_>
      <rect>
        5 19 1 3</rect></_>
    <_>
      <rect>
        6 2 3 7</rect></_>
    <_>
      <rect>
        8 3 4 3</rect></_>
    <_>
      <rect>
        8 19 2 2</rect></_>
    <_>
      <rect>
        8 21 4 3</rect></_>
    <_>
      <rect>
        9 25 2 1</rect></_>
    <_>
      <rect>
        9 26 2 1</rect></_>
    <_>
      <rect>
        10 0 3 4</rect></_>
    <_>
      <rect>
        11 2 1 7</rect></_>
    <_>
      <rect>
        11 8 1 3</rect></_>
    <_>
      <rect>
        11 15 3 3</rect></_>
    <_>
      <rect>
        11 21 2 2</rect></_>
    <_>
      <rect>
        12 18 2 4</rect></_>
    <_>
      <rect>
        12 19 1 3</rect></_></features></cascade>
</opencv_storage>
