<?xml version="1.0"?>
<opencv_storage>
<cascade>
  <stageType>BOOST</stageType>
  <featureType>LBP</featureType>
  <height>30</height>
  <width>20</width>
  <stageParams>
    <boostType>GAB</boostType>
    <minHitRate>9.9500000476837158e-001</minHitRate>
    <maxFalseAlarm>5.0000000000000000e-001</maxFalseAlarm>
    <weightTrimRate>9.4999999999999996e-001</weightTrimRate>
    <maxDepth>1</maxDepth>
    <maxWeakCount>100</maxWeakCount></stageParams>
  <featureParams>
    <maxCatCount>256</maxCatCount>
    <featSize>1</featSize></featureParams>
  <stageNum>20</stageNum>
  <stages>
    <!-- stage 0 -->
    <_>
      <maxWeakCount>1</maxWeakCount>
      <stageThreshold>9.5588237047195435e-001</stageThreshold>
      <weakClassifiers>
        <_>
          <internalNodes>
            0 -1 15 -652681142 32768 32 -2147287037 -2147483648 131200
            524491 -745815409</internalNodes>
          <leafValues>
            -1. 9.5588237047195435e-001</leafValues></_></weakClassifiers></_>
    <!-- stage 1 -->
    <_>
      <maxWeakCount>2</maxWeakCount>
      <stageThreshold>1.0195490717887878e-001</stageThreshold>
      <weakClassifiers>
        <_>
          <internalNodes>
            0 -1 24 -50987793 -185074434 -16777217 -16777281 -1608449035
            536870912 -8396544 -185073673</internalNodes>
          <leafValues>
            -8.6915886402130127e-001 1.</leafValues></_>
        <_>
          <internalNodes>
            0 -1 4 1762369669 -234815472 1025 -1069203455 -2147434486
            -402522112 134283269 -91766783</internalNodes>
          <leafValues>
            -8.9804512262344360e-001 9.7280710935592651e-001</leafValues></_></weakClassifiers></_>
    <!-- stage 2 -->
    <_>
      <maxWeakCount>2</maxWeakCount>
      <stageThreshold>2.9185987077653408e-003</stageThreshold>
      <weakClassifiers>
        <_>
          <internalNodes>
            0 -1 16 16983475 2147466241 131072 -654016507 1074340098
            -2139095040 -2147342335 -805309949</internalNodes>
          <leafValues>
            -9.2233008146286011e-001 9.8461538553237915e-001</leafValues></_>
        <_>
          <internalNodes>
            0 -1 30 268502279 -1878711919 25 276889601 142639139
            -1031241728 16777475 -536145909</internalNodes>
          <leafValues>
            -9.8169678449630737e-001 9.4651496410369873e-001</leafValues></_></weakClassifiers></_>
    <!-- stage 3 -->
    <_>
      <maxWeakCount>2</maxWeakCount>
      <stageThreshold>3.3302307128906250e-002</stageThreshold>
      <weakClassifiers>
        <_>
          <internalNodes>
            0 -1 0 1161941315 -1795129343 4161 1434451969 1208123406
            -2012741632 419430603 -666271720</internalNodes>
          <leafValues>
            -9.0099012851715088e-001 9.3939393758773804e-001</leafValues></_>
        <_>
          <internalNodes>
            0 -1 7 -1052688357 -788463615 16456 -1056931840 164074
            -2147483648 134316105 -624229493</internalNodes>
          <leafValues>
            -9.0609163045883179e-001 9.4726842641830444e-001</leafValues></_></weakClassifiers></_>
    <!-- stage 4 -->
    <_>
      <maxWeakCount>2</maxWeakCount>
      <stageThreshold>-3.7844445556402206e-002</stageThreshold>
      <weakClassifiers>
        <_>
          <internalNodes>
            0 -1 27 142556959 -12 -1 -1 -16777217 -1 2144337919
            -352329729</internalNodes>
          <leafValues>
            -9.0196079015731812e-001 9.5419847965240479e-001</leafValues></_>
        <_>
          <internalNodes>
            0 -1 32 -2113514182 16941312 4 285282308 10282 -2130706046
            -1610558308 -641138655</internalNodes>
          <leafValues>
            -9.8211711645126343e-001 8.6411631107330322e-001</leafValues></_></weakClassifiers></_>
    <!-- stage 5 -->
    <_>
      <maxWeakCount>2</maxWeakCount>
      <stageThreshold>-1.2052757292985916e-001</stageThreshold>
      <weakClassifiers>
        <_>
          <internalNodes>
            0 -1 11 285217008 -1862205439 16908550 1090797570
            -1073708917 -2146926592 -922648417 -1652080497</internalNodes>
          <leafValues>
            -9.7727274894714355e-001 8.2068967819213867e-001</leafValues></_>
        <_>
          <internalNodes>
            0 -1 3 8389339 -1325379456 339 268435472 134348955
            -2147483648 402653371 -1719500664</internalNodes>
          <leafValues>
            -9.4121724367141724e-001 8.6885851621627808e-001</leafValues></_></weakClassifiers></_>
    <!-- stage 6 -->
    <_>
      <maxWeakCount>2</maxWeakCount>
      <stageThreshold>4.5754291117191315e-002</stageThreshold>
      <weakClassifiers>
        <_>
          <internalNodes>
            0 -1 10 -712515613 -318832639 -269484049 -1073610753 8421538
            1074135040 -2147131125 -1049965</internalNodes>
          <leafValues>
            -8.3018869161605835e-001 9.5275592803955078e-001</leafValues></_>
        <_>
          <internalNodes>
            0 -1 8 -1874669358 -1073659755 8392721 -788524924 32897
            -2146918399 -939393015 -628547094</internalNodes>
          <leafValues>
            -9.0700161457061768e-001 9.2392539978027344e-001</leafValues></_></weakClassifiers></_>
    <!-- stage 7 -->
    <_>
      <maxWeakCount>2</maxWeakCount>
      <stageThreshold>2.6136528700590134e-002</stageThreshold>
      <weakClassifiers>
        <_>
          <internalNodes>
            0 -1 1 1107410982 -1337384957 1074069505 285279234
            1124155396 67117056 -2138991615 -221584478</internalNodes>
          <leafValues>
            -9.5959597826004028e-001 9.5522385835647583e-001</leafValues></_>
        <_>
          <internalNodes>
            0 -1 5 -1052929 -16777478 1858072303 -285217025 -1 -8912897
            -4097 -134221825</internalNodes>
          <leafValues>
            -9.0151786804199219e-001 9.8573249578475952e-001</leafValues></_></weakClassifiers></_>
    <!-- stage 8 -->
    <_>
      <maxWeakCount>2</maxWeakCount>
      <stageThreshold>-8.4123723208904266e-002</stageThreshold>
      <weakClassifiers>
        <_>
          <internalNodes>
            0 -1 35 -1845329714 1493368832 -2130640384 -1056767992
            -2147352062 16 671121546 -1727283058</internalNodes>
          <leafValues>
            -9.3684208393096924e-001 8.8405799865722656e-001</leafValues></_>
        <_>
          <internalNodes>
            0 -1 20 -800014116 1364197378 2 1342308354 805306504
            -2147483648 1073741970 -536117109</internalNodes>
          <leafValues>
            -9.6818166971206665e-001 8.6704909801483154e-001</leafValues></_></weakClassifiers></_>
    <!-- stage 9 -->
    <_>
      <maxWeakCount>2</maxWeakCount>
      <stageThreshold>-5.9797070920467377e-002</stageThreshold>
      <weakClassifiers>
        <_>
          <internalNodes>
            0 -1 14 -15728669 -957349889 -269484050 1877999615 -2049
            2013263871 -2145452097 -29</internalNodes>
          <leafValues>
            -8.6274510622024536e-001 9.2366409301757813e-001</leafValues></_>
        <_>
          <internalNodes>
            0 -1 18 -2130587198 -2130640896 0 1073938445 268619906
            -1073020768 -788430848 310501891</internalNodes>
          <leafValues>
            -9.8346120119094849e-001 8.5792034864425659e-001</leafValues></_></weakClassifiers></_>
    <!-- stage 10 -->
    <_>
      <maxWeakCount>2</maxWeakCount>
      <stageThreshold>-7.9222939908504486e-002</stageThreshold>
      <weakClassifiers>
        <_>
          <internalNodes>
            0 -1 22 -1073623024 822083680 268435730 352456704 17334414
            -1073741696 32778 -923105224</internalNodes>
          <leafValues>
            -9.7802197933197021e-001 8.5915493965148926e-001</leafValues></_>
        <_>
          <internalNodes>
            0 -1 17 50580459 -738082816 67603 18153473 32912 134352896
            16778387 -780042103</internalNodes>
          <leafValues>
            -9.2512780427932739e-001 8.9879906177520752e-001</leafValues></_></weakClassifiers></_>
    <!-- stage 11 -->
    <_>
      <maxWeakCount>2</maxWeakCount>
      <stageThreshold>-6.8261437118053436e-002</stageThreshold>
      <weakClassifiers>
        <_>
          <internalNodes>
            0 -1 28 -1072725878 2 -2147483647 1134723 -2147416950
            -1610481664 33032 -642977381</internalNodes>
          <leafValues>
            -9.5744681358337402e-001 8.8489210605621338e-001</leafValues></_>
        <_>
          <internalNodes>
            0 -1 33 1258446427 1073759744 -2147475454 1073774592
            -2147385273 -1073659904 16810121 -1058303290</internalNodes>
          <leafValues>
            -9.5315355062484741e-001 8.9950042963027954e-001</leafValues></_></weakClassifiers></_>
    <!-- stage 12 -->
    <_>
      <maxWeakCount>2</maxWeakCount>
      <stageThreshold>-1.1453062295913696e-001</stageThreshold>
      <weakClassifiers>
        <_>
          <internalNodes>
            0 -1 13 67601 1358954496 16781425 1401946113 -2147483509
            -2013265920 402718865 -2013134712</internalNodes>
          <leafValues>
            -9.1578948497772217e-001 8.6956518888473511e-001</leafValues></_>
        <_>
          <internalNodes>
            0 -1 31 1075048512 256 32768 -1862074363 311472 -2147483648
            69721 -745684733</internalNodes>
          <leafValues>
            -9.8409581184387207e-001 8.3817887306213379e-001</leafValues></_></weakClassifiers></_>
    <!-- stage 13 -->
    <_>
      <maxWeakCount>2</maxWeakCount>
      <stageThreshold>-4.3291553854942322e-002</stageThreshold>
      <weakClassifiers>
        <_>
          <internalNodes>
            0 -1 6 16842867 -1644150780 -2147418023 -2103443456 32771
            943718400 268435864 -645871424</internalNodes>
          <leafValues>
            -9.0099012851715088e-001 9.3939393758773804e-001</leafValues></_>
        <_>
          <internalNodes>
            0 -1 23 274400525 -1862270715 4113 1091633153 821384
            -2097119232 -2139062120 -1714765694</internalNodes>
          <leafValues>
            -9.8268550634384155e-001 8.6546266078948975e-001</leafValues></_></weakClassifiers></_>
    <!-- stage 14 -->
    <_>
      <maxWeakCount>2</maxWeakCount>
      <stageThreshold>-9.5372408628463745e-002</stageThreshold>
      <weakClassifiers>
        <_>
          <internalNodes>
            0 -1 21 -1860374244 196642 16405 16990208 164480 -1073741694
            -1606303189 -1589507445</internalNodes>
          <leafValues>
            -9.5604395866394043e-001 8.4507042169570923e-001</leafValues></_>
        <_>
          <internalNodes>
            0 -1 25 -801001469 1073741952 1342177285 -2122121211
            1073848322 4194432 41483 -662241121</internalNodes>
          <leafValues>
            -9.4044280052185059e-001 8.7911009788513184e-001</leafValues></_></weakClassifiers></_>
    <!-- stage 15 -->
    <_>
      <maxWeakCount>2</maxWeakCount>
      <stageThreshold>-6.8693548440933228e-002</stageThreshold>
      <weakClassifiers>
        <_>
          <internalNodes>
            0 -1 34 -792602560 17137665 1610678273 -2146889599
            -2113896318 32768 1076068512 -276381566</internalNodes>
          <leafValues>
            -9.5652174949645996e-001 8.5815602540969849e-001</leafValues></_>
        <_>
          <internalNodes>
            0 -1 9 -834567698 16912394 1090572322 -1190068220
            -2105497205 16810016 -2147450840 -1417445374</internalNodes>
          <leafValues>
            -9.1114497184753418e-001 8.8782817125320435e-001</leafValues></_></weakClassifiers></_>
    <!-- stage 16 -->
    <_>
      <maxWeakCount>2</maxWeakCount>
      <stageThreshold>6.4663648605346680e-002</stageThreshold>
      <weakClassifiers>
        <_>
          <internalNodes>
            0 -1 12 -2018574357 -1073741831 -73 -1 -806354945 -1
            -4194305 -73</internalNodes>
          <leafValues>
            -8.2692307233810425e-001 9.2248064279556274e-001</leafValues></_>
        <_>
          <internalNodes>
            0 -1 26 1090584793 1360007169 268439553 419495953
            -2147483512 1342734848 166540 -368541549</internalNodes>
          <leafValues>
            -8.5781699419021606e-001 9.3575501441955566e-001</leafValues></_></weakClassifiers></_>
    <!-- stage 17 -->
    <_>
      <maxWeakCount>2</maxWeakCount>
      <stageThreshold>-4.2814638465642929e-002</stageThreshold>
      <weakClassifiers>
        <_>
          <internalNodes>
            0 -1 19 1347672829 -536871037 -271585396 -540213249
            -2147106681 1344340096 -32997247 -547487747</internalNodes>
          <leafValues>
            -8.7999999523162842e-001 9.0977442264556885e-001</leafValues></_>
        <_>
          <internalNodes>
            0 -1 25 1342566631 -998236152 269549569 1342242952
            -1610301309 4096 1207992384 -511124856</internalNodes>
          <leafValues>
            -9.5258909463882446e-001 8.7896174192428589e-001</leafValues></_></weakClassifiers></_>
    <!-- stage 18 -->
    <_>
      <maxWeakCount>1</maxWeakCount>
      <stageThreshold>7.7333331108093262e-001</stageThreshold>
      <weakClassifiers>
        <_>
          <internalNodes>
            0 -1 36 26280078 956301569 16777728 285212673 1073848456
            201326600 16842989 -647118759</internalNodes>
          <leafValues>
            -1. 7.7333331108093262e-001</leafValues></_></weakClassifiers></_>
    <!-- stage 19 -->
    <_>
      <maxWeakCount>2</maxWeakCount>
      <stageThreshold>9.3411337584257126e-003</stageThreshold>
      <weakClassifiers>
        <_>
          <internalNodes>
            0 -1 2 -17826049 -2305 -286261521 -273678337 -538116097
            -536872961 -2136932311 2147483634</internalNodes>
          <leafValues>
            -8.2352942228317261e-001 8.9312976598739624e-001</leafValues></_>
        <_>
          <internalNodes>
            0 -1 29 -1827979237 -2146400880 66048 1092681728 1077936259
            -2013134845 -2147417979 -880049428</internalNodes>
          <leafValues>
            -8.8378864526748657e-001 8.6741083860397339e-001</leafValues></_></weakClassifiers></_></stages>
  <features>
    <_>
      <rect>
        0 1 4 4</rect></_>
    <_>
      <rect>
        0 2 6 5</rect></_>
    <_>
      <rect>
        0 9 4 4</rect></_>
    <_>
      <rect>
        1 1 5 2</rect></_>
    <_>
      <rect>
        1 6 6 4</rect></_>
    <_>
      <rect>
        1 8 4 3</rect></_>
    <_>
      <rect>
        1 11 4 2</rect></_>
    <_>
      <rect>
        1 13 6 5</rect></_>
    <_>
      <rect>
        1 21 4 3</rect></_>
    <_>
      <rect>
        2 3 3 3</rect></_>
    <_>
      <rect>
        2 7 2 5</rect></_>
    <_>
      <rect>
        2 13 6 5</rect></_>
    <_>
      <rect>
        3 1 2 4</rect></_>
    <_>
      <rect>
        3 1 4 2</rect></_>
    <_>
      <rect>
        3 7 2 5</rect></_>
    <_>
      <rect>
        3 8 3 6</rect></_>
    <_>
      <rect>
        4 0 2 4</rect></_>
    <_>
      <rect>
        4 2 2 3</rect></_>
    <_>
      <rect>
        4 8 2 5</rect></_>
    <_>
      <rect>
        4 13 5 5</rect></_>
    <_>
      <rect>
        5 20 2 2</rect></_>
    <_>
      <rect>
        6 3 4 9</rect></_>
    <_>
      <rect>
        6 21 3 3</rect></_>
    <_>
      <rect>
        8 3 4 2</rect></_>
    <_>
      <rect>
        8 7 2 5</rect></_>
    <_>
      <rect>
        8 8 2 5</rect></_>
    <_>
      <rect>
        8 14 4 2</rect></_>
    <_>
      <rect>
        9 2 3 2</rect></_>
    <_>
      <rect>
        10 8 2 5</rect></_>
    <_>
      <rect>
        10 21 2 3</rect></_>
    <_>
      <rect>
        11 1 2 3</rect></_>
    <_>
      <rect>
        11 12 3 6</rect></_>
    <_>
      <rect>
        11 20 2 3</rect></_>
    <_>
      <rect>
        12 0 2 4</rect></_>
    <_>
      <rect>
        12 7 2 3</rect></_>
    <_>
      <rect>
        12 14 2 3</rect></_>
    <_>
      <rect>
        12 15 2 5</rect></_></features></cascade>
</opencv_storage>
