<?xml version="1.0"?>
<opencv_storage>
<cascade>
  <stageType>BOOST</stageType>
  <featureType>LBP</featureType>
  <height>30</height>
  <width>20</width>
  <stageParams>
    <boostType>GAB</boostType>
    <minHitRate>9.9500000476837158e-001</minHitRate>
    <maxFalseAlarm>5.0000000000000000e-001</maxFalseAlarm>
    <weightTrimRate>9.4999999999999996e-001</weightTrimRate>
    <maxDepth>1</maxDepth>
    <maxWeakCount>100</maxWeakCount></stageParams>
  <featureParams>
    <maxCatCount>256</maxCatCount>
    <featSize>1</featSize></featureParams>
  <stageNum>20</stageNum>
  <stages>
    <!-- stage 0 -->
    <_>
      <maxWeakCount>2</maxWeakCount>
      <stageThreshold>4.5168988406658173e-002</stageThreshold>
      <weakClassifiers>
        <_>
          <internalNodes>
            0 -1 15 -71954 -268500993 -286461970 -419430401 -134285322
            524287 -261941 -536870913</internalNodes>
          <leafValues>
            -9.2233008146286011e-001 9.8850572109222412e-001</leafValues></_>
        <_>
          <internalNodes>
            0 -1 14 -914112374 134283296 8 720899 1073774602 128 573455
            -309884887</internalNodes>
          <leafValues>
            -8.9636313915252686e-001 9.6749907732009888e-001</leafValues></_></weakClassifiers></_>
    <!-- stage 1 -->
    <_>
      <maxWeakCount>2</maxWeakCount>
      <stageThreshold>1.3602718710899353e-001</stageThreshold>
      <weakClassifiers>
        <_>
          <internalNodes>
            0 -1 10 -1285 -8388609 -271650866 -808648706 -2147044614
            -2013233152 -132990 -16152385</internalNodes>
          <leafValues>
            -8.3177572488784790e-001 9.7647058963775635e-001</leafValues></_>
        <_>
          <internalNodes>
            0 -1 13 -2134519549 -2112880624 16385 -914157055 -2145779198
            -1056964606 -939523968 -914309113</internalNodes>
          <leafValues>
            -8.3690297603607178e-001 9.6780288219451904e-001</leafValues></_></weakClassifiers></_>
    <!-- stage 2 -->
    <_>
      <maxWeakCount>2</maxWeakCount>
      <stageThreshold>7.2126828134059906e-002</stageThreshold>
      <weakClassifiers>
        <_>
          <internalNodes>
            0 -1 0 743417583 -269484049 -4369 2147477247 2113929215 -1
            -8347631 -23873</internalNodes>
          <leafValues>
            -8.4615385532379150e-001 9.5375722646713257e-001</leafValues></_>
        <_>
          <internalNodes>
            0 -1 19 -2080128735 -2130640863 32769 1359020033 557072
            -2113896448 -1073708958 -1577459453</internalNodes>
          <leafValues>
            -8.8163042068481445e-001 9.3815433979034424e-001</leafValues></_></weakClassifiers></_>
    <!-- stage 3 -->
    <_>
      <maxWeakCount>2</maxWeakCount>
      <stageThreshold>-1.9561193883419037e-002</stageThreshold>
      <weakClassifiers>
        <_>
          <internalNodes>
            0 -1 6 -788185002 1140850713 256 -1879015408 1073774594
            -1979710400 134283355 -489723749</internalNodes>
          <leafValues>
            -9.5744681358337402e-001 9.1256833076477051e-001</leafValues></_>
        <_>
          <internalNodes>
            0 -1 8 -4098 -16846850 -16842754 1055457279 -49 2147180413
            -1 -655361</internalNodes>
          <leafValues>
            -8.7220895290374756e-001 9.3788564205169678e-001</leafValues></_></weakClassifiers></_>
    <!-- stage 4 -->
    <_>
      <maxWeakCount>2</maxWeakCount>
      <stageThreshold>-5.7072609663009644e-002</stageThreshold>
      <weakClassifiers>
        <_>
          <internalNodes>
            0 -1 30 301990163 1360068608 16842753 -788528622 8388778
            -2113404927 -1979690999 -1974861621</internalNodes>
          <leafValues>
            -9.3406593799591064e-001 8.7096774578094482e-001</leafValues></_>
        <_>
          <internalNodes>
            0 -1 5 151519314 50331658 134283281 -1862268928 1107329027
            -2130706424 37003 -45743997</internalNodes>
          <leafValues>
            -9.1719251871109009e-001 8.7699329853057861e-001</leafValues></_></weakClassifiers></_>
    <!-- stage 5 -->
    <_>
      <maxWeakCount>2</maxWeakCount>
      <stageThreshold>3.8705166429281235e-002</stageThreshold>
      <weakClassifiers>
        <_>
          <internalNodes>
            0 -1 22 -338 -4609 -1010 1608511487 -1 -1 830472191
            1469448191</internalNodes>
          <leafValues>
            -8.6138612031936646e-001 9.3181818723678589e-001</leafValues></_>
        <_>
          <internalNodes>
            0 -1 16 -788299149 436232195 73856 -1073740784 -788492286
            -1610612736 33587330 1224769669</internalNodes>
          <leafValues>
            -8.8305157423019409e-001 9.0009129047393799e-001</leafValues></_></weakClassifiers></_>
    <!-- stage 6 -->
    <_>
      <maxWeakCount>2</maxWeakCount>
      <stageThreshold>7.4780821800231934e-002</stageThreshold>
      <weakClassifiers>
        <_>
          <internalNodes>
            0 -1 21 -106971726 1090879488 -4456576 -1363214338
            -675547664 -536870913 -5247069 -1132199937</internalNodes>
          <leafValues>
            -8.4313726425170898e-001 9.3142855167388916e-001</leafValues></_>
        <_>
          <internalNodes>
            0 -1 26 67625611 -536543232 65553 1359155200 -2147450750
            -2147450880 24 -788282998</internalNodes>
          <leafValues>
            -8.3401459455490112e-001 9.1791808605194092e-001</leafValues></_></weakClassifiers></_>
    <!-- stage 7 -->
    <_>
      <maxWeakCount>2</maxWeakCount>
      <stageThreshold>-3.7697363644838333e-002</stageThreshold>
      <weakClassifiers>
        <_>
          <internalNodes>
            0 -1 18 -787791862 -1069350911 536936454 1610612864
            1073742371 1073741824 1073938499 -238316601</internalNodes>
          <leafValues>
            -9.5744681358337402e-001 9.1256833076477051e-001</leafValues></_>
        <_>
          <internalNodes>
            0 -1 13 1158283811 1074200577 65544 1090783762 289472513
            524289 1346535939 2123002898</internalNodes>
          <leafValues>
            -9.2589443922042847e-001 9.1974943876266479e-001</leafValues></_></weakClassifiers></_>
    <!-- stage 8 -->
    <_>
      <maxWeakCount>2</maxWeakCount>
      <stageThreshold>-8.1488400697708130e-002</stageThreshold>
      <weakClassifiers>
        <_>
          <internalNodes>
            0 -1 20 -1795092408 -1878982588 131089 286327041 -2147450710
            134742032 139 1224828944</internalNodes>
          <leafValues>
            -9.7701150178909302e-001 8.5263156890869141e-001</leafValues></_>
        <_>
          <internalNodes>
            0 -1 31 1342263364 -653193215 268435473 1359040529 536903808
            -2013265920 35019 -938835958</internalNodes>
          <leafValues>
            -9.1960769891738892e-001 8.9552307128906250e-001</leafValues></_></weakClassifiers></_>
    <!-- stage 9 -->
    <_>
      <maxWeakCount>2</maxWeakCount>
      <stageThreshold>9.8877035081386566e-002</stageThreshold>
      <weakClassifiers>
        <_>
          <internalNodes>
            0 -1 28 -167904039 -721421059 -4161 -65 -34473997 -168427521
            -12601153 -33554433</internalNodes>
          <leafValues>
            -7.2727274894714355e-001 9.4011974334716797e-001</leafValues></_>
        <_>
          <internalNodes>
            0 -1 9 1665192014 -1862205440 268451848 -1828683503 34955
            -1879037949 90 -1693839343</internalNodes>
          <leafValues>
            -8.4124273061752319e-001 9.0744549036026001e-001</leafValues></_></weakClassifiers></_>
    <!-- stage 10 -->
    <_>
      <maxWeakCount>2</maxWeakCount>
      <stageThreshold>2.9516423121094704e-002</stageThreshold>
      <weakClassifiers>
        <_>
          <internalNodes>
            0 -1 29 -16781415 1610350591 2013265875 2013265919
            -805318964 1339936750 -945 -136314881</internalNodes>
          <leafValues>
            -7.9047620296478271e-001 9.3023258447647095e-001</leafValues></_>
        <_>
          <internalNodes>
            0 -1 34 1073857090 285229057 16391 -2126495551 -2147475456
            -1879048182 -2147450433 -607150013</internalNodes>
          <leafValues>
            -9.0071612596511841e-001 8.9147436618804932e-001</leafValues></_></weakClassifiers></_>
    <!-- stage 11 -->
    <_>
      <maxWeakCount>2</maxWeakCount>
      <stageThreshold>3.1592652201652527e-002</stageThreshold>
      <weakClassifiers>
        <_>
          <internalNodes>
            0 -1 2 -293606658 -3334 -286265617 1861222399 1870659583
            -536873089 -1 -1</internalNodes>
          <leafValues>
            -8.0582523345947266e-001 9.1954022645950317e-001</leafValues></_>
        <_>
          <internalNodes>
            0 -1 33 1275808074 286539801 32769 1087541255 537395240
            -2004713471 -2147483646 -366753757</internalNodes>
          <leafValues>
            -8.8794755935668945e-001 8.8236457109451294e-001</leafValues></_></weakClassifiers></_>
    <!-- stage 12 -->
    <_>
      <maxWeakCount>2</maxWeakCount>
      <stageThreshold>5.4727628827095032e-002</stageThreshold>
      <weakClassifiers>
        <_>
          <internalNodes>
            0 -1 35 1476657127 -1392443392 -12 -72 -65537 1879048191
            2113896437 -637534219</internalNodes>
          <leafValues>
            -7.8846156597137451e-001 9.1907513141632080e-001</leafValues></_>
        <_>
          <internalNodes>
            0 -1 28 -796798759 1078034432 16386 -1723330559 151027714
            -2147448702 1073873426 -494813078</internalNodes>
          <leafValues>
            -8.6434751749038696e-001 8.9062309265136719e-001</leafValues></_></weakClassifiers></_>
    <!-- stage 13 -->
    <_>
      <maxWeakCount>2</maxWeakCount>
      <stageThreshold>-7.9543955624103546e-002</stageThreshold>
      <weakClassifiers>
        <_>
          <internalNodes>
            0 -1 1 18350292 2030108672 16785424 1140999168 137
            -1669332976 -2143256229 -1245502847</internalNodes>
          <leafValues>
            -9.3181818723678589e-001 8.4126985073089600e-001</leafValues></_>
        <_>
          <internalNodes>
            0 -1 11 1225826708 50331648 4107 1561346048 -2013265783
            33619970 268435585 1804042761</internalNodes>
          <leafValues>
            -9.2081379890441895e-001 8.7112426757812500e-001</leafValues></_></weakClassifiers></_>
    <!-- stage 14 -->
    <_>
      <maxWeakCount>2</maxWeakCount>
      <stageThreshold>-9.3718625605106354e-002</stageThreshold>
      <weakClassifiers>
        <_>
          <internalNodes>
            0 -1 12 542118042 -1858043752 34052 -653242296 -1979186792
            -939524088 536903848 264470554</internalNodes>
          <leafValues>
            -9.3333333730697632e-001 8.6096256971359253e-001</leafValues></_>
        <_>
          <internalNodes>
            0 -1 3 1208968238 318832641 67174419 1638207505 134217859
            -1610579712 150995160 1623719953</internalNodes>
          <leafValues>
            -1. 8.3961468935012817e-001</leafValues></_></weakClassifiers></_>
    <!-- stage 15 -->
    <_>
      <maxWeakCount>2</maxWeakCount>
      <stageThreshold>-1.2112836539745331e-001</stageThreshold>
      <weakClassifiers>
        <_>
          <internalNodes>
            0 -1 32 -536624974 -2129592320 0 151027712 1074790540 65536
            -2147352503 1259072008</internalNodes>
          <leafValues>
            -9.1111111640930176e-001 8.5026735067367554e-001</leafValues></_>
        <_>
          <internalNodes>
            0 -1 24 -2147426288 16879620 268697746 -183169021 32906
            184549376 -2063562678 1369145554</internalNodes>
          <leafValues>
            -9.7139573097229004e-001 8.1536000967025757e-001</leafValues></_></weakClassifiers></_>
    <!-- stage 16 -->
    <_>
      <maxWeakCount>2</maxWeakCount>
      <stageThreshold>1.2351534515619278e-001</stageThreshold>
      <weakClassifiers>
        <_>
          <internalNodes>
            0 -1 36 1090873187 -528384 134234115 -1056669152 1099464714
            -2147221504 -1900405 -269500502</internalNodes>
          <leafValues>
            -8.2352942228317261e-001 9.2000001668930054e-001</leafValues></_>
        <_>
          <internalNodes>
            0 -1 4 9297 419495937 4113 323026944 2188 -2122317696
            -1543479142 -1157592885</internalNodes>
          <leafValues>
            -7.8479397296905518e-001 9.4704473018646240e-001</leafValues></_></weakClassifiers></_>
    <!-- stage 17 -->
    <_>
      <maxWeakCount>1</maxWeakCount>
      <stageThreshold>8.0612242221832275e-001</stageThreshold>
      <weakClassifiers>
        <_>
          <internalNodes>
            0 -1 27 25295276 1347420192 276840512 1049089 1221904461
            -804683760 134611083 407126154</internalNodes>
          <leafValues>
            -1. 8.0612242221832275e-001</leafValues></_></weakClassifiers></_>
    <!-- stage 18 -->
    <_>
      <maxWeakCount>2</maxWeakCount>
      <stageThreshold>-7.3968522250652313e-002</stageThreshold>
      <weakClassifiers>
        <_>
          <internalNodes>
            0 -1 17 390295826 -2130640831 65800 235343872 16810114
            168460288 -266337688 1925414976</internalNodes>
          <leafValues>
            -9.1397851705551147e-001 8.8043481111526489e-001</leafValues></_>
        <_>
          <internalNodes>
            0 -1 25 -2146910066 -2146238208 17 16781449 -2127523710
            -1409253112 -2147450870 -376799192</internalNodes>
          <leafValues>
            -8.8701951503753662e-001 8.4000998735427856e-001</leafValues></_></weakClassifiers></_>
    <!-- stage 19 -->
    <_>
      <maxWeakCount>2</maxWeakCount>
      <stageThreshold>-1.2860512733459473e-001</stageThreshold>
      <weakClassifiers>
        <_>
          <internalNodes>
            0 -1 7 813945872 285474832 18440208 -150896624 -1878916984
            -2011692919 17410 1091108995</internalNodes>
          <leafValues>
            -9.7590363025665283e-001 8.1443297863006592e-001</leafValues></_>
        <_>
          <internalNodes>
            0 -1 23 -800808226 268435457 16810580 17891331 0 1207959552
            -2013265714 1770722691</internalNodes>
          <leafValues>
            -9.0913432836532593e-001 8.4729850292205811e-001</leafValues></_></weakClassifiers></_></stages>
  <features>
    <_>
      <rect>
        0 1 4 4</rect></_>
    <_>
      <rect>
        0 2 5 2</rect></_>
    <_>
      <rect>
        0 10 4 3</rect></_>
    <_>
      <rect>
        1 0 5 6</rect></_>
    <_>
      <rect>
        1 0 6 2</rect></_>
    <_>
      <rect>
        1 4 4 2</rect></_>
    <_>
      <rect>
        1 11 6 6</rect></_>
    <_>
      <rect>
        1 18 6 4</rect></_>
    <_>
      <rect>
        1 20 3 3</rect></_>
    <_>
      <rect>
        2 3 3 3</rect></_>
    <_>
      <rect>
        2 13 6 5</rect></_>
    <_>
      <rect>
        2 19 5 3</rect></_>
    <_>
      <rect>
        2 20 6 3</rect></_>
    <_>
      <rect>
        3 7 2 5</rect></_>
    <_>
      <rect>
        3 7 3 5</rect></_>
    <_>
      <rect>
        3 8 3 6</rect></_>
    <_>
      <rect>
        3 9 2 3</rect></_>
    <_>
      <rect>
        3 9 2 4</rect></_>
    <_>
      <rect>
        4 9 2 3</rect></_>
    <_>
      <rect>
        5 1 1 4</rect></_>
    <_>
      <rect>
        5 9 4 4</rect></_>
    <_>
      <rect>
        6 8 1 5</rect></_>
    <_>
      <rect>
        6 13 3 4</rect></_>
    <_>
      <rect>
        6 17 2 3</rect></_>
    <_>
      <rect>
        6 19 3 2</rect></_>
    <_>
      <rect>
        6 21 2 3</rect></_>
    <_>
      <rect>
        8 1 2 7</rect></_>
    <_>
      <rect>
        8 5 2 4</rect></_>
    <_>
      <rect>
        8 9 2 4</rect></_>
    <_>
      <rect>
        8 14 4 2</rect></_>
    <_>
      <rect>
        10 1 3 3</rect></_>
    <_>
      <rect>
        10 3 3 3</rect></_>
    <_>
      <rect>
        11 14 2 5</rect></_>
    <_>
      <rect>
        12 5 2 2</rect></_>
    <_>
      <rect>
        12 12 2 5</rect></_>
    <_>
      <rect>
        12 23 1 1</rect></_>
    <_>
      <rect>
        13 1 2 5</rect></_></features></cascade>
</opencv_storage>
