<?xml version="1.0"?>
<opencv_storage>
<cascade>
  <stageType>BOOST</stageType>
  <featureType>LBP</featureType>
  <height>30</height>
  <width>20</width>
  <stageParams>
    <boostType>GAB</boostType>
    <minHitRate>9.9500000476837158e-001</minHitRate>
    <maxFalseAlarm>5.0000000000000000e-001</maxFalseAlarm>
    <weightTrimRate>9.4999999999999996e-001</weightTrimRate>
    <maxDepth>1</maxDepth>
    <maxWeakCount>100</maxWeakCount></stageParams>
  <featureParams>
    <maxCatCount>256</maxCatCount>
    <featSize>1</featSize></featureParams>
  <stageNum>20</stageNum>
  <stages>
    <!-- stage 0 -->
    <_>
      <maxWeakCount>1</maxWeakCount>
      <stageThreshold>9.5683455467224121e-001</stageThreshold>
      <weakClassifiers>
        <_>
          <internalNodes>
            0 -1 14 -652681142 32768 32 -2147287037 -2147483648 131200
            524491 -745815409</internalNodes>
          <leafValues>
            -1. 9.5683455467224121e-001</leafValues></_></weakClassifiers></_>
    <!-- stage 1 -->
    <_>
      <maxWeakCount>2</maxWeakCount>
      <stageThreshold>1.0195490717887878e-001</stageThreshold>
      <weakClassifiers>
        <_>
          <internalNodes>
            0 -1 22 -50987793 -185074434 -16777217 -16777281 -1608449035
            536870912 -8396544 -185073673</internalNodes>
          <leafValues>
            -8.6915886402130127e-001 1.</leafValues></_>
        <_>
          <internalNodes>
            0 -1 5 1762369669 -234815472 1025 -1069203455 -2147434486
            -402522112 134283269 -91766783</internalNodes>
          <leafValues>
            -8.9804512262344360e-001 9.7328513860702515e-001</leafValues></_></weakClassifiers></_>
    <!-- stage 2 -->
    <_>
      <maxWeakCount>2</maxWeakCount>
      <stageThreshold>6.6307750530540943e-003</stageThreshold>
      <weakClassifiers>
        <_>
          <internalNodes>
            0 -1 35 268502279 -1878711919 25 276889601 142639139
            -1031241728 16777475 -536145909</internalNodes>
          <leafValues>
            -9.7938144207000732e-001 9.4244605302810669e-001</leafValues></_>
        <_>
          <internalNodes>
            0 -1 16 262927803 2147483647 -1 -1 -268435457 -1 -1 -2117</internalNodes>
          <leafValues>
            -9.1863155364990234e-001 9.8601222038269043e-001</leafValues></_></weakClassifiers></_>
    <!-- stage 3 -->
    <_>
      <maxWeakCount>2</maxWeakCount>
      <stageThreshold>6.5469682216644287e-002</stageThreshold>
      <weakClassifiers>
        <_>
          <internalNodes>
            0 -1 10 -4106 -285212673 -269550592 -285278210 -9 1207959423
            -805126141 -754892285</internalNodes>
          <leafValues>
            -8.7999999523162842e-001 9.1176468133926392e-001</leafValues></_>
        <_>
          <internalNodes>
            0 -1 15 -788410149 -670990320 540704 537333760 -1610546528
            -1073741808 -2013229053 -243073021</internalNodes>
          <leafValues>
            -8.4629499912261963e-001 9.7371083498001099e-001</leafValues></_></weakClassifiers></_>
    <!-- stage 4 -->
    <_>
      <maxWeakCount>2</maxWeakCount>
      <stageThreshold>-7.7367603778839111e-002</stageThreshold>
      <weakClassifiers>
        <_>
          <internalNodes>
            0 -1 9 -1035747126 1426161665 1073746080 -1811841024
            -2147450709 134316546 70297 386056326</internalNodes>
          <leafValues>
            -9.7802197933197021e-001 8.6206895112991333e-001</leafValues></_>
        <_>
          <internalNodes>
            0 -1 24 -1862139816 1896415232 -2130706416 -780042239
            687898760 134774912 -2147446648 -897154934</internalNodes>
          <leafValues>
            -9.2542839050292969e-001 9.0065437555313110e-001</leafValues></_></weakClassifiers></_>
    <!-- stage 5 -->
    <_>
      <maxWeakCount>2</maxWeakCount>
      <stageThreshold>-5.7507101446390152e-002</stageThreshold>
      <weakClassifiers>
        <_>
          <internalNodes>
            0 -1 21 16856083 -1652555776 1073741841 1359056897
            1073742986 -1971159040 2185 -356497919</internalNodes>
          <leafValues>
            -9.7894734144210815e-001 9.1489362716674805e-001</leafValues></_>
        <_>
          <internalNodes>
            0 -1 31 1879244865 -1325334528 16729 -922632188 134255242
            -1727528960 -1879014759 -515645422</internalNodes>
          <leafValues>
            -9.3545019626617432e-001 9.2144024372100830e-001</leafValues></_></weakClassifiers></_>
    <!-- stage 6 -->
    <_>
      <maxWeakCount>2</maxWeakCount>
      <stageThreshold>3.6904755979776382e-002</stageThreshold>
      <weakClassifiers>
        <_>
          <internalNodes>
            0 -1 13 -1073229689 1073856512 -269492224 1861156863 -2049
            2013263871 -796753663 -921247639</internalNodes>
          <leafValues>
            -8.8679248094558716e-001 1.</leafValues></_>
        <_>
          <internalNodes>
            0 -1 11 -602812029 536940553 4194818 1073857027 1342706442
            403210241 546505345 -465319418</internalNodes>
          <leafValues>
            -9.6309524774551392e-001 9.3533837795257568e-001</leafValues></_></weakClassifiers></_>
    <!-- stage 7 -->
    <_>
      <maxWeakCount>2</maxWeakCount>
      <stageThreshold>1.8458615988492966e-002</stageThreshold>
      <weakClassifiers>
        <_>
          <internalNodes>
            0 -1 37 1407709410 -9 -66 -1048593 -1073678349 -1073610751
            -4390779 -536870921</internalNodes>
          <leafValues>
            -8.6407768726348877e-001 9.3984961509704590e-001</leafValues></_>
        <_>
          <internalNodes>
            0 -1 3 1394393468 1359052800 4101 -749713408 33554560
            -1056964608 -1073119078 -788185053</internalNodes>
          <leafValues>
            -9.2139101028442383e-001 9.1323924064636230e-001</leafValues></_></weakClassifiers></_>
    <!-- stage 8 -->
    <_>
      <maxWeakCount>2</maxWeakCount>
      <stageThreshold>-1.2522593140602112e-001</stageThreshold>
      <weakClassifiers>
        <_>
          <internalNodes>
            0 -1 8 289489558 -1593835514 16793856 1358955653 -1073184608
            142606464 -2147188597 -1991008254</internalNodes>
          <leafValues>
            -9.7849464416503906e-001 8.8811188936233521e-001</leafValues></_>
        <_>
          <internalNodes>
            0 -1 36 -1039691646 1880129664 16777216 269484292 131080
            -2113929216 -1878949760 974123011</internalNodes>
          <leafValues>
            -9.5135658979415894e-001 8.5326868295669556e-001</leafValues></_></weakClassifiers></_>
    <!-- stage 9 -->
    <_>
      <maxWeakCount>2</maxWeakCount>
      <stageThreshold>-2.3225916549563408e-002</stageThreshold>
      <weakClassifiers>
        <_>
          <internalNodes>
            0 -1 25 -6295591 -536936449 2147483607 -1 -536883508
            1339936751 -33519602 -18874369</internalNodes>
          <leafValues>
            -8.6274510622024536e-001 9.2537313699722290e-001</leafValues></_>
        <_>
          <internalNodes>
            0 -1 29 -218042030 -2063597527 20481 -1861156864 -2147450742
            131074 170 554025099</internalNodes>
          <leafValues>
            -1. 8.3951920270919800e-001</leafValues></_></weakClassifiers></_>
    <!-- stage 10 -->
    <_>
      <maxWeakCount>2</maxWeakCount>
      <stageThreshold>3.5148595925420523e-003</stageThreshold>
      <weakClassifiers>
        <_>
          <internalNodes>
            0 -1 0 804256895 -268435473 -1 -1 2147483647 -1 -1
            -537012497</internalNodes>
          <leafValues>
            -8.8118809461593628e-001 9.2592591047286987e-001</leafValues></_>
        <_>
          <internalNodes>
            0 -1 2 -800865529 1073741826 69661 268534528 -2137874285
            1241513988 8421504 -352288501</internalNodes>
          <leafValues>
            -9.2241108417510986e-001 9.1330659389495850e-001</leafValues></_></weakClassifiers></_>
    <!-- stage 11 -->
    <_>
      <maxWeakCount>2</maxWeakCount>
      <stageThreshold>-4.6936519443988800e-002</stageThreshold>
      <weakClassifiers>
        <_>
          <internalNodes>
            0 -1 28 -1854078980 -1040179200 2147483645 -1 -196612
            -1073807364 1073741823 -4259844</internalNodes>
          <leafValues>
            -8.6407768726348877e-001 9.3984961509704590e-001</leafValues></_>
        <_>
          <internalNodes>
            0 -1 34 4259919 269090832 16410 285245456 -1879007093
            -2147483648 1082179802 -1744173813</internalNodes>
          <leafValues>
            -1. 8.1714117527008057e-001</leafValues></_></weakClassifiers></_>
    <!-- stage 12 -->
    <_>
      <maxWeakCount>2</maxWeakCount>
      <stageThreshold>-4.3533906340599060e-002</stageThreshold>
      <weakClassifiers>
        <_>
          <internalNodes>
            0 -1 23 -185205505 -184550148 -81 -33554433 -168429577
            983039 2138327176 -1</internalNodes>
          <leafValues>
            -8.2692307233810425e-001 9.2424243688583374e-001</leafValues></_>
        <_>
          <internalNodes>
            0 -1 38 1912948002 -2147417590 275 -2147434496 16810498
            -2147319808 -1073623005 -903708630</internalNodes>
          <leafValues>
            -9.6777635812759399e-001 8.5010236501693726e-001</leafValues></_></weakClassifiers></_>
    <!-- stage 13 -->
    <_>
      <maxWeakCount>2</maxWeakCount>
      <stageThreshold>-7.8597754240036011e-002</stageThreshold>
      <weakClassifiers>
        <_>
          <internalNodes>
            0 -1 26 273113168 1347493888 536936456 16850944 41988258
            -1860567032 65545 -876498775</internalNodes>
          <leafValues>
            -9.5652174949645996e-001 8.6111110448837280e-001</leafValues></_>
        <_>
          <internalNodes>
            0 -1 30 -2134846388 -1316978672 -2130706428 1124208643
            -2130083621 8978432 75713033 -756440421</internalNodes>
          <leafValues>
            -9.3970888853073120e-001 8.7992435693740845e-001</leafValues></_></weakClassifiers></_>
    <!-- stage 14 -->
    <_>
      <maxWeakCount>2</maxWeakCount>
      <stageThreshold>-6.6554106771945953e-002</stageThreshold>
      <weakClassifiers>
        <_>
          <internalNodes>
            0 -1 4 550273758 1090552321 16777265 822149123 100696091
            -1476395006 33587331 -391643135</internalNodes>
          <leafValues>
            -9.3478262424468994e-001 8.4722220897674561e-001</leafValues></_>
        <_>
          <internalNodes>
            0 -1 20 1494306897 285409408 16777360 -2130706408
            -2147319646 -394180608 -2143254335 -1664057181</internalNodes>
          <leafValues>
            -9.1377633810043335e-001 8.9226585626602173e-001</leafValues></_></weakClassifiers></_>
    <!-- stage 15 -->
    <_>
      <maxWeakCount>2</maxWeakCount>
      <stageThreshold>-1.0278099775314331e-001</stageThreshold>
      <weakClassifiers>
        <_>
          <internalNodes>
            0 -1 6 17154269 -1610543104 2177 -465534975 -2145369437
            -134176512 1074277000 -855465984</internalNodes>
          <leafValues>
            -9.5698922872543335e-001 8.7412589788436890e-001</leafValues></_>
        <_>
          <internalNodes>
            0 -1 19 1094738055 67174657 0 -805240821 -2145287548
            -2130706110 -2147483645 -880703475</internalNodes>
          <leafValues>
            -9.0798860788345337e-001 8.5420823097229004e-001</leafValues></_></weakClassifiers></_>
    <!-- stage 16 -->
    <_>
      <maxWeakCount>2</maxWeakCount>
      <stageThreshold>-7.8829839825630188e-002</stageThreshold>
      <weakClassifiers>
        <_>
          <internalNodes>
            0 -1 32 1409286219 327356435 1073741843 293634048 8388616
            134217728 -2143248229 -1744232310</internalNodes>
          <leafValues>
            -9.5505619049072266e-001 8.2312923669815063e-001</leafValues></_>
        <_>
          <internalNodes>
            0 -1 17 -1593454575 352407808 17 4276227 -2013265784 0
            16941440 -1442594173</internalNodes>
          <leafValues>
            -9.0195912122726440e-001 8.9248460531234741e-001</leafValues></_></weakClassifiers></_>
    <!-- stage 17 -->
    <_>
      <maxWeakCount>2</maxWeakCount>
      <stageThreshold>-8.0068990588188171e-002</stageThreshold>
      <weakClassifiers>
        <_>
          <internalNodes>
            0 -1 12 1372127645 285278337 0 -989591296 1073906186
            -2138570743 1359216651 -1924169721</internalNodes>
          <leafValues>
            -9.1489362716674805e-001 8.5915493965148926e-001</leafValues></_>
        <_>
          <internalNodes>
            0 -1 18 1359006352 -1056374783 16908290 -770801581 33685640
            547373192 -939489024 -32800246</internalNodes>
          <leafValues>
            -9.3922394514083862e-001 8.3932733535766602e-001</leafValues></_></weakClassifiers></_>
    <!-- stage 18 -->
    <_>
      <maxWeakCount>2</maxWeakCount>
      <stageThreshold>-5.3506780415773392e-002</stageThreshold>
      <weakClassifiers>
        <_>
          <internalNodes>
            0 -1 1 1735393263 -17 -532676577 -2049 2113929215 2147483647
            553648127 -503193582</internalNodes>
          <leafValues>
            -8.7999999523162842e-001 9.1176468133926392e-001</leafValues></_>
        <_>
          <internalNodes>
            0 -1 33 -1040060144 -234880512 28 16793624 1073905674 524290
            41097 -1211678263</internalNodes>
          <leafValues>
            -9.5070320367813110e-001 8.2649320363998413e-001</leafValues></_></weakClassifiers></_>
    <!-- stage 19 -->
    <_>
      <maxWeakCount>2</maxWeakCount>
      <stageThreshold>-1.0920163989067078e-001</stageThreshold>
      <weakClassifiers>
        <_>
          <internalNodes>
            0 -1 27 320194256 553648128 89391360 553746440 1073776874
            135169 17128 -385285941</internalNodes>
          <leafValues>
            -8.9361703395843506e-001 8.4507042169570923e-001</leafValues></_>
        <_>
          <internalNodes>
            0 -1 7 -1859909514 -717156336 16384 16777480 -2137513509
            -1056964608 -2012970920 -939392799</internalNodes>
          <leafValues>
            -9.5427209138870239e-001 8.1239497661590576e-001</leafValues></_></weakClassifiers></_></stages>
  <features>
    <_>
      <rect>
        0 0 4 4</rect></_>
    <_>
      <rect>
        0 1 4 4</rect></_>
    <_>
      <rect>
        0 14 4 2</rect></_>
    <_>
      <rect>
        0 21 5 3</rect></_>
    <_>
      <rect>
        1 2 4 3</rect></_>
    <_>
      <rect>
        1 6 6 4</rect></_>
    <_>
      <rect>
        1 8 4 3</rect></_>
    <_>
      <rect>
        1 9 4 4</rect></_>
    <_>
      <rect>
        1 11 6 6</rect></_>
    <_>
      <rect>
        2 1 3 5</rect></_>
    <_>
      <rect>
        2 8 2 6</rect></_>
    <_>
      <rect>
        2 10 2 2</rect></_>
    <_>
      <rect>
        2 13 6 5</rect></_>
    <_>
      <rect>
        3 7 2 5</rect></_>
    <_>
      <rect>
        3 8 3 6</rect></_>
    <_>
      <rect>
        3 10 2 3</rect></_>
    <_>
      <rect>
        4 0 2 4</rect></_>
    <_>
      <rect>
        5 9 1 4</rect></_>
    <_>
      <rect>
        5 20 2 2</rect></_>
    <_>
      <rect>
        6 2 3 7</rect></_>
    <_>
      <rect>
        8 0 4 4</rect></_>
    <_>
      <rect>
        8 2 4 2</rect></_>
    <_>
      <rect>
        8 7 2 5</rect></_>
    <_>
      <rect>
        8 8 2 5</rect></_>
    <_>
      <rect>
        8 13 3 2</rect></_>
    <_>
      <rect>
        8 14 4 2</rect></_>
    <_>
      <rect>
        8 18 4 4</rect></_>
    <_>
      <rect>
        8 19 2 2</rect></_>
    <_>
      <rect>
        8 22 2 2</rect></_>
    <_>
      <rect>
        9 7 2 3</rect></_>
    <_>
      <rect>
        9 7 3 5</rect></_>
    <_>
      <rect>
        10 2 2 3</rect></_>
    <_>
      <rect>
        10 6 3 1</rect></_>
    <_>
      <rect>
        10 17 2 4</rect></_>
    <_>
      <rect>
        11 1 2 2</rect></_>
    <_>
      <rect>
        11 1 2 3</rect></_>
    <_>
      <rect>
        11 11 2 6</rect></_>
    <_>
      <rect>
        12 5 2 4</rect></_>
    <_>
      <rect>
        13 0 2 7</rect></_></features></cascade>
</opencv_storage>
