<?xml version="1.0"?>
<opencv_storage>
<cascade>
  <stageType>BOOST</stageType>
  <featureType>LBP</featureType>
  <height>30</height>
  <width>20</width>
  <stageParams>
    <boostType>GAB</boostType>
    <minHitRate>9.9500000476837158e-001</minHitRate>
    <maxFalseAlarm>5.0000000000000000e-001</maxFalseAlarm>
    <weightTrimRate>9.4999999999999996e-001</weightTrimRate>
    <maxDepth>1</maxDepth>
    <maxWeakCount>100</maxWeakCount></stageParams>
  <featureParams>
    <maxCatCount>256</maxCatCount>
    <featSize>1</featSize></featureParams>
  <stageNum>20</stageNum>
  <stages>
    <!-- stage 0 -->
    <_>
      <maxWeakCount>2</maxWeakCount>
      <stageThreshold>-5.0702776759862900e-002</stageThreshold>
      <weakClassifiers>
        <_>
          <internalNodes>
            0 -1 15 -1012416221 33619992 16384 226623489 -1073741309
            17301515 -2147483510 -561259045</internalNodes>
          <leafValues>
            -9.3877553939819336e-001 9.0291261672973633e-001</leafValues></_>
        <_>
          <internalNodes>
            0 -1 14 -620240886 1073762336 4 1073872897 32912 128
            -2146926390 -204750397</internalNodes>
          <leafValues>
            -9.4929218292236328e-001 8.8807272911071777e-001</leafValues></_></weakClassifiers></_>
    <!-- stage 1 -->
    <_>
      <maxWeakCount>2</maxWeakCount>
      <stageThreshold>-4.7782730311155319e-002</stageThreshold>
      <weakClassifiers>
        <_>
          <internalNodes>
            0 -1 19 17023139 -804012031 -77 -1 -1 -2013265921 -101
            -4229549</internalNodes>
          <leafValues>
            -8.5221672058105469e-001 8.7939697504043579e-001</leafValues></_>
        <_>
          <internalNodes>
            0 -1 1 -783859686 -989757439 8388700 -183857151 -2004877160
            -1987510262 546947471 -544505717</internalNodes>
          <leafValues>
            -9.2717969417572021e-001 8.2838827371597290e-001</leafValues></_></weakClassifiers></_>
    <!-- stage 2 -->
    <_>
      <maxWeakCount>2</maxWeakCount>
      <stageThreshold>-1.0203728824853897e-001</stageThreshold>
      <weakClassifiers>
        <_>
          <internalNodes>
            0 -1 15 -41168093 -1064599358 1610711107 1795326017
            1090618147 847265792 -1609924417 -212475860</internalNodes>
          <leafValues>
            -9.0476191043853760e-001 8.1220656633377075e-001</leafValues></_>
        <_>
          <internalNodes>
            0 -1 5 -100406646 -2013167616 4103 1560281361 -2130542449
            -780042224 2195550 -1046224241</internalNodes>
          <leafValues>
            -9.1424387693405151e-001 8.4093534946441650e-001</leafValues></_></weakClassifiers></_>
    <!-- stage 3 -->
    <_>
      <maxWeakCount>2</maxWeakCount>
      <stageThreshold>-4.8046771436929703e-002</stageThreshold>
      <weakClassifiers>
        <_>
          <internalNodes>
            0 -1 6 -13635841 1342902274 1857023721 -973082897
            -1744725847 -1157562240 -8404598 -4097</internalNodes>
          <leafValues>
            -7.9245281219482422e-001 8.9473682641983032e-001</leafValues></_>
        <_>
          <internalNodes>
            0 -1 12 -1055931690 -213905408 16826496 -795078640
            1478148299 671186952 33670027 1903157338</internalNodes>
          <leafValues>
            -9.9121564626693726e-001 7.4440604448318481e-001</leafValues></_></weakClassifiers></_>
    <!-- stage 4 -->
    <_>
      <maxWeakCount>2</maxWeakCount>
      <stageThreshold>1.0872693732380867e-002</stageThreshold>
      <weakClassifiers>
        <_>
          <internalNodes>
            0 -1 25 -168432965 -62847865 -20565 -1056899009 -1073704317
            -1610284928 -32630 -1</internalNodes>
          <leafValues>
            -8.0094784498214722e-001 8.9528793096542358e-001</leafValues></_>
        <_>
          <internalNodes>
            0 -1 23 -662187823 1225474305 134316032 68346368 -1073706864
            301989953 -1879031781 -1727016057</internalNodes>
          <leafValues>
            -8.8441526889801025e-001 8.4130799770355225e-001</leafValues></_></weakClassifiers></_>
    <!-- stage 5 -->
    <_>
      <maxWeakCount>2</maxWeakCount>
      <stageThreshold>-7.6182343065738678e-002</stageThreshold>
      <weakClassifiers>
        <_>
          <internalNodes>
            0 -1 26 1078435855 -805076961 1 -804454257 1074462727
            -2147385088 -1073643503 -525602101</internalNodes>
          <leafValues>
            -9.1578948497772217e-001 8.3018869161605835e-001</leafValues></_>
        <_>
          <internalNodes>
            0 -1 38 1073981315 272695298 81921 -1862205437 32771
            -2147450864 1073840291 -136330557</internalNodes>
          <leafValues>
            -9.0637099742889404e-001 8.5779267549514771e-001</leafValues></_></weakClassifiers></_>
    <!-- stage 6 -->
    <_>
      <maxWeakCount>3</maxWeakCount>
      <stageThreshold>-7.1307009458541870e-001</stageThreshold>
      <weakClassifiers>
        <_>
          <internalNodes>
            0 -1 0 -1051905 -196559 -286326801 -273678337 -537985025
            -536872961 -53 -7169</internalNodes>
          <leafValues>
            -7.7777779102325439e-001 9.1397851705551147e-001</leafValues></_>
        <_>
          <internalNodes>
            0 -1 29 -618802727 1359020080 327697 1527054336 -1474748280
            -1744295934 -660045687 -638943160</internalNodes>
          <leafValues>
            -7.3470008373260498e-001 9.3395447731018066e-001</leafValues></_>
        <_>
          <internalNodes>
            0 -1 27 -652619559 -804847479 285213321 1367441441
            -1608392509 -2147483648 33591995 -317996885</internalNodes>
          <leafValues>
            -8.6924684047698975e-001 8.5230028629302979e-001</leafValues></_></weakClassifiers></_>
    <!-- stage 7 -->
    <_>
      <maxWeakCount>2</maxWeakCount>
      <stageThreshold>-5.5291138589382172e-002</stageThreshold>
      <weakClassifiers>
        <_>
          <internalNodes>
            0 -1 30 336683409 386600976 33554513 1897464225 -2113894264
            209815560 2022228110 -301091409</internalNodes>
          <leafValues>
            -8.7368422746658325e-001 7.9245281219482422e-001</leafValues></_>
        <_>
          <internalNodes>
            0 -1 35 1112232799 -246349823 1073743897 293732352
            -1878994805 -2113896446 1073842184 -897325109</internalNodes>
          <leafValues>
            -8.4774398803710938e-001 8.6675292253494263e-001</leafValues></_></weakClassifiers></_>
    <!-- stage 8 -->
    <_>
      <maxWeakCount>2</maxWeakCount>
      <stageThreshold>-1.5171723067760468e-001</stageThreshold>
      <weakClassifiers>
        <_>
          <internalNodes>
            0 -1 33 1246039 -653713384 268439745 1426129280 -1476386389
            -2138963957 -805068109 -2000017241</internalNodes>
          <leafValues>
            -9.3142855167388916e-001 7.2687226533889771e-001</leafValues></_>
        <_>
          <internalNodes>
            0 -1 22 -1073299242 -150937451 134234386 -553496573
            -2146828158 436207768 -670498113 -83443061</internalNodes>
          <leafValues>
            -8.7858945131301880e-001 8.0522364377975464e-001</leafValues></_></weakClassifiers></_>
    <!-- stage 9 -->
    <_>
      <maxWeakCount>2</maxWeakCount>
      <stageThreshold>-1.2844246625900269e-001</stageThreshold>
      <weakClassifiers>
        <_>
          <internalNodes>
            0 -1 13 -1325149509 -721210874 -2097135358 1124881216
            -1870257990 -1946107744 33734878 -1349797141</internalNodes>
          <leafValues>
            -8.6387431621551514e-001 7.9146921634674072e-001</leafValues></_>
        <_>
          <internalNodes>
            0 -1 36 -770584830 1371607056 32906 1175126536 -788041152
            35651584 -922648437 -108267121</internalNodes>
          <leafValues>
            -8.9536571502685547e-001 7.3543184995651245e-001</leafValues></_></weakClassifiers></_>
    <!-- stage 10 -->
    <_>
      <maxWeakCount>2</maxWeakCount>
      <stageThreshold>6.4081586897373199e-002</stageThreshold>
      <weakClassifiers>
        <_>
          <internalNodes>
            0 -1 7 -1858076689 -268468222 -16777217 -269488146 570535935
            -1040056319 579407883 -2103</internalNodes>
          <leafValues>
            -7.6525819301605225e-001 8.7301588058471680e-001</leafValues></_>
        <_>
          <internalNodes>
            0 -1 3 264849 -717029376 16875665 -713031655 276965803
            -744423296 -872316721 -1387630461</internalNodes>
          <leafValues>
            -8.0893427133560181e-001 8.5876727104187012e-001</leafValues></_></weakClassifiers></_>
    <!-- stage 11 -->
    <_>
      <maxWeakCount>2</maxWeakCount>
      <stageThreshold>-8.7438775226473808e-003</stageThreshold>
      <weakClassifiers>
        <_>
          <internalNodes>
            0 -1 37 -1862270977 -1342504963 -1 -3 -1073741825
            -1342177281 -98307 -31779</internalNodes>
          <leafValues>
            -7.4647885560989380e-001 8.5185188055038452e-001</leafValues></_>
        <_>
          <internalNodes>
            0 -1 4 -919957026 822153218 402653457 293670929 33984
            -134217688 -393602422 -74907501</internalNodes>
          <leafValues>
            -8.6059570312500000e-001 8.1220966577529907e-001</leafValues></_></weakClassifiers></_>
    <!-- stage 12 -->
    <_>
      <maxWeakCount>2</maxWeakCount>
      <stageThreshold>5.3953014314174652e-002</stageThreshold>
      <weakClassifiers>
        <_>
          <internalNodes>
            0 -1 17 -788019885 -1827340287 3 -2013167611 -2013032381
            -536281088 -2120164725 -41694709</internalNodes>
          <leafValues>
            -8.5000002384185791e-001 8.5148513317108154e-001</leafValues></_>
        <_>
          <internalNodes>
            0 -1 28 1372320089 1904280194 1073741825 487800834
            -2004315141 -1735884800 -1325323714 -224809830</internalNodes>
          <leafValues>
            -7.8367859125137329e-001 9.0395301580429077e-001</leafValues></_></weakClassifiers></_>
    <!-- stage 13 -->
    <_>
      <maxWeakCount>2</maxWeakCount>
      <stageThreshold>-1.3520786166191101e-001</stageThreshold>
      <weakClassifiers>
        <_>
          <internalNodes>
            0 -1 20 118355947 75600641 -2130685696 -855571889 1342251264
            1093174785 -1606010365 -69687161</internalNodes>
          <leafValues>
            -8.6528497934341431e-001 8.0861246585845947e-001</leafValues></_>
        <_>
          <internalNodes>
            0 -1 32 -233077554 -1073520566 537460736 -636780407
            -460820407 41975810 1935738946 -397449041</internalNodes>
          <leafValues>
            -9.3328016996383667e-001 7.3007708787918091e-001</leafValues></_></weakClassifiers></_>
    <!-- stage 14 -->
    <_>
      <maxWeakCount>2</maxWeakCount>
      <stageThreshold>-1.2071514129638672e-001</stageThreshold>
      <weakClassifiers>
        <_>
          <internalNodes>
            0 -1 21 1371688159 -721317885 268472380 421151367 1073815564
            1207959584 268615816 2030758047</internalNodes>
          <leafValues>
            -9.0960454940795898e-001 7.2444444894790649e-001</leafValues></_>
        <_>
          <internalNodes>
            0 -1 24 1464331523 -469594048 16777248 -1073643423
            -1072658289 -1879040000 -804781886 -641495537</internalNodes>
          <leafValues>
            -8.3661812543869019e-001 7.8888940811157227e-001</leafValues></_></weakClassifiers></_>
    <!-- stage 15 -->
    <_>
      <maxWeakCount>2</maxWeakCount>
      <stageThreshold>-4.3947000056505203e-002</stageThreshold>
      <weakClassifiers>
        <_>
          <internalNodes>
            0 -1 18 -250953569 -251098873 -2011086691 -368863021
            -1039956170 419430401 152111401 -1157603194</internalNodes>
          <leafValues>
            -8.7434554100036621e-001 8.0094784498214722e-001</leafValues></_>
        <_>
          <internalNodes>
            0 -1 9 1099035395 -805294063 16826631 1103167505 -1879018607
            -396853248 1226879739 -808795766</internalNodes>
          <leafValues>
            -8.4489488601684570e-001 8.3643978834152222e-001</leafValues></_></weakClassifiers></_>
    <!-- stage 16 -->
    <_>
      <maxWeakCount>2</maxWeakCount>
      <stageThreshold>-1.4841175079345703e-001</stageThreshold>
      <weakClassifiers>
        <_>
          <internalNodes>
            0 -1 16 -1287440445 -1853586495 1612820485 -939202989
            818963363 2026373120 -1539258494 -1164847528</internalNodes>
          <leafValues>
            -8.5026735067367554e-001 7.4883723258972168e-001</leafValues></_>
        <_>
          <internalNodes>
            0 -1 31 -1312521778 864092162 1611661369 1363182720
            -1879014710 -1341980640 721533085 -299009395</internalNodes>
          <leafValues>
            -8.9724898338317871e-001 7.3692429065704346e-001</leafValues></_></weakClassifiers></_>
    <!-- stage 17 -->
    <_>
      <maxWeakCount>2</maxWeakCount>
      <stageThreshold>-6.8820714950561523e-002</stageThreshold>
      <weakClassifiers>
        <_>
          <internalNodes>
            0 -1 2 -17 -83886338 -8388818 -16777217 -524289 -184549377
            2004877183 -603979777</internalNodes>
          <leafValues>
            -7.7777779102325439e-001 8.3589744567871094e-001</leafValues></_>
        <_>
          <internalNodes>
            0 -1 10 -800025790 -326428287 134217993 -1554579455
            -1743640379 -2138370047 -661409749 -22609126</internalNodes>
          <leafValues>
            -9.0471816062927246e-001 7.5044178962707520e-001</leafValues></_></weakClassifiers></_>
    <!-- stage 18 -->
    <_>
      <maxWeakCount>2</maxWeakCount>
      <stageThreshold>-6.5304115414619446e-002</stageThreshold>
      <weakClassifiers>
        <_>
          <internalNodes>
            0 -1 8 -786020414 -249954273 -1018167237 873779721
            -1048575960 -1335738367 461623434 -943701</internalNodes>
          <leafValues>
            -8.5185188055038452e-001 7.6525819301605225e-001</leafValues></_>
        <_>
          <internalNodes>
            0 -1 28 567397185 -1895071671 17896397 -2117039817
            -1776751998 -2139084791 167807177 -322375443</internalNodes>
          <leafValues>
            -8.3056235313415527e-001 7.9082739353179932e-001</leafValues></_></weakClassifiers></_>
    <!-- stage 19 -->
    <_>
      <maxWeakCount>2</maxWeakCount>
      <stageThreshold>-1.6972801089286804e-001</stageThreshold>
      <weakClassifiers>
        <_>
          <internalNodes>
            0 -1 11 -1056642865 -1056521085 1745994393 -645398519
            -805264717 -2109661184 -2139053918 -660566010</internalNodes>
          <leafValues>
            -8.2564103603363037e-001 7.8743958473205566e-001</leafValues></_>
        <_>
          <internalNodes>
            0 -1 34 2085851590 -770299500 1073762368 -753942431
            1367572599 553750792 -762703868 2034358789</internalNodes>
          <leafValues>
            -9.5716762542724609e-001 6.8754249811172485e-001</leafValues></_></weakClassifiers></_></stages>
  <features>
    <_>
      <rect>
        0 9 4 4</rect></_>
    <_>
      <rect>
        0 12 6 6</rect></_>
    <_>
      <rect>
        0 14 3 4</rect></_>
    <_>
      <rect>
        1 0 5 3</rect></_>
    <_>
      <rect>
        1 2 4 3</rect></_>
    <_>
      <rect>
        1 5 3 4</rect></_>
    <_>
      <rect>
        1 8 4 3</rect></_>
    <_>
      <rect>
        1 14 4 3</rect></_>
    <_>
      <rect>
        1 21 3 3</rect></_>
    <_>
      <rect>
        2 5 5 4</rect></_>
    <_>
      <rect>
        2 7 2 5</rect></_>
    <_>
      <rect>
        2 10 4 2</rect></_>
    <_>
      <rect>
        2 12 3 6</rect></_>
    <_>
      <rect>
        2 13 6 5</rect></_>
    <_>
      <rect>
        3 6 3 7</rect></_>
    <_>
      <rect>
        3 7 2 5</rect></_>
    <_>
      <rect>
        3 9 2 4</rect></_>
    <_>
      <rect>
        3 10 2 3</rect></_>
    <_>
      <rect>
        3 11 3 2</rect></_>
    <_>
      <rect>
        4 0 2 4</rect></_>
    <_>
      <rect>
        4 7 2 5</rect></_>
    <_>
      <rect>
        4 18 2 4</rect></_>
    <_>
      <rect>
        4 20 3 2</rect></_>
    <_>
      <rect>
        6 8 1 5</rect></_>
    <_>
      <rect>
        7 0 2 8</rect></_>
    <_>
      <rect>
        7 8 2 5</rect></_>
    <_>
      <rect>
        8 3 2 7</rect></_>
    <_>
      <rect>
        8 9 2 4</rect></_>
    <_>
      <rect>
        8 9 4 4</rect></_>
    <_>
      <rect>
        8 11 4 3</rect></_>
    <_>
      <rect>
        8 14 4 2</rect></_>
    <_>
      <rect>
        8 21 4 3</rect></_>
    <_>
      <rect>
        10 9 2 5</rect></_>
    <_>
      <rect>
        11 2 2 2</rect></_>
    <_>
      <rect>
        11 9 2 5</rect></_>
    <_>
      <rect>
        12 0 2 4</rect></_>
    <_>
      <rect>
        12 13 2 4</rect></_>
    <_>
      <rect>
        12 22 1 2</rect></_>
    <_>
      <rect>
        14 1 2 6</rect></_></features></cascade>
</opencv_storage>
