%YAML:1.0
my_svm: !!opencv-ml-svm
   svm_type: C_SVC
   kernel: { type:LINEAR }
   C: 2.6699999999999999e+00
   term_criteria: { epsilon:1.1920928955078125e-07, iterations:1000 }
   var_all: 512
   var_count: 512
   class_count: 10
   class_labels: !!opencv-matrix
      rows: 1
      cols: 10
      dt: i
      data: [ 0, 1, 2, 3, 4, 5, 6, 7, 8, 9 ]
   sv_total: 45
   support_vectors:
      - [ -2.68229021e-04, 2.56044616e-04, 2.67782860e-04,
          -8.33648755e-06, 1.95146247e-04, -2.53173657e-05,
          2.17520719e-04, 1.64161392e-07, 1.28146448e-05,
          -1.00392885e-04, 5.50376972e-05, 1.39845681e-04,
          -4.53195184e-07, 1.55526650e-04, 2.49125278e-05,
          -1.78265618e-04, -2.55117426e-04, -8.53004458e-05,
          2.81081302e-04, 2.04228883e-04, -2.84257726e-06,
          8.35923274e-05, 6.60942751e-05, 1.11916183e-04, 9.40020691e-05,
          2.29470665e-04, -5.01169889e-05, 4.39206546e-04,
          1.80343486e-04, 8.87864880e-05, 8.25615280e-05,
          -2.85795919e-04, -2.93702833e-05, -4.46851482e-05,
          2.61812645e-04, -4.12475929e-05, -1.65545425e-05,
          -1.19664670e-04, 3.41190280e-05, -2.12885207e-04,
          -1.47441868e-04, 2.35954678e-04, 8.22820039e-06,
          -8.88493450e-05, 4.33773603e-05, 1.14930799e-05,
          7.28591986e-05, -2.00591767e-05, -1.81723328e-04,
          -1.16070543e-04, -1.39817757e-05, -4.27657360e-05,
          -7.36128422e-05, -1.60102383e-04, -4.00383324e-05,
          -1.86930047e-04, -2.79495987e-04, -2.59140099e-04,
          -9.69435569e-05, 6.76752461e-05, 2.06332377e-04,
          -1.38597170e-04, 1.92653009e-04, 2.67074327e-04,
          -1.11099071e-04, 4.06361614e-05, 8.40115463e-05,
          -7.52645865e-05, 2.19524387e-04, 1.23151631e-05,
          3.69686059e-05, 3.10756208e-04, 2.71689380e-04,
          -3.12270276e-04, -4.61630079e-05, 1.41991724e-04,
          -4.92270774e-05, 2.02779440e-04, 1.46823717e-04,
          -9.51384300e-06, 7.21957040e-05, 3.13678211e-05,
          -9.65555882e-05, -8.86748967e-05, -9.88214233e-05,
          -4.77599970e-05, -5.86018905e-05, 1.93539192e-04,
          6.24719032e-05, 2.16877364e-04, 1.17578711e-04, 2.99771375e-04,
          -3.39850230e-05, 9.23457555e-05, 2.80941691e-04,
          -2.27450262e-04, 4.98952568e-06, -7.00072851e-05,
          1.30226399e-04, -3.90832502e-05, -5.23040544e-05,
          -7.17065341e-05, -1.06529296e-04, -2.72333476e-04,
          -6.70362133e-05, -9.27326691e-05, -1.12030240e-04,
          -3.41955456e-05, -7.04771519e-05, -7.25165664e-05,
          -5.62713940e-05, 9.90073386e-05, -9.78152748e-05,
          -3.91091453e-05, 8.62682718e-05, -1.15737028e-04,
          3.50737719e-05, -2.70598597e-04, -5.84638437e-05,
          -2.20655333e-04, -3.01497959e-04, -7.45772923e-05,
          -2.21822265e-04, 1.52220950e-04, -7.81813796e-05,
          9.81132252e-05, 3.67042667e-05, 3.77565702e-05, 8.29846686e-05,
          -1.04997807e-05, -1.68227270e-04, 1.87822297e-04,
          7.76470479e-05, 6.62048915e-05, -5.94978555e-05,
          9.61495025e-05, 1.29393346e-04, -2.07131685e-04,
          -8.08824261e-05, 1.54952519e-04, 8.98705912e-05,
          -1.92508625e-04, -1.34923132e-04, -9.37793011e-05,
          -6.57485216e-05, -8.70893382e-06, -2.81554327e-04,
          -1.27315856e-04, -1.83325523e-04, -5.48992102e-05,
          -1.61409916e-04, -1.00202073e-04, -1.47499086e-04,
          -1.35932150e-05, 8.83880639e-05, -8.03981166e-05,
          -4.70949635e-06, 2.56619591e-04, 1.57808154e-05,
          -7.94314474e-05, -2.50232522e-04, 4.55591769e-04,
          2.14472981e-04, 3.20410763e-05, 2.88898998e-04, 4.84517514e-05,
          1.76355694e-04, -8.08396508e-05, -1.84543642e-05,
          -1.00789930e-05, 2.69479351e-04, 8.78726787e-05,
          2.32336941e-04, 1.27400446e-04, -1.19381693e-05,
          6.06906506e-05, 9.22834515e-05, 3.83032195e-04, 1.04670478e-04,
          1.34833637e-04, 1.46071936e-04, -5.34502942e-06,
          1.73673208e-04, -5.92149700e-05, 3.40681523e-04,
          -6.16056495e-05, 4.06777894e-04, -3.45912008e-06,
          3.15580110e-04, 3.52229341e-04, 6.93820039e-05, 2.69775977e-04,
          -1.10281289e-04, 1.02254147e-04, -6.48584610e-05,
          1.31067514e-04, -1.50904270e-05, 1.77161492e-04,
          2.32122155e-04, 3.54142481e-04, 2.10666576e-06, 1.24495023e-06,
          1.20974320e-04, 6.40114231e-05, -1.59143063e-04,
          -6.53765674e-05, 7.54818711e-06, 1.43504920e-04,
          1.20329409e-04, -2.09512626e-04, -1.56568116e-04,
          2.94087251e-04, 1.17727483e-04, -1.38711112e-05,
          1.06030238e-05, -7.50818363e-05, -8.36566032e-05,
          -2.67766009e-04, -1.36479430e-04, -4.76854300e-04,
          -1.81301381e-04, -1.07093329e-04, 1.51307904e-04,
          1.61745083e-05, 3.29253598e-05, 9.14829725e-05, 5.79760876e-04,
          3.47261754e-04, 1.88539212e-04, 1.31438894e-04,
          -1.28600484e-04, -1.29061707e-04, -1.66171332e-04,
          3.24196852e-04, 1.16501775e-04, 1.60927841e-04, 1.43932979e-04,
          4.88749996e-04, 2.64352915e-04, 3.07943381e-04, 2.75052997e-04,
          4.18244599e-04, 2.13272739e-04, 2.92632263e-04, 4.68452781e-05,
          -2.59054243e-04, 1.63025004e-04, -1.45553684e-04,
          -1.22291895e-04, -2.23656796e-04, 2.00106533e-05,
          2.13600826e-04, -6.70703885e-05, -1.15471499e-04,
          -1.63523684e-04, -6.97879586e-05, -1.27676667e-05,
          1.85215773e-04, 2.09343161e-05, 2.02071300e-04, 1.65431484e-04,
          -1.33127585e-04, 7.29250096e-05, -4.91238534e-05,
          2.69899901e-04, -1.04554172e-04, 2.98445248e-05,
          2.53842212e-04, -1.35969836e-04, -2.02521369e-05,
          1.32378089e-04, -8.90140509e-05, 3.23628847e-05,
          -1.95742323e-04, -9.36760989e-05, -2.98699626e-04,
          -2.10480328e-04, -1.91672210e-04, -1.50197200e-04,
          -1.78444840e-04, -3.66505876e-04, -4.00048826e-04,
          2.33915227e-04, -2.04533848e-04, 1.49869200e-04,
          1.16654664e-04, 9.35672233e-06, 4.62308853e-05,
          -5.25226751e-05, -9.04157496e-05, -1.53112880e-04,
          -7.55154688e-05, 3.01112268e-05, 1.94773645e-04,
          3.47265959e-05, -7.07129002e-05, 2.41971691e-04,
          -1.07689884e-04, 3.82786995e-04, 3.90759116e-04,
          2.10608137e-04, 4.91887215e-04, 4.43599594e-04, 2.47269665e-04,
          3.45998560e-04, 6.08301896e-04, 3.63793923e-04, 2.84354406e-04,
          3.50874412e-04, 4.22217163e-05, 6.13227458e-05, 2.02343930e-04,
          -5.58386928e-05, 1.19602912e-04, -9.07435387e-05,
          -2.03854011e-04, 1.03651779e-04, -1.35382375e-04,
          -1.30649394e-04, -2.82770285e-04, -3.53398558e-04,
          -4.19592579e-05, -1.68966711e-04, -2.36129985e-04,
          -1.91016035e-04, 9.27572546e-05, -1.49507774e-04,
          -1.63734032e-04, -1.25154756e-05, -1.37956609e-04,
          -2.35308296e-04, -3.38503560e-05, -1.20553435e-04,
          -9.39996171e-05, -1.12851732e-04, -5.67358220e-05,
          5.43219685e-05, -9.21407409e-05, -4.93886819e-06,
          -6.48728928e-06, -5.06395991e-05, -2.66964962e-05,
          -7.86774126e-06, 4.53886751e-05, -5.21829315e-05,
          -2.50416870e-05, -1.87448823e-04, -3.85112980e-05,
          9.94943184e-05, 2.25453579e-04, -2.26092830e-04,
          4.18716751e-04, -4.23459627e-04, 1.16926574e-04,
          5.35761365e-06, 3.94544302e-04, 2.47673073e-04, 1.96255554e-04,
          3.10875148e-05, 2.67472933e-04, 2.81258952e-04, 2.06324403e-04,
          3.05902904e-05, 1.65382356e-04, 2.54444603e-04, 1.83386815e-04,
          -4.45802980e-05, 2.16302098e-04, 8.08827681e-05,
          1.60783515e-04, 1.16556941e-04, 3.98405071e-04, 2.09106292e-04,
          -1.55759073e-04, -5.62973000e-05, 1.12167319e-04,
          -2.16575660e-04, -2.03224961e-04, -2.72807025e-04,
          8.32351870e-05, 1.55361413e-04, 7.26770377e-05, 2.34152558e-05,
          5.82880020e-05, -7.27134975e-05, 1.42281599e-04,
          -1.32649511e-04, 1.98016176e-04, 1.82010015e-04,
          1.21968493e-04, -4.41165539e-05, -3.21676234e-05,
          -1.09629136e-05, -1.02670356e-06, -2.57537991e-04,
          -1.67845326e-04, 1.82774224e-04, -2.08137295e-04,
          1.33969908e-04, -2.44765233e-05, 1.57098752e-04,
          -1.49880161e-05, 2.08936573e-04, 2.07158533e-04,
          1.43946629e-04, -3.85247658e-05, 1.16090514e-05,
          2.64752452e-04, 3.79638834e-04, 1.50789303e-04,
          -5.50837030e-05, 2.76651088e-04, -8.29670389e-05,
          4.38006755e-05, -6.39015125e-05, -1.46198827e-05,
          -1.85513229e-04, -1.74180546e-04, -1.86449601e-04,
          1.05509840e-04, -6.10406933e-05, -1.56749302e-04,
          8.69179275e-05, -2.60785484e-04, 3.04558625e-06,
          -1.16977651e-04, -1.67098024e-05, 1.24120124e-04,
          -1.40920616e-04, -8.07465694e-05, -3.48842324e-04,
          -2.83281202e-04, -1.02376252e-04, -2.99451320e-04,
          -1.54261579e-04, -3.27465648e-04, -1.42152334e-04,
          -2.57824955e-04, -4.87807438e-06, -2.74007936e-04,
          -1.05228894e-04, -4.99890302e-04, -2.63741851e-04,
          9.33963602e-05, -4.39784955e-04, -1.80824587e-04,
          -3.85165076e-05, -2.15366290e-05, -1.71721593e-04,
          -6.18462509e-05, -1.47429673e-04, 2.08605328e-04,
          -2.06940513e-05, -2.55099527e-04, 3.50012153e-04,
          6.08696610e-05, 1.98434733e-04, -6.52589151e-05,
          1.68698985e-04, 2.18685411e-04, 2.69552893e-05, 3.20772408e-04,
          5.64305112e-04, 1.30667511e-04, 4.47563682e-04, 7.79612921e-04,
          3.46872228e-04, 1.89089289e-04, 2.21898619e-04, 3.04549583e-04,
          2.38220659e-04, 2.62748217e-04, 1.04003273e-04,
          -1.78776681e-04, 7.90733247e-05, 9.47932058e-05,
          4.03328850e-05, -1.64766083e-04, 3.63217696e-05,
          -1.02728751e-04, -1.03366103e-04, 6.42541181e-06,
          -1.30684435e-04, -8.28241537e-05, -2.44366674e-04,
          -2.53558246e-04, -1.23308695e-04, -4.54788969e-04,
          -3.42976418e-04, -5.49958750e-05, -5.82424051e-04,
          -2.60429835e-04, -8.34680541e-05, 6.27892359e-06,
          -2.33222047e-04, 1.86697907e-05, -3.16340855e-04,
          -1.56368522e-04, -2.09927064e-04, -3.15895086e-05,
          7.45711895e-06, 1.27142237e-04, -2.63403035e-05,
          -2.81147077e-04, 1.04154524e-05, -2.25277385e-04,
          8.17246291e-06, -7.93099971e-05, 3.69439795e-06,
          -1.00590310e-04, -2.14243482e-04, -8.31921498e-05 ]
      - [ -1.67551450e-04, -4.42420351e-05, 2.43846240e-04,
          -6.76879863e-05, 6.24762179e-05, -2.25831973e-04,
          8.42502850e-05, -3.64363732e-05, 1.91261533e-05,
          -1.18794094e-04, -1.83416618e-04, -7.34458517e-05,
          6.16475199e-06, -1.08511289e-04, 2.19070971e-05,
          -1.32629415e-04, -2.34175536e-06, -8.58430794e-05,
          3.05533205e-04, -1.40709235e-04, 1.24954371e-04,
          2.37618777e-04, 1.49128929e-04, -1.14590817e-04,
          9.75649527e-05, 9.00661762e-05, -2.16829096e-04,
          2.23043797e-04, 1.36647195e-05, -3.84572049e-04,
          1.15450384e-04, 1.98286085e-04, 1.96390713e-04, 2.89645977e-04,
          2.46004784e-04, 1.50035747e-04, 2.08764759e-05,
          -5.17579028e-05, -7.98309975e-06, -1.28810454e-04,
          -2.55555497e-04, 2.06026689e-05, 5.42762682e-05,
          -1.18403303e-04, 5.46155861e-05, 6.06871035e-05,
          -8.23534356e-05, -9.71588670e-05, -4.32786692e-05,
          -4.64972072e-05, 2.05629622e-04, -1.52046414e-04,
          1.65655983e-05, -1.65741003e-04, 1.44956812e-05,
          1.00648569e-04, 2.28573859e-04, -1.78416540e-05,
          4.29684333e-05, 1.74398869e-04, -4.18825257e-05,
          -4.37358794e-05, 2.30670066e-05, 8.34659513e-05,
          -3.31675750e-04, 5.86011993e-05, 2.62742600e-04,
          1.39409065e-04, 7.66771191e-05, 3.35073964e-05,
          -1.04697632e-04, 4.24721984e-05, -6.95177878e-05,
          -2.27690703e-04, 2.33822386e-04, -1.58206443e-04,
          -3.90999019e-04, -1.60469222e-04, -8.77352941e-05,
          -1.95783959e-05, 1.77777620e-05, -1.97115922e-04,
          -2.22196308e-04, -7.85987213e-05, -1.01715515e-04,
          -2.00972499e-04, -3.86981294e-04, -4.61445961e-05,
          9.84127037e-05, 1.48058578e-04, -6.82656319e-05,
          8.99434235e-05, 4.08525284e-06, 2.39665911e-04,
          -8.12205326e-05, 2.86225950e-05, -5.41891022e-05,
          -7.77822570e-05, 2.23071074e-05, 5.52850615e-05,
          -6.38393103e-05, 9.37039804e-05, -7.73142710e-06,
          4.35034563e-05, -1.60012845e-04, 6.76942946e-05,
          -1.84504635e-04, -3.64112793e-07, 1.87031037e-05,
          4.42983255e-05, 1.09818888e-04, -7.42317134e-05,
          -1.98943271e-05, -1.63330827e-04, -1.66240061e-04,
          -4.13947600e-05, -8.46894909e-05, 3.35484256e-05,
          1.21802241e-05, -5.04056661e-05, -6.31186485e-05,
          -3.53674186e-05, -1.17587224e-04, -1.02276363e-05,
          3.68639885e-05, 7.46191217e-05, 1.12327252e-04, 1.13493996e-04,
          8.95995072e-06, -1.41792756e-04, 2.29469922e-04,
          5.33815946e-05, -2.45810923e-04, -3.93621478e-04,
          -5.53408790e-05, -2.63840659e-04, -3.88565764e-04,
          -3.44679196e-04, -5.07877267e-04, -4.20172611e-04,
          -5.49047894e-04, -6.96263567e-04, -5.29861834e-04,
          -6.97507348e-04, -6.81410776e-04, -5.57258434e-04,
          -6.26690278e-04, -6.76562486e-04, -6.56622520e-04,
          -3.63124273e-04, -2.41859598e-04, -3.76980053e-04,
          -1.44338672e-04, -2.01685732e-04, -1.40531083e-05,
          -5.62507848e-05, 6.93113616e-05, -8.69115775e-06,
          1.87092650e-04, -4.61018644e-05, 8.94105251e-05,
          2.50324258e-04, -1.73415872e-04, -3.70574126e-04,
          2.19023845e-04, -8.31634170e-05, 1.02898877e-04,
          8.91708041e-05, 1.41260127e-04, 2.96062877e-04, 6.82212558e-05,
          2.47023891e-05, 1.30827451e-04, 1.38773932e-04, 1.73651089e-04,
          1.83017895e-04, 1.34488015e-04, 4.25938313e-04, 3.41759238e-04,
          3.06069414e-04, 2.29366982e-04, -1.08276436e-04,
          3.83165432e-04, 2.23064024e-04, 3.29978677e-04, 5.03058312e-04,
          2.48675846e-04, 1.92073894e-05, 3.85529042e-04, 7.56826703e-05,
          1.80221265e-04, 5.05701200e-06, 1.93761534e-05, 3.50365706e-04,
          2.28281802e-04, 2.84995876e-05, 2.42974929e-04,
          -1.56124428e-04, 1.38319838e-05, 1.64711208e-04,
          1.68432380e-04, 1.82943812e-04, 1.58172668e-04,
          -1.38976655e-04, -1.58418334e-04, -3.98670818e-04,
          -6.66948927e-06, -2.97964347e-04, -1.44382691e-04,
          -4.71653417e-04, -2.08717174e-04, -5.79984589e-05,
          6.86584463e-05, 2.73083988e-05, -1.11569198e-05,
          -1.18981457e-04, -5.65333758e-05, -1.99839596e-05,
          -5.06557772e-05, -3.79722565e-04, -2.09841310e-04,
          2.52911181e-04, 5.09296005e-05, 8.40596258e-05, 1.39292402e-04,
          1.29398890e-04, 4.92204912e-04, -9.94268703e-06,
          -8.17835898e-05, -5.36498301e-05, 9.22594336e-05,
          2.07192483e-04, 3.88695407e-05, 1.62677505e-04,
          -1.26744621e-04, 5.41219953e-04, 3.09605297e-04,
          5.30202291e-04, 3.05346650e-04, 2.78594875e-04, 4.44136240e-04,
          1.75013934e-04, 4.03365295e-04, 3.18902516e-04, 9.37574368e-05,
          1.24737257e-04, 3.09220748e-04, 2.58892123e-05, 1.05113337e-04,
          2.90811295e-04, 1.35863811e-04, 5.03747899e-04, 2.54102924e-04,
          -3.87104446e-05, -6.02850487e-05, -1.20737976e-04,
          1.28671847e-04, -6.65831030e-05, -4.07718617e-04,
          -5.99244595e-05, -1.77223876e-04, -2.07055622e-04,
          -2.46914478e-05, -1.85533776e-04, 1.01295285e-04,
          -1.01291604e-04, 2.40379435e-04, 5.25534415e-05,
          8.72073579e-05, -6.71129237e-06, 2.12476243e-06,
          -1.58652365e-05, -1.67995735e-04, 2.02279061e-05,
          -9.80479672e-05, -4.92479157e-05, 2.23861280e-05,
          -2.62407091e-04, -4.11028814e-05, -1.67515536e-04,
          -1.19111217e-04, -1.42172983e-04, 2.96874437e-04,
          -1.08695014e-04, -1.96196575e-04, -9.93658614e-05,
          -6.05146488e-05, -7.57512462e-05, -1.59643736e-04,
          -3.32886771e-06, -4.86833642e-06, -1.14115704e-04,
          1.69483275e-04, 2.01793846e-05, -1.57625123e-04,
          -2.80920998e-04, -8.93677352e-05, 1.59618357e-04,
          6.06134790e-06, 3.68820693e-05, -1.14050272e-04,
          1.43154548e-05, -2.76908191e-04, -2.79851811e-04,
          6.45115724e-05, -1.41800874e-05, -1.58346913e-04,
          -2.77756353e-05, 9.73437054e-05, -1.57560702e-04,
          -1.33062960e-04, 6.40716244e-05, -6.26205510e-05,
          -1.98433001e-04, -5.43073693e-05, 6.90617453e-05,
          4.19134958e-05, -9.06887435e-05, -3.60262231e-04,
          -1.78827220e-04, -2.66186853e-05, -6.84149427e-06,
          3.80390920e-05, 1.07108877e-04, 3.21174775e-05,
          -2.23909519e-05, -9.10437375e-05, -9.76433876e-05,
          1.35641276e-05, -1.04215032e-04, -1.26143976e-04,
          -1.72842512e-04, -1.11689096e-05, -6.02489017e-05,
          -2.03560830e-05, -4.81289717e-05, -4.26742445e-05,
          -1.37789293e-05, 2.58225173e-05, 1.43174097e-04,
          -7.49270912e-05, 3.25326182e-05, -2.78726693e-05,
          1.87454440e-04, -1.35737828e-05, 7.30092652e-05,
          -3.09537209e-05, -7.74552245e-05, 1.17141637e-04,
          6.64121471e-05, 1.16342293e-04, 1.22220983e-04,
          -1.15077964e-04, 1.17859869e-04, 2.66379211e-04,
          5.30143916e-05, 1.60686337e-04, 1.54434441e-04, 1.24968690e-04,
          -4.94416163e-05, -6.59072539e-05, 1.45871367e-04,
          1.29713328e-04, 2.24971212e-04, 3.06975453e-05, 1.52530338e-04,
          -8.72149249e-05, -9.31739050e-05, 9.81409830e-05,
          -4.23478596e-05, -1.49961605e-04, -1.13843480e-05,
          -4.58747672e-05, -7.71386331e-05, 1.88324120e-05,
          1.24405415e-04, -3.04534060e-05, -6.26873807e-05,
          -8.69473515e-05, -6.14625897e-05, 4.05710525e-05,
          -3.64194784e-05, -3.78693439e-05, -1.25691658e-05,
          -1.22642698e-04, 2.95709731e-04, 1.60913260e-06,
          4.45946294e-04, -1.46533375e-05, 1.26659346e-04,
          -4.13583293e-05, -1.00547230e-04, -5.38279128e-05,
          -7.68941100e-05, -3.14965990e-04, -4.32767119e-04,
          -8.26351243e-05, -1.92792882e-04, -1.94107139e-04,
          -2.33495535e-04, -2.39041838e-04, -2.26950899e-04,
          -3.01161053e-04, 3.71264359e-05, 2.07306832e-04,
          -1.51984321e-04, 2.17496592e-04, 2.43061459e-05,
          3.63506610e-04, 6.17335672e-06, 1.15894429e-04,
          -2.73839250e-05, -4.72405634e-04, 1.15050374e-04,
          -1.63217686e-04, -4.17674804e-04, 2.78590480e-04,
          -3.45498964e-04, -5.41645044e-04, -2.75695293e-05,
          -9.58576275e-05, -5.24571689e-04, -1.05301166e-04,
          -2.87349598e-04, 6.13731172e-05, -8.97714272e-05,
          -2.04315817e-04, -1.06487150e-05, 3.36944104e-05,
          -1.90452411e-04, 3.45917397e-05, 7.36455092e-07,
          -1.02257516e-04, -1.38339208e-04, -2.11016813e-05,
          4.92233448e-05, -1.08686130e-04, -2.74729653e-04,
          2.17579009e-06, 2.33866260e-04, 3.16413469e-04,
          -1.21335579e-04, 5.47128380e-04, 9.00007071e-05,
          -7.83990326e-05, 2.90839002e-04, 2.78532418e-04,
          3.56808712e-04, 7.76043744e-05, 2.74867460e-04, 2.92168144e-04,
          -3.58954450e-04, -1.44098391e-04, -1.55617963e-05,
          1.46639431e-04, -2.13940744e-04, -1.64373618e-04,
          -3.02573579e-04, -2.91144010e-04, -2.45238596e-04,
          -2.00286580e-04, -4.75929060e-04, 1.01290943e-05,
          -4.02658334e-04, -6.87940628e-05, -9.97449097e-05,
          1.48227118e-04, -1.93807660e-04, -1.50903186e-04,
          8.47788469e-05, 4.95866152e-05, 1.92076695e-04,
          -5.65741539e-05, -9.73724764e-06, -1.42774355e-04,
          -2.20319940e-04, 4.16468916e-04, -7.69825492e-05,
          -3.79795936e-04, -1.12572452e-04, 6.41772713e-05,
          -1.85728699e-04, 1.74965637e-04, -3.93261980e-05,
          -2.04436059e-04, -1.18205448e-04, -1.57085626e-04,
          -1.25375722e-04, -8.89199946e-05, -1.87345449e-05,
          -1.64981189e-04, -5.61607667e-05, -5.26159456e-05,
          -2.34127674e-05, -6.70515365e-05, -1.00564303e-05,
          -9.70585534e-05, 1.77760288e-04, 3.88966873e-04,
          2.89952994e-04, 2.15980763e-05, 9.09039081e-05, 1.04759878e-04,
          1.64959143e-04, 3.25367553e-04, 7.35834401e-05, 8.34570383e-05,
          -2.14110783e-04, 4.11994144e-04, 1.58258365e-04,
          8.26326432e-05, -2.92362711e-05 ]
      - [ -3.10292933e-04, 1.05645777e-04, 1.95472312e-04,
          -6.83262188e-05, 1.53465604e-04, -4.44856523e-05,
          -5.30251345e-05, 7.77245878e-05, 3.15517682e-05,
          -4.52311477e-04, -2.57872365e-04, -5.77289429e-05,
          -4.33890673e-05, -4.48456587e-04, 9.67416490e-05,
          -2.64772854e-04, -4.06992447e-04, -3.72350019e-06,
          1.37692259e-04, -1.18432617e-04, -1.34160378e-04,
          2.99555453e-04, -3.03518638e-04, -4.11268935e-04,
          1.66747384e-04, -1.25410486e-04, -1.04875726e-05,
          4.11058689e-04, 6.40601502e-05, -5.42676367e-04,
          2.04548560e-04, 5.12923634e-06, -2.24821270e-05,
          3.64294392e-04, 3.59338184e-04, 4.00047393e-05,
          -4.52507986e-04, -3.68664158e-04, 1.33118505e-04,
          -2.03228541e-04, -1.13454253e-05, 1.01909063e-04,
          -9.65628205e-05, -1.12768437e-04, -7.13266127e-05,
          2.49073346e-04, -6.27756381e-05, -3.77491262e-04,
          -2.39980654e-04, 1.52738110e-04, 4.98407535e-05,
          -2.02868512e-04, 1.98618771e-04, -2.99417763e-04,
          1.22684098e-04, -1.02066748e-04, -7.73971624e-05,
          -1.13812297e-04, -2.64036862e-05, 6.71540620e-05,
          -5.13839070e-04, -2.13205843e-04, 2.65406619e-04,
          5.83509718e-05, 1.34585323e-04, 1.66353357e-06, 4.07110754e-04,
          7.92040828e-06, 2.66129908e-04, 1.15537077e-04, 3.20449617e-04,
          7.84870790e-05, 4.69216793e-05, 1.20462602e-04, 7.26252474e-05,
          -6.36261175e-05, -2.82644643e-04, -2.42102833e-04,
          -1.17639174e-04, 4.34848698e-05, 7.12240362e-05,
          1.99585833e-04, -1.23021193e-04, -3.54817108e-04,
          -2.16714456e-04, -5.34272476e-05, -1.99011323e-04,
          -1.39417403e-04, -7.71976556e-05, -2.23546027e-04,
          -3.91821013e-05, -1.04432766e-05, -3.38057813e-04,
          5.07782737e-04, -2.12228406e-04, 1.37495344e-05,
          4.83897311e-05, -8.43363596e-05, 1.13792858e-05,
          6.69261208e-05, -3.08463932e-04, 1.78023736e-04,
          -6.84049373e-05, -8.63071837e-05, -1.68182756e-04,
          -1.21610494e-04, -2.04613098e-04, 4.09899840e-05,
          -4.26754632e-05, 5.71365199e-05, -1.49988628e-04,
          -2.03391392e-04, -1.13614769e-04, -1.23934748e-04,
          -2.68525400e-05, -1.42863486e-04, -3.63608342e-05,
          -1.59043866e-05, -2.66991439e-04, -2.04881973e-04,
          -1.59083313e-04, -9.88114334e-05, 9.11180268e-06,
          7.45651632e-05, -1.45099420e-05, 1.27206440e-04,
          -1.57690549e-04, -3.83034494e-05, 9.11424650e-05,
          2.21840921e-04, 2.74495716e-04, 3.32756696e-04,
          -2.43009563e-04, 5.12871993e-05, 3.76721982e-05,
          -4.46472995e-06, 2.06830427e-05, -2.04414740e-04,
          -2.11410166e-04, -1.75520094e-04, -6.15050551e-04,
          -3.48689704e-04, -6.26393958e-05, -5.16633852e-04,
          -2.80104839e-04, -4.51579399e-04, -6.28974347e-04,
          -7.49142433e-04, -7.22189900e-04, -4.67438455e-04,
          -7.55806686e-04, -6.76100957e-04, -4.80081129e-04,
          -5.03665127e-04, -1.81226977e-04, -5.75440121e-04,
          -1.53673565e-04, -2.03582968e-04, -1.50107380e-05,
          -3.83521750e-04, 1.64811267e-04, 9.94317161e-05,
          -1.96094799e-04, -2.00351322e-04, 2.00110189e-05,
          1.33169320e-04, 2.12764178e-04, 2.06896249e-04, 3.28704802e-04,
          1.06991683e-04, -6.57576747e-05, 9.15359415e-05,
          2.45185423e-04, -3.07556242e-04, -4.71341882e-05,
          -4.18656819e-05, -6.52209346e-05, 3.90301109e-04,
          3.46510264e-04, 5.27789462e-06, 1.62937940e-04, 6.75556366e-05,
          2.96933285e-04, 4.43763391e-04, 5.83381159e-04, 4.63766686e-04,
          6.29059563e-04, 7.60690455e-05, 4.59023140e-05, 8.13538009e-06,
          8.68693023e-05, 1.17127987e-04, 9.26347566e-05, 1.81778698e-04,
          8.67065100e-05, 1.88375398e-05, 6.27049012e-04,
          -2.71001918e-04, 1.53950197e-04, 1.76217465e-04,
          -3.07162118e-05, 5.43495466e-04, 2.86827737e-04,
          -7.91930943e-05, 3.61490493e-05, 3.44900822e-04,
          3.13085475e-04, -3.09298339e-05, 4.14046750e-04,
          -2.10688580e-04, -1.39108297e-05, 2.86047492e-04,
          2.29334255e-04, -1.80089541e-04, 2.69820797e-04,
          3.49775655e-04, -2.80309469e-04, -5.23711024e-05,
          -1.05432555e-04, -2.21677808e-04, -1.92182211e-04,
          -2.51184247e-05, -3.70901835e-05, -1.51005561e-05,
          1.46343164e-05, 7.32150729e-05, 9.29939415e-05,
          -2.43583680e-04, 1.80208925e-04, 2.04614098e-05,
          1.49149666e-04, 8.55387680e-06, 8.94192126e-05,
          -6.63962783e-05, 1.92599720e-04, 3.67381523e-04,
          -2.02066913e-05, 9.89590899e-06, 6.13692973e-05,
          3.31330375e-04, 4.23813071e-06, -1.07154417e-04,
          1.16195122e-04, -1.92327570e-05, 2.27636425e-04,
          -5.02704861e-05, 2.45960109e-04, 1.25643797e-04,
          1.64828554e-04, -1.68436658e-04, 5.35873231e-04,
          1.97321235e-04, 2.91398959e-04, 1.11416019e-04,
          -1.77559341e-04, 7.12066467e-05, -1.67302176e-04,
          -7.64292508e-06, -2.19658818e-04, 3.30279181e-05,
          1.06973013e-04, -2.90036860e-05, 5.82614084e-05,
          -1.88828999e-04, 1.13596245e-04, -1.06369327e-04,
          3.85778752e-04, 4.23366619e-05, -1.18323318e-04,
          2.76518520e-04, -2.18117293e-05, 3.79790799e-05,
          2.14812288e-04, -2.13241758e-04, -1.69452862e-04,
          1.16809179e-05, -3.82374928e-05, 1.25576073e-04,
          -3.78524361e-04, 1.58534793e-04, -6.53588722e-05,
          -1.62255397e-04, 1.40085715e-04, -9.22316467e-05,
          -9.78161988e-05, 1.89056853e-04, -6.34636526e-05,
          -6.90427551e-05, 1.06544694e-05, -2.89388932e-04,
          1.14012422e-04, -3.57477169e-04, 1.02351427e-04,
          -1.71340274e-04, 1.35446549e-04, -2.55617895e-04,
          8.12743310e-05, -6.25129251e-05, -1.48066480e-04,
          -2.45800882e-04, 1.00096091e-04, -4.32424749e-05,
          -2.57499109e-04, -2.27033044e-04, -1.66707036e-06,
          1.70666157e-04, -1.16353563e-04, 1.48490173e-04,
          -1.58749172e-05, -7.63232456e-05, 9.44006842e-06,
          -8.64133108e-05, 1.22071884e-04, 1.33669178e-04,
          1.13316470e-04, -9.99302138e-05, 6.99241791e-05,
          1.15069583e-04, -9.71891932e-05, -2.62415153e-04,
          -1.98743408e-04, -2.51926831e-04, 2.19859765e-04,
          2.06636512e-04, 2.07097095e-04, 1.37363124e-04,
          -4.58034410e-05, -2.13753723e-04, 2.23437746e-04,
          4.46473787e-05, -1.55120852e-05, 8.84573747e-05,
          4.74402987e-05, 1.50520455e-05, -1.08865148e-04,
          5.87691757e-05, -7.93258441e-05, -4.68664293e-05,
          1.35925176e-04, 2.90630880e-04, -2.55171162e-05,
          -2.42810129e-05, -8.50932265e-05, 1.38035888e-04,
          -6.75643678e-05, 6.30443319e-05, -3.88702611e-05,
          1.63538527e-04, 3.03281617e-04, 2.34898529e-04,
          -1.29144501e-05, 6.71940143e-05, 1.42010531e-05,
          -2.86887243e-05, -1.41366530e-04, -1.48303166e-04,
          -8.82913882e-05, 1.06053783e-04, 3.29851900e-04,
          1.40632173e-05, 7.66644662e-05, 9.48735615e-05, 7.75894296e-05,
          1.99545349e-04, 6.97815194e-05, 9.28670852e-05,
          -3.91266076e-05, -1.15550938e-04, 1.48864769e-04,
          4.61528762e-05, 2.06820841e-05, 1.89892176e-04, 2.13759282e-04,
          1.58529710e-05, -1.45458820e-04, 1.79656607e-04,
          1.10132474e-04, 1.91533312e-04, 6.50911752e-05,
          -9.74714058e-05, -1.71152031e-04, -5.43519054e-05,
          1.85975732e-04, -3.09947762e-04, 8.05869640e-05,
          1.51683862e-05, 1.16363575e-04, -1.22745972e-04,
          1.35023156e-05, 2.62861169e-04, -3.59255413e-04,
          -9.32812036e-05, 1.05696206e-04, -3.04959714e-04,
          -7.96997920e-05, -2.36748136e-04, -3.14583594e-04,
          -2.24255811e-04, -9.39200472e-05, -2.74169957e-04,
          -2.76780367e-04, -1.80180024e-04, -2.79955741e-04,
          5.69109989e-06, 1.24520840e-04, -3.80866841e-04,
          -1.30722925e-04, -1.98190668e-04, 2.68949923e-04,
          -1.23656311e-04, -1.81246229e-04, -1.80273011e-04,
          -2.59045657e-04, -1.75684327e-04, 2.61493318e-04,
          -1.76074274e-04, 5.67081501e-04, 1.16442883e-04,
          -3.28979339e-04, -9.53436102e-05, 2.43698916e-04,
          4.32462184e-05, 3.03230132e-04, -1.33400565e-04,
          -3.79500016e-05, -1.44293561e-04, -1.92873820e-04,
          4.86733961e-06, 1.20750483e-05, -5.34876715e-04,
          -4.71124193e-04, -2.16251981e-04, -6.55969430e-04,
          -5.96221711e-04, -3.13351338e-04, -4.89196740e-04,
          -4.90781735e-04, -5.82599139e-04, -5.55667211e-04,
          -2.52931233e-04, -4.71846579e-05, -7.79399474e-04,
          -1.70948537e-04, -2.46174634e-04, 1.87011086e-04,
          -8.83693283e-05, -6.19431448e-05, -6.61816466e-06,
          3.10923460e-05, -1.11597008e-04, 1.22231053e-04,
          -5.14100839e-06, -3.34145239e-04, -2.50731304e-04,
          6.51601804e-05, 1.32490095e-04, 9.70370020e-05,
          -5.93499048e-04, -1.74071116e-04, -4.62994154e-04,
          -3.66209570e-04, -3.50007293e-04, -1.11162248e-04,
          -3.59365920e-04, -1.01161888e-04, 2.82453657e-05,
          -1.56994152e-04, -1.66497211e-05, -7.46905935e-05,
          1.76417787e-04, 1.19776538e-04, 6.25765475e-04, 3.00945423e-04,
          5.79229636e-05, 1.95896591e-05, 1.72680200e-04, 4.56774083e-04,
          6.91294699e-05, -5.29665340e-05, -6.81489400e-05,
          -5.78973086e-05, 6.28706548e-05, -1.84523393e-04,
          5.89540541e-05, -5.61060093e-04, -1.32871806e-04,
          -3.34251032e-04, -1.66096987e-04, -1.36114031e-04,
          -1.66563288e-04, -3.15806188e-04, -7.70662009e-05,
          -3.98234057e-04, -3.14366371e-05, -1.65325531e-04,
          -2.69497337e-04, -4.88926948e-04, -2.31553568e-05,
          -1.97604997e-04, 5.01048286e-04, -2.23827941e-04,
          -5.14742453e-04, 2.90954515e-04, 2.38829714e-04,
          4.51306696e-05, 1.32953894e-04, 1.15900919e-04, 2.59970315e-04,
          1.92528649e-04, 1.63878976e-05, 2.76968844e-04, 2.50293146e-04 ]
      - [ -1.59318239e-04, 4.46814774e-05, 5.07255172e-05,
          -1.14882663e-04, -7.27110892e-05, -1.38283038e-04,
          -1.19485587e-04, -3.43945139e-05, -2.35313146e-05,
          -4.40311647e-04, -7.64586803e-05, -3.47783680e-05,
          -1.08149565e-04, -1.23290069e-04, 5.95895908e-05,
          -1.54144713e-04, 8.93360047e-05, 1.19613956e-04,
          3.37822654e-04, 2.44716764e-04, 1.50232197e-04, 3.13308439e-04,
          2.04991520e-04, -5.68809774e-05, -1.05743078e-04,
          -5.22187438e-05, 5.90798008e-05, 1.45097118e-04,
          2.35931366e-04, 1.48460225e-04, -2.28966146e-05,
          1.04603962e-04, -1.34054411e-04, -1.05712548e-04,
          8.22391230e-05, -1.96364399e-05, -4.52286185e-04,
          3.87485525e-05, -7.14393318e-05, -2.34113424e-04,
          -2.38402936e-04, -2.06833123e-04, -3.01225500e-05,
          -3.85507941e-04, -4.86445613e-04, -5.90423988e-05,
          -2.31355851e-04, -2.94849480e-04, -2.62836751e-04,
          -4.17177180e-05, -1.65320234e-04, -2.79236137e-05,
          -2.65118113e-04, -9.54515708e-05, -1.14778086e-04,
          -1.35095805e-04, -2.88619369e-04, -1.33128080e-04,
          -2.08631318e-04, -1.80819130e-04, -7.10488821e-05,
          -2.49228440e-04, -1.74438916e-04, -4.71680425e-04,
          -1.88579088e-05, -1.29711523e-04, 2.33291765e-04,
          4.09702297e-05, 1.34638103e-04, 1.00543308e-04, 3.47449852e-04,
          1.77612528e-04, 1.69081308e-04, 1.25882390e-04, 3.00206448e-04,
          1.53415152e-04, 1.12161164e-04, 1.55306887e-04, 1.84388133e-04,
          1.66478403e-05, 2.82283378e-04, -1.49455169e-04,
          -3.19660576e-05, 9.38734156e-05, 1.62044846e-04,
          1.16304713e-04, 1.64458761e-04, 1.39786614e-04, 7.60754847e-05,
          3.45432112e-04, 1.48095525e-04, 2.40176363e-04, 1.05588151e-04,
          5.23592986e-04, -3.53194700e-05, -2.09369726e-04,
          1.71524225e-04, -5.64785068e-06, 8.21970025e-05,
          4.17687261e-05, 9.59269819e-05, 1.89904342e-04, 1.21136023e-09,
          -8.77024722e-05, -1.18457574e-05, -1.42530902e-04,
          -8.78079518e-05, -2.15700993e-06, 3.01685122e-05,
          1.97584930e-04, 7.17990260e-05, 8.01213027e-05,
          -2.51987003e-05, 1.03229861e-04, -5.88853027e-06,
          9.05277921e-05, 9.95668524e-05, 7.03999103e-05, 5.93141049e-05,
          -1.39046115e-05, -1.83289594e-05, 1.04146791e-04,
          -2.27247838e-05, 5.25559954e-05, 1.23719001e-04,
          -1.23561593e-04, 1.25687347e-05, 3.10296564e-05,
          1.26797504e-05, 1.57372080e-04, 1.67810591e-04, 1.58285096e-04,
          -2.68724776e-04, -1.58337298e-05, -3.99717428e-05,
          -4.78144822e-04, -3.29926785e-04, -5.44638489e-04,
          -3.64400184e-04, -2.22976480e-04, -3.21999047e-04,
          -7.08253938e-04, -3.74819007e-04, -3.76765762e-04,
          -2.50913901e-04, -3.03830544e-04, -2.30576974e-04,
          -3.85909603e-04, -2.56048137e-04, -1.57434028e-04,
          -1.24675847e-04, -4.87872785e-05, -1.01096753e-04,
          5.66843883e-05, 3.46509405e-05, -1.53642777e-05,
          -5.21011789e-05, 1.89172119e-04, 1.27666630e-04,
          9.79385077e-05, 2.76101673e-06, 1.70098210e-04, 3.99232558e-05,
          5.49167623e-07, -1.77313104e-05, 8.30038334e-05,
          1.00186175e-04, 2.12149927e-04, -1.58085371e-04,
          1.23857462e-04, -3.48184367e-05, 1.30631262e-04,
          2.54874089e-04, 2.48748747e-05, 1.22907644e-04,
          -3.14802492e-05, -1.53077461e-04, 3.77643504e-04,
          2.68533855e-04, -1.66788977e-05, 4.58529394e-04,
          1.25137274e-04, 1.18224751e-04, 1.31910245e-04,
          -1.03973616e-04, 1.81020427e-04, 3.46966204e-04,
          1.82658274e-04, 2.40241716e-04, -2.69750726e-05,
          1.13695402e-04, 2.24775969e-04, -1.05157378e-04,
          -2.13961961e-04, 1.19727491e-04, -9.83541977e-05,
          2.45776937e-06, 1.34775735e-04, 4.17149276e-05, 3.49120877e-04,
          1.79402021e-04, 2.06379846e-04, -8.10218262e-05,
          -2.63694994e-04, -2.65555456e-04, -2.76397419e-04,
          -4.42299870e-06, -1.53225308e-04, -7.06262290e-05,
          -1.00495447e-04, -2.76733481e-04, -1.58385228e-04,
          -2.98820902e-04, 3.15875295e-05, -1.50338819e-04,
          7.22275872e-05, -2.50617828e-04, -4.79639384e-05,
          -1.59856630e-04, -3.63161409e-04, -5.24046889e-04,
          -4.02853067e-04, -6.14567311e-04, -2.80901557e-04,
          -1.81794239e-04, -7.12608307e-05, 1.43046350e-06,
          5.82654720e-05, -2.77437764e-04, -2.30503618e-04,
          4.35827475e-04, 8.24129020e-05, 1.33882684e-04, 2.46229494e-04,
          -8.68191783e-05, 2.85335671e-04, 3.57916229e-04,
          4.79197712e-04, 2.52344471e-04, 4.59157949e-04, 3.32288939e-04,
          5.95269143e-04, 4.69126506e-04, 2.98432511e-04, 3.10677075e-04,
          2.44981493e-04, 6.03860302e-04, 4.81988594e-04, 2.96764541e-04,
          1.44589358e-04, 2.71845696e-04, 2.49701290e-04, 1.12710033e-04,
          3.30068360e-05, 1.36867500e-04, 3.28603783e-05,
          -4.29556057e-05, 2.26885968e-04, 8.32937076e-05,
          1.60228694e-04, 3.45733679e-05, -3.27499642e-04,
          -6.91020905e-05, -1.01095095e-04, 3.81075756e-06,
          -8.45557879e-05, -9.97901880e-05, -2.05429489e-04,
          -1.44446036e-04, -1.95789922e-04, -2.33153565e-04,
          -1.46550781e-04, 9.26524899e-06, -2.78947758e-04,
          -2.13307503e-04, -1.25236285e-04, -3.19583400e-04,
          -3.61372746e-04, -5.62217319e-04, -4.29902248e-05,
          -3.87252658e-04, -3.70128022e-04, -2.46151525e-04,
          -1.10864639e-04, -7.99942209e-05, -2.25738131e-05,
          -1.45413884e-04, -1.85508266e-04, 8.18555418e-05,
          3.60931765e-04, 7.47062368e-05, 2.67324504e-04, 3.11916403e-04,
          -6.01692336e-05, 2.51400401e-04, 2.21546710e-04,
          5.01621224e-04, 1.50703665e-04, 1.96737121e-04, 4.99952526e-04,
          4.52971261e-04, 4.42365970e-04, 4.79829003e-04, 3.93844210e-04,
          4.19992197e-04, 5.33345737e-04, 2.92624405e-04, 2.01352377e-04,
          4.59319417e-04, -6.71436064e-05, 1.27131381e-04,
          4.28628002e-04, -2.42712595e-05, 1.86305551e-05,
          -6.07834008e-05, -6.39546633e-05, 7.22398181e-05,
          7.48354214e-05, 1.15814248e-04, 8.02004943e-05,
          -8.24358995e-06, 1.18163452e-05, -1.85540004e-04,
          -9.50002068e-05, 1.56326205e-04, 1.69445761e-04,
          -4.65309276e-05, -1.52366541e-04, -8.07540564e-05,
          -1.91579122e-04, -1.94022345e-04, -7.16206632e-05,
          -5.21944930e-05, -9.78775715e-05, 9.37165823e-05,
          -4.11450565e-05, -6.72433234e-05, -4.90038947e-05,
          9.77499531e-06, 5.96243117e-05, 4.52614004e-05, 1.28462169e-04,
          2.13216717e-05, 1.37434516e-04, 1.08458909e-04, 1.50403881e-04,
          -4.12988375e-05, -1.17386508e-05, 2.27065939e-05,
          1.73767359e-04, -2.10045793e-04, 1.15191062e-04,
          6.89746012e-05, -3.14934478e-05, 1.83633849e-04,
          1.61586489e-04, 1.30289438e-04, 1.47082203e-04, 6.30520808e-05,
          1.66086611e-04, 1.92554930e-04, 3.36145837e-04, 1.91519212e-04,
          2.50640471e-04, 2.53613194e-04, 1.97133733e-04, 1.31489607e-04,
          1.82014002e-04, 1.16107309e-04, 2.94161699e-04, 1.70730797e-04,
          1.86407095e-04, 2.33754472e-04, 8.01407296e-05, 1.25120496e-04,
          2.31625017e-04, 1.40360731e-04, 1.10403060e-04, 2.25128708e-04,
          2.54832965e-04, 2.62876943e-04, 8.32242440e-05, 3.20916472e-04,
          7.64428405e-05, 2.12033498e-04, 2.85182206e-04, 1.07124055e-04,
          6.21462183e-04, 3.47075897e-04, -1.54305191e-04,
          1.44097430e-04, -1.44980149e-04, 8.35018072e-05,
          2.72317848e-04, -2.24882635e-04, 8.16951360e-05,
          2.64198286e-04, 1.64080222e-04, 2.53740029e-04, 2.45452957e-05,
          -3.21836233e-05, -8.45287359e-05, 8.11295831e-05,
          -1.47571729e-04, -3.45596854e-05, -5.87167306e-05,
          3.92143738e-05, -7.59663308e-05, 2.74732476e-04,
          4.15110553e-05, -9.79302858e-05, -1.13763002e-04,
          5.36387915e-06, 6.81764213e-05, -1.32062578e-05,
          -8.79631898e-06, -1.13002770e-05, -4.48123523e-04,
          7.39969037e-05, -3.91239373e-05, -3.47014284e-05,
          -1.50054737e-04, -1.11151603e-04, -1.47701736e-04,
          -2.02409956e-05, -1.21312536e-04, -2.36079621e-04,
          1.63934283e-06, -3.68838460e-04, -1.33818412e-05,
          -2.22509392e-04, -5.50567665e-06, -1.74764587e-04,
          -1.83093711e-04, -2.25015057e-04, -3.18248465e-04,
          -3.02375614e-04, -4.12518042e-04, -4.22524317e-04,
          -3.29042290e-04, 2.86347440e-05, -3.36855068e-04,
          -9.95806768e-05, -3.94119961e-05, -3.54600343e-04,
          -5.72677993e-04, -2.14878281e-04, -3.07330687e-04,
          -1.45965296e-05, -1.47416271e-04, 2.12346349e-05,
          3.76423268e-04, -1.61070711e-04, -2.55270104e-04,
          -1.59652802e-04, -1.48004401e-04, -6.29157585e-05,
          -2.73824291e-04, -3.06033849e-04, 6.65934567e-05,
          2.63415684e-04, 2.09682257e-04, -2.67022115e-05,
          2.09707287e-04, 2.01449133e-04, 1.87161422e-05, 4.47115832e-04,
          1.54716225e-04, 1.04489118e-04, 1.31353838e-04, 4.32187917e-05,
          3.07138136e-04, 1.87956670e-04, 7.58498136e-05, 5.34907595e-05,
          5.99421910e-04, 3.33108124e-04, 1.79497118e-04, 3.69783491e-04,
          4.42385004e-04, 1.96772991e-04, 1.26803177e-04,
          -2.48790070e-06, -3.27035144e-04, -5.73597499e-04,
          -4.19274031e-04, -3.49910639e-04, -3.31583578e-05,
          -3.34159122e-04, -3.37974110e-04, -2.04066411e-04,
          -1.82612624e-04, -4.14253358e-04, -5.52593192e-05,
          -1.09159053e-04, -7.30545362e-05, -3.17770144e-04,
          -1.07013911e-04, 5.69200984e-06, -8.01535061e-05,
          -2.59866938e-04, -2.08904850e-04, -8.65462207e-05,
          -2.61359906e-04, -1.38241565e-04, -1.19726210e-04,
          -3.49253642e-05, -5.49329379e-05, 1.10709007e-04,
          -6.00046769e-05, -9.43681734e-05, 3.99074779e-05 ]
      - [ -2.70348741e-04, 3.94372182e-05, -3.78924742e-04,
          -8.98955041e-05, -2.22858391e-04, -9.51789771e-05,
          -2.38631023e-04, -1.95704313e-04, -7.34152272e-05,
          -6.78440265e-05, -3.18001490e-04, 4.04471793e-05,
          8.72509700e-05, -2.18501991e-05, 1.52225999e-04,
          9.07664798e-05, 2.41204369e-04, 3.28134774e-04, 2.58618616e-04,
          2.51397927e-04, 7.98611072e-05, 1.54873152e-04, 3.16760881e-04,
          -4.10832909e-05, -9.74667782e-05, -8.89121729e-05,
          2.19529175e-04, 3.79322766e-04, 1.41066819e-04,
          -2.40522582e-04, -1.84045042e-04, -6.62353850e-05,
          -2.43812567e-04, -1.37723007e-04, 1.08883200e-04,
          -6.68779321e-05, -3.83260885e-05, -1.90728926e-04,
          -1.05857152e-05, -2.32506674e-04, 1.36714207e-05,
          -2.30383084e-04, -2.65582581e-04, -6.91248497e-05,
          -1.60090603e-05, 1.71423671e-04, 1.71468724e-04,
          -8.66318733e-05, 6.22094194e-06, -7.95442393e-05,
          9.41312683e-05, -1.10529596e-04, 1.14595219e-04,
          -2.41144793e-04, 1.64582292e-04, -5.61027446e-05,
          1.74178367e-05, -1.60176642e-04, 1.02706894e-04,
          -2.13978245e-04, -3.24686611e-04, -1.76379435e-05,
          -1.58094641e-04, -2.86010618e-04, 4.45545493e-06,
          3.60743257e-07, 1.24617465e-04, 1.22013567e-04, 2.12511717e-04,
          2.63868656e-04, 2.19401511e-04, 1.24736296e-04, 2.50943616e-04,
          5.14201674e-05, 2.49560107e-04, 7.59908289e-05, 3.25170186e-05,
          -1.22928886e-05, 9.70513065e-05, 1.32793182e-04,
          1.25934794e-05, 2.03905845e-04, 7.66391167e-06, 5.26780168e-05,
          -6.30086070e-05, 4.13025482e-05, 1.53392772e-04,
          4.01889229e-05, 2.52145022e-04, 3.90694418e-04, 6.70618374e-06,
          2.27720579e-04, 1.18080483e-04, 1.29551467e-04, 1.28910062e-04,
          2.30539561e-04, 4.38417803e-04, 1.81718802e-04, 7.02305842e-05,
          2.77686835e-04, 1.30987799e-04, 2.24093325e-04,
          -1.00021116e-05, -1.31759725e-05, -4.35436668e-05,
          -2.56332060e-05, -8.14173036e-05, 1.05961744e-05,
          9.65178260e-05, 2.10015074e-04, 2.49670207e-04,
          -3.05608410e-05, 5.42416165e-05, -5.84431400e-05,
          -1.67511374e-04, 3.94224262e-05, 7.08591178e-05,
          7.62589480e-05, -5.22124537e-06, 2.15378986e-05,
          2.67234427e-05, 9.80348486e-05, 1.53824381e-04, 7.69000253e-05,
          1.73189728e-05, -3.04347359e-05, 6.07591210e-05,
          -2.85790651e-04, -4.13735324e-05, 2.86654802e-04,
          1.32548848e-05, -1.78620321e-05, 2.23159059e-05,
          -1.22293088e-04, 3.01960070e-04, -3.68018955e-04,
          3.78953773e-05, 2.11905906e-04, 1.16626252e-04,
          -2.89453055e-05, 2.05618962e-05, -1.27140389e-04,
          3.33208882e-04, -2.28176796e-04, -2.05045417e-05,
          -1.43525322e-04, -6.02112232e-05, -2.21699476e-04,
          -2.05870034e-04, -6.49570211e-05, -2.72247940e-04,
          -1.27118445e-04, -1.16349685e-04, -2.84154230e-04,
          -3.19486426e-04, -1.44611928e-04, 1.85101253e-05,
          -1.25987950e-04, 9.31602608e-06, -7.19730378e-05,
          5.72551144e-05, 7.10251552e-05, -3.22748529e-04,
          -2.96000828e-04, -2.19476948e-04, -1.12801128e-04,
          6.21977088e-05, -8.80042207e-05, -6.44890169e-05,
          -2.12200204e-04, 1.51332773e-04, -1.52113891e-04,
          -1.43328172e-04, -1.18158088e-04, -1.28707354e-04,
          -1.74029323e-04, -2.16489701e-04, 1.40149117e-04,
          -4.25048020e-05, -4.45451115e-05, -6.54526084e-05,
          -4.87314810e-06, -3.18119237e-05, 8.34208622e-05,
          1.14288610e-04, 1.43300407e-04, -7.82887673e-06,
          -1.03881626e-04, 7.42277334e-05, 1.29809132e-06,
          2.60663743e-04, 1.10863082e-04, 1.70905696e-04,
          -1.94437423e-04, -2.19935609e-04, 1.55356771e-04,
          1.88806560e-04, 7.68782138e-06, 1.58307157e-04, 4.74186323e-04,
          1.32455403e-04, 4.43157362e-04, 6.70396767e-05, 4.80848284e-05,
          -1.49740561e-04, -1.03884646e-04, -1.05605650e-04,
          7.03347323e-05, 1.47951549e-04, -2.30123929e-04,
          -1.12091067e-04, -5.29605895e-05, -1.72946107e-04,
          -5.82913126e-05, -3.39571343e-05, 1.30505970e-04,
          -1.81239215e-04, -1.84322795e-04, -2.50555779e-04,
          -2.75233091e-04, -2.62033398e-04, -2.62032350e-04,
          -4.26807965e-04, -1.21673431e-04, 5.92513934e-05,
          -2.31121972e-04, 8.30377685e-05, -2.92309589e-04,
          -3.61997867e-04, -1.25325983e-04, 1.30382046e-04,
          -1.96340028e-04, -1.05465471e-04, -1.10829584e-04,
          -7.03078549e-05, -1.64974506e-06, 3.50037008e-05,
          4.19918870e-05, -1.40061660e-04, -1.05735009e-04,
          -4.33519948e-04, -1.10186214e-04, -4.32754867e-04,
          -6.76575364e-05, -1.92480020e-05, -2.85321934e-04,
          1.02271006e-04, 6.17673140e-05, 4.39014038e-05,
          -9.18524820e-05, 1.42573641e-04, 9.37235527e-05,
          -5.56115556e-05, 9.73927890e-05, -3.92994370e-05,
          -1.23703750e-04, 1.45401835e-04, 1.04126440e-04,
          1.16443385e-04, 9.52306291e-05, -2.48519082e-05,
          -4.58724426e-05, -5.53240789e-05, 2.10876333e-05,
          2.55343242e-04, 7.29117601e-05, 1.61701581e-04, 1.67909311e-04,
          9.62256672e-05, 4.79944938e-05, -8.57630293e-05,
          1.41943718e-04, 1.74024681e-04, -1.27553067e-04,
          9.45058582e-06, -7.81935378e-05, -6.12191070e-05,
          2.79504002e-05, -8.56907864e-05, 5.02012044e-05,
          -3.18206643e-04, -2.32746112e-04, 3.44071217e-04,
          -1.66006575e-05, 1.14357928e-04, 7.65472359e-05,
          1.32807481e-05, 1.53831177e-04, 2.21198978e-04,
          -2.35099462e-04, 3.99478304e-04, -1.19469718e-04,
          1.38875490e-04, 3.81719692e-05, -6.64605323e-05,
          -5.81157838e-05, 3.85517924e-04, 2.65667593e-04,
          2.67081865e-04, 4.39053896e-04, 4.20493889e-04, 3.60845879e-04,
          2.34040999e-04, 2.59520340e-04, 7.71074556e-05, 1.56553273e-04,
          2.37542801e-04, 4.89618746e-04, 3.92882182e-04, 1.61464617e-04,
          5.91935095e-05, 1.28820582e-04, 2.73733574e-04, 3.38208338e-04,
          3.33092437e-04, 8.19784036e-05, 2.87653646e-04, 2.40348221e-04,
          3.52951902e-04, 3.26384295e-04, 1.69396066e-04, 4.79708215e-05,
          5.63067297e-05, 1.65933161e-04, 1.49432075e-04,
          -4.06192376e-05, -8.54344398e-05, -2.41991060e-04,
          -2.03803902e-05, -2.62636866e-04, -1.37115407e-04,
          -4.48478386e-05, -2.49237728e-05, -1.39814496e-04,
          -1.01213693e-04, -2.02432813e-04, -3.84484847e-05,
          -1.64786354e-04, 3.49490729e-05, 1.26297336e-05,
          -1.55573885e-04, -9.35443095e-05, -1.59605625e-04,
          8.31258585e-05, -3.19080893e-04, -2.90894619e-04,
          -1.25702078e-04, -3.48756701e-04, -1.78933158e-04,
          -3.03142097e-05, -2.29935700e-04, -2.18485628e-04,
          -4.92164108e-04, -3.10245145e-04, -5.26564763e-05,
          1.95893372e-05, -1.04132967e-04, 2.34543433e-04,
          6.16742764e-05, -6.33759046e-05, -3.52733878e-05,
          4.31397639e-05, -1.03492785e-04, -4.51802625e-05,
          2.62572401e-04, 6.55477343e-05, 1.53719215e-04, 1.16535215e-04,
          1.85981145e-04, 1.75907742e-04, 1.54935828e-04, 2.83730711e-04,
          1.67191523e-04, 1.00358797e-04, 1.84783901e-04, 2.20383503e-04,
          1.83735232e-04, 1.72180269e-04, 1.76538451e-04, 3.14759731e-04,
          1.46408536e-04, 1.76573842e-04, 2.58425833e-04, 6.24019449e-05,
          7.50934269e-05, 3.91599278e-05, -2.66876141e-05,
          8.55341132e-05, 2.23993309e-04, 1.85748853e-04,
          -1.82600983e-04, 1.43768484e-04, -3.19160972e-05,
          -1.15412338e-04, -1.94229913e-04, 3.28319438e-04,
          2.87598486e-05, -6.17570186e-05, 7.13797344e-05,
          2.09535447e-05, -1.97546062e-04, 4.74742665e-05,
          1.00906036e-04, 1.78797840e-04, 3.71058326e-04,
          -5.74822952e-05, 8.35280807e-05, 9.81029007e-05,
          3.90777539e-04, 1.37937401e-04, 2.87061150e-04, 5.90309101e-05,
          -5.32684426e-05, 6.94166738e-05, -8.48181153e-05,
          -6.63066312e-05, 1.23967518e-04, -4.12867201e-04,
          -2.49999983e-04, -3.48062138e-04, -3.32664786e-04,
          -2.94373312e-04, -1.20328317e-04, -4.02468868e-04,
          -1.73776745e-04, -3.73837218e-04, -6.43942738e-04,
          -3.74789757e-04, -5.76480466e-04, -6.74398558e-04,
          -5.89903793e-04, -4.97656001e-04, -7.82787451e-04,
          -6.73911185e-04, -6.31332397e-04, -4.23219491e-04,
          -3.26701585e-04, -2.34358857e-04, -2.54476967e-04,
          -5.24189207e-04, -4.28497297e-05, -3.03638604e-04,
          -8.88615032e-05, -7.06660576e-05, -1.69965700e-04,
          -3.36521567e-04, -1.37873983e-04, 8.27577824e-05,
          -3.53704381e-05, -6.32405645e-05, 2.10938684e-04,
          1.07840518e-04, 8.97547507e-05, 2.64263363e-04, 2.81081127e-04,
          3.00162734e-04, 9.92045534e-05, 2.98213155e-04,
          -7.02442776e-05, 1.50551758e-04, 1.36001792e-04,
          -1.66893486e-04, -2.35791711e-04, -4.45980986e-05,
          1.34315458e-04, 4.79918272e-05, 2.88933894e-04, 3.24753753e-04,
          1.39815660e-04, 4.37424824e-05, 2.82261080e-05, 8.71685261e-05,
          1.46003891e-04, 2.03311953e-04, 3.59025842e-04, 2.19690934e-04,
          1.71563268e-04, 1.66549289e-05, 1.12862384e-04,
          -1.13810878e-04, 1.91003623e-04, -7.22249824e-05,
          1.81684387e-04, -1.36313713e-04, -1.41754485e-04,
          2.13871172e-04, 1.57122777e-04, -1.66555365e-05,
          -1.99967719e-04, -1.42309218e-04, -7.35497597e-05,
          3.30165531e-05, -1.83536340e-05, 2.61552595e-05,
          1.04505161e-04, 6.92685862e-05, -1.63753677e-04,
          -8.38056076e-05, 1.18060270e-04, 1.81870055e-04,
          -1.91996922e-04, -2.53283826e-04, 1.36753471e-04,
          9.49303649e-05, 1.14518960e-04, -2.20856346e-05,
          1.41472905e-04, -7.35367794e-05, 6.86824133e-05,
          -1.93644693e-04, 1.10652982e-04, 6.95744438e-06 ]
      - [ -1.48491366e-04, 8.97709397e-05, 1.55151967e-04,
          -6.28469706e-06, -7.54114153e-05, 9.55589712e-05,
          -1.56753813e-04, 5.27175289e-05, -2.07148012e-04,
          -1.95676999e-04, 4.39767755e-05, 1.16412382e-04,
          1.14252798e-04, -7.06198043e-05, 1.10882771e-04,
          -1.14082082e-04, 1.26732615e-04, -2.22624876e-05,
          -2.02262686e-06, -7.45327925e-05, 1.77337315e-05,
          9.51426482e-05, 1.04115810e-04, 7.71136765e-05, 1.43346202e-04,
          -1.70776286e-04, -2.63645925e-05, 4.16362192e-04,
          2.77217623e-04, -3.02651402e-04, -5.92644847e-06,
          -1.34917995e-04, -1.46413062e-04, 8.81171582e-05,
          4.23209203e-05, 5.84487934e-05, -1.16713403e-04,
          -4.96338820e-04, -1.96675261e-04, -1.98674999e-04,
          -1.27084611e-04, 8.85960253e-05, 1.04690043e-04,
          -8.28611810e-05, 2.54743481e-05, -9.06848582e-05,
          -9.91508568e-05, 1.77450085e-04, -1.04835322e-04,
          1.85161625e-04, 9.53507770e-05, -5.39347748e-05,
          1.04452352e-04, 7.31980545e-05, -7.88691032e-05,
          9.35857679e-05, -1.40325312e-04, 1.98591033e-06,
          1.54631329e-04, 2.11131613e-04, 4.75617708e-05,
          -3.13400669e-04, -6.76004784e-05, -9.43119376e-05,
          -2.71927303e-04, -1.67249207e-04, -9.54639108e-05,
          -2.36782842e-04, 6.17188853e-05, -1.79004346e-04,
          1.73443404e-04, 1.14997849e-04, 1.09727429e-04,
          -1.32236426e-04, 6.61581071e-05, 1.23992286e-04,
          -8.82144814e-05, -9.80511468e-05, 2.64137125e-05,
          5.11373082e-06, 7.67622114e-05, 1.58652110e-05,
          -1.20028875e-04, -1.40546123e-04, 1.24897255e-04,
          5.93789227e-05, 1.31299494e-05, -5.81611785e-05,
          -1.04099243e-04, 2.72739300e-04, 1.60085285e-04,
          1.92169915e-04, 3.07669725e-05, -7.86857709e-05,
          -1.19842683e-04, -1.31866080e-04, 2.08856029e-04,
          8.24343224e-05, 6.83229664e-05, 2.21167371e-04,
          -3.11397234e-05, 2.10608196e-04, 1.19626056e-04,
          -2.90284352e-05, 3.30794464e-05, -1.72852981e-06,
          1.24781291e-04, -3.42058847e-05, 1.19880251e-05,
          1.60608324e-04, -4.99795133e-05, -1.36178332e-05,
          -1.60721815e-04, -3.17926861e-05, 1.78761329e-05,
          -1.13202477e-04, -4.75937813e-05, -5.32479753e-05,
          1.40322882e-04, -2.88812553e-05, 1.27518899e-04,
          2.69398734e-04, 2.21137030e-04, 2.28331861e-04, 7.35149806e-05,
          1.92900741e-04, 2.13647545e-05, -5.80778833e-05,
          -1.78752205e-04, -9.14156044e-05, -1.09595931e-04,
          -2.27345983e-04, -3.30271636e-04, -7.34992209e-05,
          7.27260194e-05, -1.83326149e-04, 1.18267737e-04,
          1.80432544e-05, -1.65282938e-04, 2.74928258e-04,
          1.07657739e-04, -1.17790958e-04, 1.29295717e-04,
          -2.36747277e-04, -5.00177593e-05, -1.18296499e-04,
          3.98285374e-05, -2.07029170e-05, -4.01477191e-05,
          -6.35324468e-05, 4.67326463e-05, -3.30609328e-05,
          -3.55239717e-05, -6.88558939e-05, -1.08676475e-04,
          2.23684416e-04, 8.19108172e-05, -6.77480057e-05,
          9.62728591e-05, -9.07779904e-05, 2.61360081e-04,
          3.46279761e-04, -5.56447558e-05, -1.92405147e-04,
          -1.33626063e-05, 1.38399075e-04, 1.30964690e-04,
          -2.60285233e-05, 4.70629529e-05, -1.07366730e-04,
          9.07796421e-05, -4.57514907e-05, -3.02241911e-04,
          -1.37952651e-04, 1.28394051e-04, -9.87113744e-05,
          -2.98732601e-04, 2.14434956e-04, -1.08560635e-04,
          -2.37668810e-05, -1.28206157e-04, -1.47011247e-04,
          1.98111768e-04, 1.06770756e-04, -2.95304153e-06,
          4.05984494e-04, -1.33531903e-05, -1.26574581e-04,
          1.08524437e-04, 1.28468673e-04, 1.13626971e-04,
          -3.75816307e-05, -6.04488414e-05, -1.20219862e-04,
          -1.12076035e-04, -1.25443330e-04, 2.07039393e-05,
          -7.13117988e-05, -1.08683789e-05, 2.71642493e-04,
          2.26524033e-04, -3.27637390e-05, -9.96364979e-05,
          -7.24354468e-05, -3.19951971e-04, -2.44772236e-04,
          -3.85326333e-04, -4.36177244e-04, 6.11650830e-05,
          -3.14843346e-04, -2.44741706e-04, -3.31969117e-04,
          -2.55967781e-04, -2.31998842e-04, -3.99229437e-04,
          -5.50543264e-05, 1.72832079e-04, -3.21951840e-04,
          -3.60272592e-04, -2.36360560e-04, -4.43602854e-04,
          5.18577690e-05, -1.09107241e-04, -6.73511840e-06,
          3.54476615e-05, 3.98860393e-05, 9.00529994e-05, 1.26179089e-04,
          3.58795842e-05, 1.01137766e-06, 2.70069315e-04,
          -1.79616574e-04, 5.12603910e-05, -8.02661671e-05,
          -1.81037874e-04, -6.64281761e-05, -5.09604761e-05,
          3.45567212e-04, 2.40167661e-04, 1.61341348e-04,
          -2.62083282e-04, 2.68485346e-05, -3.43313186e-05,
          -1.93598404e-04, -1.78608214e-04, -4.04594130e-06,
          1.68584433e-04, 8.38891938e-05, -3.39874066e-04,
          -7.94748048e-05, 3.30717623e-04, -2.75525076e-06,
          1.51459768e-04, -2.16363158e-04, -2.07961813e-04,
          -1.36827570e-04, 3.28126916e-04, 2.86639581e-04,
          2.10799510e-04, 7.47627055e-05, 1.46739781e-04,
          -2.16619919e-05, 6.82826430e-05, 1.10132451e-05,
          2.05901117e-04, 5.72109020e-05, 3.81717429e-04, 1.13773298e-04,
          1.98040143e-04, 2.45450556e-05, -1.28312866e-04,
          2.83167086e-04, 2.94368627e-04, -2.74754002e-05,
          5.25085306e-06, -1.88248101e-04, 3.57349054e-05,
          1.78992501e-04, -1.02218313e-04, 5.32467384e-05,
          4.32711167e-05, 1.18118194e-04, 1.53849178e-05, 2.10005037e-05,
          2.59526802e-04, 1.72724351e-04, 2.58619781e-04,
          -1.03980819e-04, 2.15937325e-04, -2.68905442e-05,
          8.04579104e-05, 6.15227618e-05, 5.91807329e-05, 1.65150443e-04,
          1.36164483e-04, 4.09484492e-05, 8.51714940e-05, 8.43032685e-05,
          -1.64669909e-04, -1.89360391e-04, 2.11188715e-04,
          -7.99464760e-05, 1.69160805e-04, 1.37057923e-05,
          -9.87774110e-05, 2.81498156e-04, 4.05876417e-05,
          3.34368611e-04, 2.95856473e-04, -1.95391636e-04,
          1.47707309e-04, 3.43228196e-04, 6.45519613e-05, 2.34780135e-04,
          2.21038397e-04, 8.07395918e-05, 3.49708425e-04, 1.96591849e-04,
          1.17107993e-04, 2.70663499e-04, 2.71581666e-04, 4.52140142e-04,
          1.64894256e-04, 2.84536418e-05, -3.61944913e-05,
          1.22559446e-04, -1.77186579e-04, 8.99990664e-06,
          2.56228464e-04, -1.00557074e-04, -2.68195636e-05,
          -1.28535219e-04, -7.81825947e-05, -1.15159077e-04,
          4.15222385e-05, -2.01412331e-04, -3.96882606e-05,
          -1.96701105e-04, 1.15870476e-04, 3.75859308e-05,
          -2.27657030e-04, 9.92307614e-05, -1.51413944e-04,
          1.50234511e-04, 1.09107423e-05, -2.10145765e-04,
          -1.35875685e-04, -1.87725673e-04, -8.34141247e-05,
          -4.96487810e-05, -2.10526094e-04, 4.57780079e-05,
          -1.11997491e-04, -2.14818676e-04, -1.71317020e-04,
          -1.76961024e-04, -1.96210269e-04, -3.70940805e-04,
          -1.30667628e-04, -2.36720472e-04, -1.19655306e-04,
          3.43178035e-05, -2.49270990e-04, -9.84719190e-06,
          -1.37899697e-04, -2.10038357e-04, -1.37022478e-04,
          -3.62552935e-04, -1.65448309e-05, 2.87883759e-05,
          -9.16309582e-05, 1.35630180e-04, 6.04841880e-05,
          -2.40862555e-05, 2.22735078e-04, 1.40117569e-04,
          7.56864611e-05, 2.88843934e-04, 1.76789763e-04, 1.59817180e-04,
          2.58864893e-04, 1.05103391e-04, 2.97477236e-04, 3.15792160e-04,
          9.06602509e-05, 1.84827091e-04, 3.33596894e-04, 2.75826547e-04,
          2.68487231e-04, 3.56898759e-04, 2.51960708e-04, 1.67044200e-04,
          3.87934233e-05, 3.47299574e-05, 1.32913556e-04, 2.77082756e-04,
          4.60047217e-04, 1.81451760e-04, 8.45982722e-05, 2.00353679e-04,
          9.93337235e-05, 2.04047930e-04, 1.56984563e-04, 1.33968497e-05,
          1.45064638e-04, -3.23967979e-04, 1.60744996e-04,
          1.36172748e-04, 3.55201424e-04, 4.70974919e-05, 2.50684679e-04,
          1.75320565e-05, -8.19982015e-05, 8.41435540e-05,
          -6.44065512e-05, -1.34993403e-04, -5.28565288e-05,
          -4.82233008e-04, -4.35455091e-04, -3.08042276e-04,
          -4.29137202e-04, -5.21799375e-04, -1.40626595e-04,
          -6.53771684e-04, -1.92127263e-04, -5.61383727e-04,
          -5.34569903e-04, -5.07604389e-04, -6.31596253e-04,
          -4.64118493e-04, -6.03096909e-04, -8.25020776e-04,
          -8.48351978e-04, -7.78775429e-04, -6.33492542e-04,
          -3.67663044e-04, -6.05610432e-04, -2.60029861e-04,
          -2.56012980e-04, -1.41855780e-04, -9.56581353e-05,
          -4.38852643e-04, 1.21498058e-04, 5.83894471e-05,
          1.85325523e-04, -1.82989272e-04, 5.97608014e-05,
          2.12177969e-04, -7.49805452e-07, 3.89280554e-04,
          3.41816922e-04, 3.12481832e-04, -2.63101047e-05,
          2.79171858e-04, 1.28018713e-04, 1.77814029e-04, 3.27442511e-04,
          2.41795005e-05, 2.94084835e-04, -8.69708456e-05,
          4.12207475e-04, -5.32692102e-05, 5.66663861e-04,
          -1.53783240e-05, -4.47800812e-06, 4.88535443e-05,
          2.59923807e-04, 2.29054058e-04, -5.85761882e-05,
          1.89711223e-04, 1.03885133e-04, 2.03606774e-04,
          -7.93899526e-05, -9.43595442e-05, -8.67037161e-05,
          1.25586943e-04, 2.90994794e-04, -2.59095650e-05,
          1.73866847e-05, -1.72112865e-04, 8.76231934e-05,
          3.24860623e-04, 3.79890524e-04, -3.71526112e-04,
          -3.53124575e-04, -1.07225123e-05, -4.15703362e-05,
          1.47188897e-04, -4.76854824e-04, 5.33442799e-05,
          -2.37155007e-04, -1.53364541e-04, -1.40317716e-04,
          -2.60466593e-04, -4.96395631e-04, -9.41204707e-05,
          -4.73629276e-04, -9.28074805e-05, -1.31192268e-04,
          2.72552948e-04, -3.35564546e-04, -3.26054898e-04,
          1.93865868e-04, 1.62446049e-05, 1.13551141e-04, 1.26762243e-04,
          1.24341983e-04, -3.52479656e-05, 2.41249087e-04,
          -1.06976964e-04, 3.60526633e-06, 1.50441134e-04 ]
      - [ -5.30936704e-05, 1.38128366e-04, 2.46366799e-05,
          2.51500023e-04, -4.41993179e-05, 9.46231085e-05,
          1.17536496e-04, -4.53204666e-05, 8.24735689e-05,
          -5.19002751e-05, -8.62738671e-05, 1.64341720e-04,
          -3.99074452e-05, 2.25459240e-04, 1.36285365e-04,
          1.40264907e-04, 1.70061408e-04, 1.70603191e-04, 4.69617284e-04,
          8.81680899e-05, 4.36269002e-05, 3.83529521e-04, 2.20679256e-04,
          -1.08739703e-04, -3.24268876e-05, -7.64758661e-05,
          -1.44878330e-04, 2.29010504e-04, -2.16402579e-04,
          -1.87086596e-04, 1.45247599e-04, 3.43307111e-05,
          -1.85287092e-04, 1.07541986e-04, 4.11115412e-04,
          -4.48592664e-06, -1.45316226e-04, -4.83080876e-05,
          -2.49583594e-04, -1.67892576e-04, 2.72674642e-05,
          1.81726442e-04, -6.26009714e-05, 1.45676504e-05,
          1.27021474e-06, -8.42672853e-06, 3.92559377e-06,
          -6.77319549e-05, -3.11695385e-06, -5.03741740e-06,
          1.15992596e-04, -3.02747907e-08, 2.59078424e-05,
          -5.96669997e-05, 5.23533745e-05, 9.21406536e-05,
          -3.83864099e-05, -2.42506412e-05, 1.15167699e-04,
          1.07702508e-04, 1.18850883e-04, -1.00501406e-04,
          2.54326209e-04, -1.41921788e-04, 1.83569384e-04,
          9.10194794e-05, 2.14134881e-04, 1.18210854e-04,
          -2.63266429e-06, 3.84143423e-05, 8.09886988e-05,
          1.41013676e-04, 5.33984166e-05, 3.60609920e-05, 1.83540033e-05,
          -1.11803020e-04, -8.36034087e-05, -8.95791236e-05,
          1.63413875e-04, 7.42520569e-05, 4.76971290e-05, 3.99766304e-06,
          -8.27565236e-05, -7.57883026e-05, -6.87105130e-05,
          1.80281477e-05, -1.21867321e-04, -3.96421819e-05,
          2.25694894e-05, -4.94439009e-05, -5.85567104e-05,
          1.92590942e-05, -2.78125488e-04, -9.37956211e-05,
          -2.37480563e-05, -4.95820086e-06, 3.34521719e-05,
          -1.37522613e-04, -2.59237218e-04, -1.94606400e-04,
          -8.26955074e-05, -1.23751408e-04, -1.89995277e-04,
          -7.91091516e-05, -1.32559770e-04, -5.68108990e-05,
          -7.70873885e-05, 3.59968362e-05, -9.15138389e-06,
          3.99690362e-05, -9.56397271e-05, -1.02545455e-04,
          -1.71856285e-04, -1.11125482e-04, -7.61058691e-05,
          -2.03181698e-05, -2.28467965e-04, -4.12649715e-05,
          -9.63335042e-05, -1.89102007e-04, -2.83933932e-05,
          -6.83584440e-05, -1.11162168e-04, -5.57571693e-05,
          -2.18691945e-04, -5.00312381e-05, -1.15018047e-04,
          -5.94812591e-05, -2.53898121e-04, 3.43178021e-04,
          -1.11856178e-04, -3.49143927e-04, -5.68584714e-04,
          -3.71564674e-04, -4.26675106e-05, -5.29562123e-04,
          -5.19168680e-04, -6.17917394e-04, -4.43191821e-04,
          -6.52671559e-04, -3.25296482e-04, -3.74621421e-04,
          -3.76668206e-04, -4.68813640e-04, 3.64633197e-05,
          -2.35130297e-04, -4.61688142e-05, -1.66384561e-04,
          -1.15921845e-04, -7.50454501e-06, -7.62401169e-06,
          -3.90605492e-05, 2.99769781e-05, 8.44112728e-05,
          -1.25164179e-05, -2.03167256e-05, 6.48819478e-05,
          4.53867651e-05, -4.48203282e-05, -3.97052754e-05,
          -1.05127350e-04, 1.58820651e-04, 6.08545197e-05,
          -2.89540390e-06, 2.50239973e-04, 5.03673291e-05,
          1.04815161e-04, 2.41345726e-04, 1.43876023e-04, 2.05982637e-04,
          1.90396939e-04, 6.61743470e-05, 2.86128663e-04, 1.90472900e-04,
          2.28001300e-04, 9.91169873e-05, 1.45967817e-04, 3.64038424e-04,
          2.91023403e-04, 1.64574041e-04, 3.73368617e-04, 5.90211639e-05,
          2.54570448e-04, 2.21271010e-04, 2.88339274e-04, 1.53043249e-04,
          5.18095563e-04, 2.48681336e-05, 1.68145358e-04,
          -4.44279285e-05, 2.51405203e-04, 1.88205435e-04,
          -9.82283818e-05, 2.21253154e-04, 3.48142989e-04,
          -2.32969996e-05, 1.55802845e-04, 2.59465596e-05,
          1.04046732e-04, 9.33849878e-05, 6.20190694e-05, 1.37796844e-04,
          8.70954027e-05, -3.52015457e-04, 3.45957887e-05,
          6.02895852e-05, 9.52373302e-05, -1.95307322e-04,
          -6.86671847e-05, -1.17682292e-04, 6.74162438e-05,
          -1.30529967e-04, -2.21315404e-05, -6.27367917e-05,
          7.01846438e-05, -5.26990834e-06, 1.41006632e-04,
          -1.55182686e-04, 7.51859188e-05, 3.28965543e-05,
          -1.49727872e-04, 2.84337701e-04, -1.03750979e-04,
          -1.69906431e-04, 5.47461932e-05, 4.86516539e-04,
          5.65009483e-04, 1.75868452e-04, -6.52843009e-05,
          2.13917694e-04, 3.81597238e-05, -1.97835820e-04,
          1.86135338e-04, 5.02227476e-06, -4.96544781e-05,
          4.67678416e-04, 1.76708534e-04, 1.88337333e-04, 2.82565801e-04,
          5.59875843e-06, 1.21064048e-04, 3.72651120e-04, 2.65059352e-04,
          1.96599300e-04, 1.86352656e-04, 7.11706743e-05, 2.57531065e-04,
          -1.86735833e-05, -1.87661557e-04, 3.34536540e-04,
          6.94085320e-05, 3.45394394e-04, -1.13665837e-05,
          -8.34529637e-05, -3.38794125e-05, -1.37712748e-04,
          -8.72123783e-05, -3.08771414e-04, -1.03529026e-04,
          6.51218725e-05, -7.90271588e-05, -1.82808290e-04,
          -1.21380581e-04, -1.07383152e-04, 4.67019818e-05,
          -1.35893089e-04, 5.52922284e-05, -6.31101357e-05,
          -6.85711784e-05, 2.32331367e-05, 5.61267780e-06,
          -8.25061361e-05, -4.33526729e-05, 2.26535394e-05,
          1.19014312e-05, 8.84137335e-05, -1.04593142e-04,
          -5.40311557e-05, 7.10327440e-05, 9.64193168e-06,
          9.01806925e-05, -5.45751282e-05, 6.48625719e-05,
          -7.03019123e-06, -1.59672258e-04, -1.66529266e-04,
          -1.40468634e-04, -7.21655815e-05, 1.08679351e-05,
          2.53598373e-05, -1.75545229e-05, 1.41148385e-05,
          6.13459997e-05, -8.33193335e-05, -1.44565332e-04,
          -5.02445728e-05, 1.44006612e-04, 4.76195673e-05,
          2.43911825e-04, 2.25451397e-04, 1.86698308e-04, 3.14353267e-04,
          1.93592874e-04, 9.36460710e-05, 1.02814345e-04, 2.41131915e-04,
          -1.67856015e-05, 1.75732261e-04, 1.21004836e-04,
          -5.10181999e-05, -1.97061509e-05, 7.09022879e-06,
          5.94464473e-05, -4.75956949e-05, -1.67628983e-04,
          -9.51838010e-05, -2.75191676e-04, -2.16663495e-04,
          -5.04450698e-04, -3.56819452e-04, -1.40634904e-04,
          -3.10080533e-04, -2.22061091e-04, -1.70859785e-04,
          4.03998529e-05, -5.85230518e-05, -6.45156251e-05,
          -6.01394058e-05, 1.45476151e-04, -5.59378641e-05,
          -6.02663495e-05, -6.05322493e-05, -1.03232298e-04,
          -6.37344056e-05, -8.01624265e-06, -9.26104913e-05,
          -1.49589132e-05, 2.24124724e-05, 4.07396510e-05,
          1.30334156e-04, 5.11728649e-06, -1.01762680e-06,
          -4.73573273e-05, 7.00927121e-05, -1.89268521e-05,
          1.32706400e-05, -6.39485152e-05, -7.96180830e-05,
          3.60768790e-05, 1.02165519e-04, 5.24772477e-05, 1.03292907e-04,
          2.21674563e-04, 8.03008006e-05, 1.52822686e-04, 6.45389446e-05,
          1.80733288e-04, 1.00417878e-04, -1.97309710e-05,
          6.12804288e-05, 3.69479058e-05, 1.53631390e-05, 4.03313170e-05,
          1.93044412e-04, 7.58641327e-05, 4.33305140e-05, 3.05238864e-05,
          6.08076625e-05, 5.03777264e-05, -3.60439044e-05,
          2.31340073e-05, 5.98647566e-05, 1.18150398e-04,
          -1.79989147e-05, -1.01799078e-05, 2.71720874e-05,
          -1.79994167e-05, 1.04462546e-04, 1.36531398e-05,
          1.50467422e-05, -8.41511574e-05, -9.67514134e-05,
          -1.38233499e-05, -1.39448282e-04, -3.53955802e-05,
          2.13326115e-04, 5.01545655e-05, 8.02025534e-05, 1.02922582e-04,
          -1.50861870e-05, 5.81190761e-05, -1.01867612e-04,
          -9.82601196e-05, 1.75535170e-04, -9.25785935e-05,
          -4.16841176e-05, 5.16772780e-05, 3.15093748e-05,
          7.49873798e-05, 8.71803859e-05, -7.07100335e-05,
          1.49298314e-04, -1.43908010e-05, 4.41477205e-05,
          1.84839024e-04, 3.21818770e-05, 2.15106513e-04,
          -5.10074324e-06, 4.46491729e-04, 1.40104403e-05,
          4.00166427e-05, 1.36408053e-04, 6.49255016e-05, 8.62656234e-05,
          -5.72366298e-06, -6.48367059e-05, -4.28455241e-05,
          1.65044810e-04, -4.87174366e-05, 6.86174026e-05,
          -1.17968821e-05, 5.92938413e-05, 6.72920651e-05,
          3.63842155e-05, -5.16344080e-05, 9.07179347e-05,
          -2.83331046e-05, 1.24804137e-04, 6.65344123e-05,
          1.96078254e-04, 7.13519548e-05, 1.37157413e-05,
          -1.51567710e-05, 3.33017415e-05, 6.77254211e-05,
          1.70395157e-04, 1.32139292e-04, -6.88430464e-06,
          1.31316338e-04, 2.85158312e-04, 2.54127925e-04,
          -1.50371852e-05, 3.50045884e-04, 1.01650512e-04,
          -2.09099395e-04, -4.45570404e-05, 2.32687438e-04,
          2.99963431e-04, 1.13833506e-04, 9.91309789e-05, 1.43710917e-04,
          -4.60098177e-04, -3.66069813e-04, -4.81907162e-04,
          -2.90551234e-05, -4.70526313e-04, -1.68781888e-04,
          -1.57900024e-04, -3.90497909e-04, 7.80875780e-05,
          -2.04736672e-04, -5.66016788e-05, -1.66147831e-04,
          1.14335009e-04, 1.57253744e-04, -1.88815684e-04,
          1.99527494e-04, 1.95618341e-04, -1.56832029e-04,
          1.98920519e-04, -5.24753705e-05, 1.71358930e-04,
          1.48601990e-04, 1.16569019e-04, 1.89299681e-04, 6.88864966e-05,
          3.93543713e-04, 1.59064599e-04, -3.58269172e-05,
          2.83931702e-04, 1.30688219e-04, -1.78601069e-04,
          7.76215602e-05, -7.29386520e-05, 3.49791553e-05,
          -8.15357052e-05, -2.39808014e-05, -2.76146427e-04,
          -1.04913583e-04, -1.10914434e-05, -1.56835798e-04,
          4.66601959e-05, 9.07351787e-05, 2.48365868e-05,
          -7.00358869e-05, -2.71666795e-05, 9.30509996e-05,
          6.60022415e-05, 2.86341558e-04, 1.88317994e-04,
          -2.29503967e-05, 2.02107622e-04, 1.37252762e-04,
          1.58676936e-04, 3.44980159e-04, 9.63048733e-05, 2.59320368e-04,
          4.08446504e-05, 2.87079194e-04, 1.74573186e-04, 1.77246417e-04,
          1.88828068e-04 ]
      - [ -1.89882776e-04, -6.23078304e-05, -1.64301455e-04,
          2.50984041e-04, -5.75366248e-05, 2.49144105e-05,
          -4.15003888e-05, 2.14729342e-04, -9.96916933e-05,
          -2.27288474e-04, -2.81051791e-04, 2.36254375e-04,
          -2.99100444e-04, 3.02316366e-05, -5.97612552e-06,
          -1.78032424e-04, -5.02262374e-05, 4.81740608e-05,
          3.04408575e-04, 4.74110275e-05, -1.63679215e-04,
          1.91483690e-04, 5.51557350e-05, 1.65337187e-04,
          -1.09210305e-04, -1.63232980e-04, 1.20796052e-04,
          1.07135984e-05, -3.73821640e-05, -4.42623976e-04,
          2.26532484e-05, 7.66268276e-05, 6.84626648e-05, 2.48869444e-04,
          2.46673066e-04, 2.89754680e-04, -3.29470262e-04,
          -2.43901028e-04, 4.71144631e-06, -3.81638296e-04,
          1.90637482e-04, 5.80689739e-05, -1.86595367e-04,
          2.42136139e-05, -2.31574726e-04, -2.29593250e-04,
          1.49689295e-05, -4.99891576e-05, -1.41978220e-04,
          2.07450721e-04, -9.83861828e-05, -9.03460023e-06,
          1.27044899e-04, -1.47105684e-05, 1.59925457e-05,
          -7.78677495e-05, -1.98677037e-04, -1.83748343e-05,
          -3.79056110e-05, -3.44054453e-04, -1.79340641e-04,
          -1.67961960e-04, -1.47794126e-04, -9.03660621e-05,
          -2.11230421e-04, -1.57177565e-04, 8.75081387e-05,
          -1.62082011e-04, 6.66821961e-06, 1.54390233e-04,
          -7.34242276e-05, 1.56080296e-05, -1.09204948e-05,
          5.38304339e-05, 1.99813367e-04, -4.78816110e-05,
          -2.44037976e-04, 2.25317315e-04, 1.44537174e-04,
          2.95577745e-04, 3.50938899e-05, 3.83430706e-05, 5.73739781e-05,
          -3.15119651e-05, -1.74002744e-05, 1.80292209e-05,
          2.51276706e-05, 4.11185611e-05, 3.40030412e-04, 8.11582431e-05,
          1.85890778e-04, 1.12359718e-04, 2.91048200e-04,
          -3.17431732e-05, -1.29006890e-04, 2.55910796e-04,
          -1.57168091e-04, -1.92513435e-05, 1.52806097e-04,
          4.17073490e-04, 3.10777323e-05, 1.43447905e-04, 5.55636470e-05,
          -2.47936878e-05, 1.18804404e-04, 2.29522862e-04,
          1.12637244e-04, -1.54401700e-04, 3.92548071e-04,
          1.75930167e-04, 1.33657988e-04, 1.84236866e-04,
          -2.44906842e-05, 1.78971517e-04, 5.00277092e-05,
          1.43947895e-04, 1.21499666e-04, 8.22837173e-05, 1.76246947e-04,
          7.66440353e-05, 4.35140362e-04, 3.92719885e-05, 1.59211428e-04,
          -2.04304033e-05, 3.36371362e-04, 7.83760261e-05,
          -1.58159877e-04, 6.43692256e-05, -9.57220163e-06,
          -1.65172867e-06, -3.01460714e-05, 7.57948656e-05,
          -5.04829048e-04, -3.02537432e-04, 3.57452664e-04,
          -2.11907100e-04, -1.05720443e-04, -2.71972327e-04,
          -5.78712556e-04, -3.73290648e-04, -1.34702786e-04,
          -7.67907826e-04, -4.16256691e-04, -5.21606125e-04,
          -3.04649700e-04, -2.75800703e-04, -4.20009863e-04,
          -1.81274183e-04, -1.49823871e-04, 8.18267363e-05,
          1.06936357e-04, -5.78609834e-05, 1.07093074e-04,
          1.57668110e-05, -4.94734122e-05, 5.70389166e-05,
          9.55445721e-05, 1.59283896e-04, -1.38785554e-05,
          -5.52186830e-05, 3.13541881e-04, -3.56741039e-05,
          7.91885686e-05, 6.85755595e-06, 1.84633784e-04,
          -1.26331170e-05, 2.05183664e-04, -4.55628469e-04,
          1.32416579e-04, 9.47375229e-05, 2.57651845e-04,
          -1.02410697e-04, 2.97207618e-04, -1.02620397e-04,
          -2.70131888e-04, -1.49369313e-04, -1.89286875e-04,
          7.13369664e-05, 1.06451116e-04, 5.13763916e-05, 7.31536711e-05,
          -1.87456844e-05, 1.24774248e-04, 3.15208075e-04,
          2.69378448e-04, 2.71616154e-04, 2.23185925e-04,
          -1.74837605e-05, 2.40184119e-04, -5.47467744e-06,
          1.70267696e-04, -1.70928906e-05, 1.22024278e-04,
          -6.13869197e-05, 2.56749801e-04, -3.84341285e-04,
          1.94757071e-04, 2.57882457e-05, 3.00818519e-05, 1.72502681e-04,
          1.75554509e-04, 2.38865992e-04, 5.40563524e-05,
          -3.11445678e-04, 7.43425771e-05, -2.73016602e-04,
          -2.46046518e-04, -1.41322933e-04, 1.06194057e-06,
          -1.50603591e-04, -3.81127757e-04, -1.03332175e-04,
          -8.52239464e-05, -3.35996119e-05, -1.44607562e-04,
          1.74815475e-04, -3.10058938e-04, -3.78251803e-04,
          3.96461728e-05, -1.30170811e-04, -1.44272781e-04,
          3.11296928e-04, 7.06830451e-06, 1.39690586e-04, 1.14824332e-04,
          1.60118707e-05, 8.59509382e-05, 3.51200229e-04,
          -1.84018554e-05, -1.24676633e-04, 3.49534443e-04,
          1.21727979e-04, 1.02172737e-04, 1.37347262e-04,
          -1.02841732e-04, -1.24328464e-04, 4.21381847e-05,
          1.60645010e-04, -2.08770856e-04, -1.26033119e-04,
          3.26239278e-05, -2.45112431e-04, -5.40181063e-05,
          8.11704231e-05, -2.04699259e-04, -9.29368471e-05,
          3.60010134e-04, 2.17513079e-05, -3.90977104e-04,
          -1.59837131e-04, 2.80275155e-04, 2.07660021e-04,
          -5.10362588e-06, 5.74426031e-06, -1.90623497e-04,
          6.25361790e-05, 5.52235397e-05, 1.14653107e-04,
          -2.45883362e-04, 4.67757927e-05, 1.57872360e-04,
          -1.61423028e-04, -1.25749270e-04, 5.64701113e-05,
          -1.50363821e-05, 1.74853594e-05, 3.23505607e-04,
          1.88625912e-04, 2.81777844e-04, -2.39398178e-05,
          -8.14544328e-05, -4.31713343e-05, 1.84445045e-04,
          1.23577003e-04, -1.28091604e-04, -8.54054306e-05,
          -2.64987233e-04, -7.69912276e-06, 7.48381208e-05,
          -5.47325799e-05, -1.87191072e-05, -9.52919800e-05,
          2.46833923e-04, 1.42135192e-04, -3.35450895e-04,
          2.37667977e-04, 7.32817571e-05, -1.51954973e-05,
          -1.49709986e-05, -2.20372691e-04, -3.59825935e-05,
          9.82513957e-05, -7.79075344e-05, 1.16053103e-04,
          -2.14520711e-04, -3.38088103e-05, -1.06751606e-04,
          -1.33114125e-04, 1.46816368e-04, -2.78522610e-04,
          1.39939671e-04, 1.68306869e-04, -2.94730213e-04,
          -2.15107313e-04, 9.49449823e-05, 8.55524559e-05,
          -1.79641749e-04, 4.22562589e-05, 1.08464657e-04,
          6.15319514e-05, -1.49534491e-04, 2.49787176e-04,
          9.36767246e-05, -4.31396666e-06, -3.19894789e-05,
          2.86706072e-05, 8.31611615e-05, 3.74058327e-05,
          -1.23521648e-04, 1.63159115e-04, -3.92621791e-04,
          -1.51152344e-04, -5.98008228e-05, 3.26850102e-04,
          2.95047183e-04, -6.22338557e-05, 3.91628091e-05,
          -7.67054735e-05, -3.41181913e-05, -1.01773847e-04,
          -3.16378209e-05, 2.03180287e-04, 1.14521288e-04,
          7.19543168e-05, 7.41503391e-05, -5.74594305e-05,
          -3.99525670e-05, -2.30550449e-05, 1.07267588e-05,
          2.54793471e-04, -6.17836531e-06, 1.68028724e-04,
          1.22332742e-04, 2.29301208e-04, 3.68660840e-05, 1.41293538e-04,
          1.71318767e-04, -7.54464636e-05, -5.69640270e-06,
          1.79164577e-04, -9.18894293e-05, -4.15447212e-05,
          1.96114474e-04, -2.93723715e-04, 5.77986284e-05,
          -6.23519736e-05, 8.31582074e-05, 1.77016351e-04,
          -6.96277421e-05, -9.68352615e-05, 1.74851521e-04,
          6.40989238e-05, -9.47558583e-05, 1.20066659e-04,
          2.82456109e-04, 1.60744836e-04, 9.88412139e-05,
          -8.77387502e-05, -3.24625071e-05, -2.74409358e-05,
          -5.89498231e-05, 3.66583234e-04, 2.89349497e-04,
          9.57714001e-05, -2.89198088e-05, 1.22789512e-04,
          -1.20982280e-04, -2.22032017e-04, -1.24314596e-04,
          -2.97895633e-04, -3.41877203e-05, -4.94282169e-04,
          8.69819924e-05, -5.04366108e-06, 6.53836250e-05,
          3.19868181e-04, 9.32900293e-05, 6.21024883e-05,
          -1.05861771e-04, 6.34514290e-05, 3.34221731e-05,
          5.67938005e-05, 2.52114609e-04, -2.33354440e-04,
          4.77034155e-06, -3.35967314e-04, -4.35469410e-05,
          -7.84113727e-05, -2.96343293e-04, -2.60113273e-04,
          -3.40067520e-04, -1.44488760e-04, 1.40654549e-04,
          6.58824647e-05, -4.44367033e-05, -3.97716300e-04,
          -3.07067152e-04, -1.98754205e-04, 1.90487393e-04,
          9.74236827e-05, -1.18582211e-04, -6.78266748e-04,
          -4.06439765e-04, -5.25578798e-05, -1.43866724e-04,
          -1.21610879e-04, 3.91191803e-04, 7.05959974e-05,
          -2.43406263e-04, 1.80198505e-04, -8.59130305e-05,
          -2.26812088e-04, -1.77025344e-04, -1.89417193e-08,
          -1.42941608e-05, -4.04409329e-05, -3.84778075e-04,
          -4.74174682e-04, 6.06764443e-05, 3.11724580e-05,
          -2.37361673e-04, -3.43864813e-04, -5.10443235e-04,
          -6.11670606e-04, -5.50094992e-04, -3.06648784e-04,
          -7.37963361e-04, -5.70301258e-04, -5.16979373e-04,
          -2.93694495e-04, 7.57268281e-05, -7.10111111e-04,
          2.43968352e-05, -2.97539926e-04, 3.13816883e-04,
          -1.23277714e-04, 4.69224287e-05, 2.78358621e-05,
          1.43185040e-04, 8.20170608e-05, 5.62917739e-05,
          -1.63379882e-04, -1.20173412e-04, 2.12645769e-04,
          -1.15281582e-04, 5.64265356e-05, 1.87891579e-04,
          -1.08684711e-04, -3.54432064e-04, 1.94496788e-05,
          -3.62050690e-04, -5.16325526e-04, -4.42307573e-05,
          -2.13554624e-04, -2.01830495e-04, 4.35721231e-05,
          1.91392668e-04, -2.34211533e-04, 1.25545179e-04,
          -1.63038363e-04, -1.88881168e-04, -2.50628684e-04,
          6.77334174e-05, -1.72053056e-04, -4.04267230e-05,
          7.53902714e-05, 2.15130625e-04, 2.50185985e-04,
          -9.99735785e-05, -1.02994032e-04, 2.13386797e-04,
          -2.11782055e-04, 3.25206376e-04, 2.60746747e-04,
          -2.24577045e-04, 4.63813369e-04, -1.87048208e-04,
          -1.86069155e-04, -5.99231935e-05, -2.90102849e-04,
          -1.02537429e-04, -4.03428239e-05, -2.58423854e-04,
          2.56817366e-05, -3.86258180e-04, 1.20293689e-05,
          -3.24059190e-04, 1.16085306e-04, -1.82262564e-04,
          4.32452332e-04, 1.13213675e-04, 1.70747953e-04, 3.93262744e-04,
          6.97529322e-05, 3.61168000e-04, 1.48996216e-04, 4.81159805e-05,
          3.75656877e-04, -7.41115673e-06, -1.06703919e-04,
          2.48453463e-04, 3.51102790e-05 ]
      - [ 5.99737614e-05, 2.16798231e-04, 2.60623987e-04, 3.04972637e-04,
          1.42051853e-04, 2.90004478e-04, 1.44377191e-04,
          -1.36618793e-04, -1.69878243e-04, -2.11526480e-04,
          -1.66993064e-04, -3.15035344e-04, -4.75452718e-04,
          -5.83620822e-05, 9.29665930e-06, -5.55679726e-05,
          -2.29226585e-04, 1.01106794e-04, 5.85073685e-05,
          7.10247914e-05, -7.81931449e-05, 2.02064155e-04,
          -9.75233343e-05, 5.14312414e-05, -2.04675380e-04,
          -1.57558112e-04, -2.16084271e-04, 7.19263480e-05,
          -7.92899227e-05, -2.47021992e-04, -6.09783201e-05,
          8.11192658e-05, -2.60183821e-04, -1.13210437e-04,
          -1.00714096e-04, 2.61828856e-04, -5.42976893e-04,
          -2.33981802e-04, -2.05518387e-04, 8.51770092e-05,
          -2.86706461e-04, -3.66958702e-04, -1.86709905e-04,
          1.40092779e-05, -1.06790620e-04, -1.40018325e-04,
          -3.78030789e-04, -2.61686888e-04, -2.49615026e-04,
          -2.02751195e-04, 1.50586391e-04, 2.57157051e-04,
          3.79372141e-05, 1.78553255e-05, -1.58951007e-04,
          7.22204568e-05, -4.05412749e-04, -2.09682345e-04,
          1.96788329e-04, -2.35882559e-04, -2.32565944e-04,
          1.44708747e-05, -3.18599748e-04, -1.69355830e-04,
          -9.70296023e-05, -4.63680888e-04, -6.66975902e-05,
          -1.81759664e-04, 4.25197468e-05, 9.38719386e-05,
          -1.01902020e-04, 2.53970473e-04, 1.26052459e-04,
          5.88965449e-05, 2.27944576e-04, -6.76815944e-06,
          -7.77056703e-05, 1.19521705e-04, 3.24018416e-04,
          3.04335583e-04, 1.39157361e-04, 3.69971676e-04, 1.20832854e-04,
          3.28775437e-04, 1.40298129e-04, 1.19990436e-04, 8.64490648e-05,
          2.90776894e-04, 3.66663677e-04, 7.96957102e-05, 2.58026412e-04,
          2.38982044e-04, 3.36824858e-04, 1.03148457e-04,
          -3.99720011e-05, -2.21731985e-04, -7.44048812e-05,
          2.00267445e-04, 2.90906115e-04, 7.85673255e-05,
          -2.06724744e-05, 7.83356227e-05, 5.26939875e-05,
          1.21262870e-04, -1.72473461e-04, -1.22223428e-04,
          4.32102352e-05, -2.46479030e-04, -9.28313821e-05,
          1.40543576e-04, 1.31699044e-05, -9.52104820e-05,
          -4.20599863e-05, -2.54502520e-04, -4.12601148e-05,
          4.34063259e-05, 1.23834354e-04, 1.68392857e-04, 1.39740223e-04,
          2.47794320e-04, 7.08671942e-05, 2.03037489e-04, 1.16003830e-04,
          -1.35314651e-04, 5.04766103e-06, 3.13527387e-04,
          2.16493310e-04, -1.00509438e-04, 5.84182671e-05,
          2.54528597e-04, -1.62480894e-04, -1.50658656e-04,
          6.49727735e-05, 4.97809697e-06, -2.16282395e-04,
          -1.38212359e-04, 1.70634030e-05, -2.82596186e-04,
          6.14638921e-05, -1.19652999e-04, -1.74121058e-04,
          -3.34265555e-04, 1.72066619e-04, -7.99618065e-05,
          1.75415553e-04, -1.50986001e-04, -1.86044854e-04,
          -2.03289848e-04, -8.17585678e-05, -1.38552336e-04,
          -1.58249182e-04, -4.85693890e-04, -3.35716002e-04,
          -1.59268006e-04, -2.79785047e-04, -1.93012092e-04,
          1.04760926e-04, 1.75963687e-05, 3.11936456e-05,
          -3.29891220e-04, 1.11337380e-04, 1.72507294e-04,
          -2.72365287e-04, -9.31547256e-05, 7.86062737e-05,
          6.44661923e-05, -1.73000750e-04, -5.18919005e-05,
          -2.03591146e-04, -2.73487763e-04, -3.99261131e-04,
          -6.01339096e-04, -1.52333130e-04, -5.00117836e-04,
          -6.28992973e-04, -1.98408045e-04, -5.37612592e-04,
          -3.04045912e-04, -1.14917450e-04, -3.08482180e-04,
          -3.00212647e-04, -1.70882093e-04, -5.00885762e-05,
          1.64263383e-06, 3.58851947e-04, 1.24973885e-04, 9.17826474e-05,
          1.64344005e-04, 6.55215335e-05, -9.30800616e-06,
          7.28108498e-05, 6.87742649e-05, 8.16556931e-05, 2.81071061e-05,
          8.13420556e-05, -3.05006513e-04, 4.24427562e-04,
          2.30613499e-04, 2.00037568e-04, 4.30409535e-04, 4.63647448e-04,
          8.81709639e-05, -4.62863100e-05, -2.76746505e-05,
          -1.70957603e-04, -3.76067474e-05, 3.74537703e-05,
          -1.21533667e-04, 7.49961036e-05, 1.54210738e-05,
          -1.05447500e-04, 2.24885182e-04, -4.02126840e-04,
          -1.01328420e-04, -1.27826876e-04, 2.38142136e-04,
          -2.94365833e-04, -2.97895720e-04, 9.99055992e-05,
          2.12287385e-04, -9.50774775e-05, 5.48619937e-05,
          -4.53937566e-04, 3.48385765e-05, 4.05633065e-04,
          -3.29336835e-05, 1.64305267e-04, -2.32643928e-04,
          1.82003510e-04, -4.32359993e-05, -1.16127967e-05,
          -3.06925736e-04, -1.34910981e-04, 3.61450293e-05,
          -2.64810893e-04, -5.97615377e-04, -5.39412897e-04,
          -5.16473548e-04, -3.72091628e-04, -4.29031788e-04,
          -5.17980603e-04, -5.87185787e-04, -4.45956073e-04,
          -1.87221362e-04, -3.80098209e-04, -3.53052834e-04,
          -2.11406295e-04, -2.25026553e-04, 1.42915058e-04,
          1.10659203e-04, 1.47987070e-04, 1.58091698e-05, 2.59706198e-04,
          -3.49802758e-05, -1.00245663e-04, 1.21463614e-04,
          -3.28145281e-04, 1.11012312e-04, -9.69324974e-05,
          -1.06166182e-04, 8.05306336e-05, -3.67365254e-04,
          -2.06924262e-04, -1.15603296e-04, -8.39788936e-06,
          2.00533977e-04, 2.08766942e-04, 2.87104020e-04, 1.28213578e-04,
          6.16011239e-05, -6.59618217e-06, 1.84072196e-04,
          1.97874586e-04, -1.52323104e-04, -4.09990071e-06,
          -7.75778972e-05, -2.44489609e-04, -7.25099162e-05,
          -6.77795033e-05, -1.68621104e-04, 1.87251317e-05,
          -1.89710350e-04, 2.20880465e-04, -5.52556157e-05,
          3.27719317e-05, 1.49408937e-04, 7.13943664e-05, 7.16068971e-05,
          1.74713467e-04, 1.77980095e-04, 2.86297989e-04, 2.52769125e-04,
          -1.25473034e-05, 2.74723716e-04, 4.33989480e-04,
          1.16731717e-04, 1.13697461e-04, -5.73364960e-05,
          -8.80714360e-05, -1.09029883e-04, 1.05872357e-04,
          1.42531702e-04, -1.29745778e-04, -1.52508423e-04,
          -3.27824528e-05, 4.33855108e-04, 1.42497476e-04,
          -7.87249301e-05, 4.07842308e-04, -2.11800507e-04,
          2.33075596e-04, -1.20370838e-04, 1.03932740e-04,
          2.96143291e-04, 1.17853182e-04, -7.22255718e-05,
          1.52163761e-04, 1.21161574e-04, 1.98823938e-04, 3.30178853e-04,
          4.29626642e-04, 1.33608832e-04, 5.86764581e-05, 1.81247247e-04,
          2.88698473e-04, 5.81697968e-05, 1.64435973e-04,
          -5.15501852e-05, 1.98261230e-04, 3.05535059e-06,
          2.68072417e-05, 2.17437264e-04, 9.50463145e-05,
          -4.75303295e-06, 1.86032958e-05, -9.76027991e-07,
          2.19513604e-05, -5.67225616e-05, -6.24055656e-06,
          4.61749878e-05, 6.70019290e-05, 7.78163230e-05, 1.20610252e-06,
          6.67898275e-05, -9.92140340e-05, 7.23536796e-05,
          1.74904650e-04, 9.40386144e-06, 1.48994019e-04, 1.88078280e-04,
          -1.22032325e-05, 1.10561356e-04, 3.68715439e-04,
          -5.68541036e-05, -1.45170023e-04, 2.56494153e-04,
          -6.67443646e-06, 2.06324097e-04, 1.48599938e-04,
          -2.51616089e-04, 1.55389556e-04, 3.97995791e-05,
          9.87927197e-05, 3.99687357e-04, 2.36117354e-04, 2.95482547e-04,
          1.78660674e-04, -4.35007641e-05, 6.07726470e-05,
          -4.25772741e-05, 1.42027973e-04, 2.02200521e-04,
          7.38356248e-05, -1.64142431e-04, 1.31813227e-04,
          -4.02770638e-05, -8.19068300e-05, -1.25882521e-04,
          2.69223005e-04, 1.94626016e-04, 5.41408372e-05, 1.04485182e-04,
          -2.45487608e-04, -3.62327875e-04, 4.56125563e-04,
          3.94601084e-04, -6.29949791e-05, 1.07077110e-04,
          9.07397698e-05, 1.13039656e-04, -8.57400228e-05,
          7.20495300e-05, -2.12949351e-04, -4.73066975e-05,
          -1.63301083e-04, -1.11672205e-04, -2.42657305e-04,
          -5.06253098e-04, 9.24004562e-05, -2.56300729e-04,
          -1.27551422e-04, 3.90344831e-05, 2.89408126e-05,
          5.95442143e-05, -6.38021265e-06, -1.99847927e-04,
          4.81658099e-05, -3.03804030e-04, 2.68687116e-04,
          2.60107026e-06, 8.88764407e-05, -3.08135961e-04,
          -2.78578635e-04, -6.61960212e-06, 4.07310145e-05,
          1.33827591e-04, 3.36504017e-04, -2.59077264e-04,
          3.05099020e-05, 1.57357164e-04, -3.39889404e-04,
          1.58267740e-05, -1.29187203e-04, -3.50193499e-04,
          -2.27190088e-04, 3.30673975e-05, -1.57159564e-04,
          9.54424686e-05, -7.51126527e-06, -5.85269881e-05,
          -1.51874803e-04, -1.27902502e-04, -1.20795034e-04,
          -8.42337104e-05, 2.50702375e-04, 1.35300943e-04,
          -1.12459551e-04, 4.06834442e-04, 6.45326072e-05,
          8.28308694e-05, 3.07949522e-04, -2.89452637e-05,
          -2.86850322e-04, 1.60682812e-05, -5.81949171e-05,
          -1.60621130e-04, -2.77829618e-04, -2.47929886e-04,
          -1.37785086e-04, -1.03676670e-04, 7.78461690e-05,
          -2.76990031e-04, 4.19921998e-05, -4.52275162e-05,
          -2.64586473e-04, 3.36772064e-04, 4.89120779e-04,
          3.37343808e-04, 1.16642928e-04, 3.54104879e-04, 1.61328950e-04,
          -2.37899018e-04, 4.56892391e-04, 1.97149406e-04,
          3.41981038e-04, 2.16913410e-04, 2.88229989e-04, 9.96721501e-05,
          1.69831270e-04, 3.04410874e-04, 4.02317644e-04, 2.41682661e-04,
          1.53788322e-04, -1.95328015e-04, 1.17886324e-04,
          1.62195036e-04, 1.06570704e-04, 4.31968714e-04,
          -1.93867934e-04, -7.30405955e-05, 2.64462396e-05,
          9.69950561e-05, 3.56683042e-04, -1.28948261e-04,
          -4.38290212e-04, -2.62790505e-04, -1.34548509e-05,
          -1.53366651e-04, -3.21047672e-04, -9.56523872e-05,
          -2.19846232e-04, -1.42167322e-04, -1.65706573e-04,
          9.04340704e-05, -2.07988007e-04, -6.32963347e-05,
          -4.41676268e-04, -5.76324201e-05, 3.77446631e-05,
          2.55094812e-04, -4.24468162e-04, -9.36602737e-05,
          6.38375932e-05, 2.92847457e-04, 8.72520923e-06, 2.05966309e-04,
          -2.91344113e-05, 1.38034142e-04, 2.67145020e-04,
          -8.81537053e-05, 1.66721176e-04, 1.21286321e-04 ]
      - [ 2.92069424e-04, -3.42569052e-04, 1.54764384e-05,
          -5.44224167e-04, 1.66768601e-04, -2.60145869e-04,
          -1.05965897e-04, -1.58306386e-04, -5.10036080e-06,
          -1.59717922e-04, -7.67052188e-05, -5.07554287e-05,
          -1.99294682e-05, 2.94939014e-06, 3.54514283e-04,
          5.84717956e-04, 3.16898309e-04, 1.99034301e-04, 3.14006757e-04,
          -6.00092098e-05, 2.33310057e-04, -3.13465338e-04,
          1.17076424e-05, -9.61803162e-05, -1.35860566e-04,
          -1.98929120e-04, -2.24629213e-04, -6.88798391e-05,
          -3.10657197e-04, -1.67722057e-04, 2.78907901e-05,
          6.15508688e-05, 7.12960391e-05, -1.86259786e-04,
          -7.37990049e-05, 2.03554168e-06, -3.25151341e-05,
          1.17121555e-04, -1.94325723e-04, 7.23622725e-05,
          7.32383123e-05, -7.18310548e-05, 5.17461995e-05,
          -6.61283411e-05, 2.80386594e-04, 7.58562237e-05,
          9.48590532e-05, 6.96585121e-05, -5.10515965e-05,
          6.12223303e-05, -4.07499501e-05, -1.48036424e-05,
          9.14223929e-05, 3.08925955e-05, 2.44508614e-04,
          -2.10831331e-05, 8.69549112e-05, 5.64933944e-05,
          3.29967152e-04, 1.04913786e-04, -1.29687745e-04,
          -4.54056390e-05, -1.25793522e-04, 1.12261885e-04,
          2.44232418e-04, -1.05870597e-04, 1.73038177e-04,
          -7.85108859e-05, 2.01118761e-04, 1.09993598e-04,
          1.13682625e-04, 1.32676621e-04, -9.30850438e-05,
          -1.07763430e-04, 1.16493335e-04, -1.62982178e-04,
          -1.73197506e-04, -3.75896707e-05, 5.46754964e-05,
          1.80210787e-04, 6.69951769e-05, -4.57385468e-05,
          -2.15429740e-04, -6.51603332e-05, -7.22638651e-05,
          2.34278748e-04, -3.10856820e-04, 1.38681353e-04,
          -1.34230111e-04, 2.57949523e-05, -1.60764903e-04,
          3.15875513e-05, -2.55955849e-04, -1.30210246e-04,
          -1.32094283e-04, 1.11187721e-04, 1.22413752e-04,
          -1.77276845e-04, -1.18070493e-04, -1.23355523e-04,
          -9.91766574e-05, 2.03030766e-04, 1.86527206e-04,
          1.42550780e-04, -6.81316815e-05, 1.10982401e-04,
          -3.73943330e-05, -5.39020948e-06, 1.71644613e-04,
          5.72445206e-05, 5.38535169e-05, 3.67050088e-05, 3.59817379e-04,
          -6.10572970e-05, -1.74934379e-04, 9.43968116e-05,
          5.28762939e-05, -6.60286751e-05, 1.39958167e-04,
          1.34431772e-04, -1.37383831e-05, -4.36694063e-05,
          -1.80897841e-04, -3.73243129e-05, -8.21680878e-05,
          1.23522026e-04, 8.24893959e-06, 2.01820312e-05,
          -5.31909573e-05, -2.13808307e-04, 4.17601434e-04,
          1.47481784e-04, -2.19218171e-04, 2.52623868e-04,
          -2.63829250e-04, -2.42217240e-04, -5.85849630e-04,
          -1.68099243e-04, -4.25691745e-04, -5.51211648e-04,
          -3.58546618e-04, -3.99453682e-04, -3.88978166e-04,
          -4.33182286e-05, -8.09859659e-04, -5.78179490e-04,
          -1.30268585e-04, -6.98080927e-04, -2.06374898e-04,
          8.14878149e-05, -5.35068793e-05, 2.24578598e-05,
          2.14782543e-04, 1.44292717e-04, 1.43245779e-04, 2.20387889e-07,
          -9.34902127e-05, -4.70416649e-04, 9.49786991e-05,
          -1.08806351e-04, -5.16472392e-05, -2.33821440e-04,
          -5.29407116e-04, -3.43559776e-04, -8.21025824e-05,
          -4.16521536e-04, -3.55248863e-04, 2.82335041e-05,
          7.43197234e-05, -3.87467917e-05, -5.81917520e-05,
          -1.73130000e-04, 1.20640061e-05, 6.65855478e-05,
          4.43075580e-04, 1.46130755e-04, 4.66344645e-04, 5.95935089e-05,
          8.67704075e-05, 1.79571100e-04, 1.98637630e-04, 7.88684483e-05,
          6.03467488e-05, 1.71425214e-04, 3.70186695e-04, 6.40804938e-05,
          -1.91238680e-04, -2.94301048e-04, 7.42425909e-05,
          -3.56726960e-04, 2.33500308e-04, -8.88299110e-05,
          6.89831868e-05, 2.83799291e-05, -1.64207828e-04,
          1.82042975e-04, 1.34909293e-04, -2.87750911e-04,
          -6.04129600e-05, -2.90099182e-04, -3.26367765e-04,
          -2.30849560e-04, -3.89916648e-04, -1.55357819e-04,
          2.38619177e-04, -5.57741441e-04, -4.41737102e-05,
          3.18381572e-05, -2.06894751e-04, -3.34859069e-04,
          -1.67928840e-04, -1.01116340e-04, -8.07627366e-05,
          -8.49025892e-05, 1.80090478e-06, -1.15884985e-04,
          -4.07892076e-05, 3.41031584e-04, -1.35129289e-04,
          1.77519378e-05, -3.53673240e-05, 3.33567441e-04,
          1.81253534e-04, 1.00347352e-04, 1.54786103e-04,
          -1.16682659e-05, -1.81061841e-04, -2.79641332e-04,
          -3.11539538e-04, -4.20575816e-04, 1.50905826e-05,
          -1.50183405e-04, -9.78140961e-05, 1.22463010e-04,
          -1.17068259e-04, 3.99848941e-04, 4.29866777e-04,
          -6.22027583e-05, 9.40845130e-05, 2.20556412e-05,
          2.85405171e-04, -7.15787537e-05, 2.41180009e-04,
          1.72601271e-04, 2.09676713e-04, 1.01809972e-04, 1.91788175e-04,
          -1.25238657e-04, 7.04573031e-05, 1.70667525e-04,
          -1.51799628e-04, 5.34532417e-04, 2.66139890e-04,
          -1.02366375e-05, 1.76857284e-04, -6.00569838e-05,
          -8.11800928e-05, -2.32258171e-04, -2.21257607e-04,
          -1.21519806e-04, -1.08758075e-04, -5.57483436e-05,
          2.24038973e-04, -1.04605351e-06, 1.25159189e-04,
          -1.78824703e-04, 9.35552453e-05, 4.23882339e-05,
          1.20276018e-05, 1.62141459e-05, 3.43183841e-04, 1.26928775e-04,
          -5.27853808e-05, 8.90258452e-05, -3.98220145e-05,
          4.07518819e-04, 2.49845965e-04, 1.63470977e-04,
          -6.35336983e-05, 5.12591141e-05, 1.27417457e-04,
          2.68917996e-04, 1.86072313e-04, -1.45302387e-04,
          1.10363188e-04, -2.13160005e-04, -2.66264571e-04,
          -3.09758252e-05, 9.43326741e-05, -3.40720326e-05,
          3.60306760e-04, 1.76757785e-05, -2.79729516e-04,
          -3.77682445e-04, -5.04476426e-04, -2.12807296e-04,
          -3.02795874e-04, -9.36049328e-05, -9.54989300e-05,
          -1.20006305e-04, -1.10859073e-04, -3.51302733e-04,
          -3.01649532e-04, -2.17957149e-05, -2.61451118e-04,
          -3.15550773e-04, -1.98335139e-04, 7.84122531e-05,
          1.58381390e-05, -1.16875439e-04, 1.35792536e-04,
          5.62555470e-05, 2.16108547e-05, -6.53687457e-05,
          1.63362147e-05, 2.24928124e-04, 2.24198666e-04,
          -1.20008572e-05, -8.50462675e-06, -1.09063942e-04,
          3.70968919e-04, -1.83882235e-04, 2.64999282e-04,
          4.11373941e-04, 1.26110599e-05, -1.74311368e-04,
          1.63237273e-04, 3.79936158e-04, 1.54334139e-05, 9.41654362e-05,
          2.09673439e-04, 1.26031009e-04, -2.61763489e-05,
          1.94457170e-04, 3.03700741e-04, -7.95916858e-05,
          6.74823823e-05, 1.81727752e-04, 1.08579661e-04,
          -1.41232857e-04, 8.23204755e-05, 1.60347743e-04,
          4.35891161e-05, 1.27221094e-04, 1.53426197e-04, 2.02408744e-04,
          2.58935208e-04, 6.14438977e-05, 1.05041116e-04,
          -1.34830931e-04, -1.08555680e-04, -9.81833728e-05,
          6.09139715e-05, -2.01812640e-04, -7.10545937e-05,
          -3.94377239e-05, -2.71599747e-05, 1.78273709e-04,
          2.98622850e-04, -2.83548725e-05, 9.76493266e-06,
          -2.84149370e-04, -5.63135982e-05, 5.54668304e-06,
          5.53365389e-05, 1.87680362e-05, -8.36240361e-05,
          -9.53718190e-05, 1.09663422e-04, 1.64503799e-05,
          -2.17750174e-04, -1.70698520e-04, -8.48257914e-05,
          -7.33510460e-05, -1.51144923e-05, 2.11511506e-04,
          1.72435699e-04, -1.01796992e-04, -7.81458220e-05,
          1.39187512e-04, -3.19230130e-05, -3.43528925e-04,
          -8.84694891e-05, -2.12828949e-04, 7.77018504e-05,
          6.94269620e-05, -1.40162098e-04, 1.35536058e-04,
          -3.59846345e-05, 6.86394633e-05, -7.63692806e-05,
          -1.50774169e-04, -4.81471288e-05, -2.69598735e-04,
          6.79276127e-05, 7.58140322e-06, -7.37643932e-05,
          1.89981496e-04, -1.60782773e-04, -2.47441028e-04,
          3.79279118e-05, -8.61841090e-06, -1.06346190e-04,
          1.73598135e-04, 2.65406125e-05, -2.76243751e-04,
          3.63472442e-04, 1.25328530e-04, 2.19875365e-04,
          -1.18821350e-04, 2.17092398e-04, 4.43837926e-05,
          -1.72048414e-04, -7.27022561e-05, 1.34148184e-04,
          1.09316446e-04, 1.20627403e-04, 7.02428297e-05,
          -9.41178223e-05, 8.44311508e-05, -3.39283753e-04,
          -2.75795668e-04, -1.31147506e-04, -4.61006821e-05,
          2.01229326e-04, 3.29452014e-04, -1.52698587e-04,
          -7.08486405e-05, 2.70165154e-04, 1.91506711e-04,
          6.08857255e-04, 1.53675879e-04, 2.61283887e-04, 1.84495875e-04,
          3.25963541e-04, 2.79371375e-06, 1.89176368e-04, 8.56807765e-06,
          -1.03924276e-06, 4.17192758e-04, 3.24667926e-04,
          5.82869281e-04, 5.91942226e-04, 1.79494091e-04, 3.61342012e-04,
          1.31293098e-04, 1.06131651e-04, 1.94990789e-04,
